{
  "state_dim": 37,
  "hidden_sizes": [
    128,
    64
  ],
  "gamma": 0.99,
  "hindsight_k": 4,
  "constraint_penalty": 0.1,
  "subgoal_bonus": 0.05,
  "executor": {
    "state_dim": 42,
    "action_dim": 8,
    "hidden_sizes": [
      128,
      64
    ],
    "actor": {
      "layer_sizes": [
        42,
        128,
        64,
        8
      ],
      "weights": [
        [
          [
            -0.05335154104857866,
            -0.12107969893103221,
            0.11138421190685203,
            0.12887978390301402,
            -0.12081167396510185,
            -0.015866750326454734,
            0.20758930310973064,
            -0.23820712632483487,
            -0.0021612080236623503,
            0.16799875079884352,
            0.10730095243308463,
            -0.12239814745536527,
            0.021844449188742215,
            -0.0846963244972448,
            -0.0010686206330952023,
            0.0776675009359621,
            0.19588341279367558,
            0.1933417345136643,
            -0.07947020253965437,
            -0.12797264143757528,
            0.09357362280620472,
            0.13282734439057342,
            -0.07554635643912389,
            -0.2918353092273099,
            0.07642937539205931,
            0.11856621886044111,
            0.06859562527327284,
            0.04744986711453583,
            -0.09842705212844632,
            -0.07518590268227333,
            0.08407416088769053,
            -0.19179634401676385,
            0.04468130449626849,
            -0.23109666606963244,
            0.07913759770018937,
            -0.11173296348783746,
            -0.10272737320266678,
            -0.16603543750093216,
            -0.08928623386589235,
            -0.058267166202710635,
            -0.11192143387872833,
            -0.13577514459568862,
            0.2499891975110436,
            0.0786388282475921,
            -0.003897160579755775,
            -0.15945913611063503,
            -0.004968974492250696,
            -0.16150947732237694,
            0.052150915591337055,
            -0.05683091848805641,
            0.08174967527654269,
            -0.07649236736077963,
            -0.14496525649076591,
            -0.040028016988883745,
            0.048747966102969005,
            0.07256155005498256,
            0.11293577704327563,
            -0.10440417881326682,
            0.04215890024166425,
            0.06544469591872759,
            -0.007424563750191679,
            0.25139150003053085,
            0.041448855999391805,
            0.039792766005605856,
            0.11283019215152282,
            -0.024394834165806047,
            -0.09402709134092883,
            -0.013064061123139115,
            -0.09378612439354704,
            0.046691258426916134,
            -0.019334612139418554,
            -0.02993284018272383,
            -0.019514063446684406,
            -0.1736283342943305,
            0.04872535923631905,
            -0.19754565671758106,
            0.25869028996509186,
            -0.11724398215528165,
            0.043410024855914914,
            0.23726134674520796,
            0.10741661953663542,
            0.013735180054172524,
            0.14228799093032846,
            -0.06044547179559014,
            -0.07347885952852373,
            -0.008001198021898352,
            0.07118617094334233,
            0.022253231468209244,
            0.10488175973616305,
            0.1387789541463627,
            -0.014463860051554102,
            -0.1829496692508505,
            -0.11510821463226305,
            -0.09857909546095818,
            -0.016714415462770107,
            0.028984087776233118,
            0.032914411121282974,
            0.014454326843420483,
            0.08089994381492288,
            0.20980409443517972,
            3.7054062264802406e-05,
            -0.15729579779013475,
            -0.11326941805394365,
            -0.06218515426503848,
            -0.06790494197441246,
            -0.10386211334785708,
            0.001700655736478914,
            -0.20640975350845783,
            -0.09486574455418216,
            0.28123487452972296,
            0.18231719854696007,
            0.03970345995872653,
            -0.08179660714145164,
            0.15155704992542607,
            -0.0028939530364179536,
            -0.1999795430589902,
            0.18769055615367128,
            0.05525168104763198,
            0.05029459496015152,
            -0.1782347191332574,
            -0.12504428438845433,
            -0.03951795727992849,
            0.10125763774954794,
            0.20178147013781178,
            0.09075247270435118,
            0.07368350688369857,
            -0.0890647026975394,
            0.017079515694613395
          ],
          [
            0.002733555971866883,
            0.02012242764574387,
            0.1891150796057583,
            0.16806485024048348,
            0.17220187803411796,
            -0.1170292692903587,
            -0.01781266355631029,
            0.0074658431613136185,
            -0.11362740321588821,
            -0.2100278478333347,
            -0.052886451394418284,
            0.2100524936904083,
            0.04457058472511348,
            -0.11268010110201133,
            -0.03657017049807189,
            0.04548529347444234,
            0.09901586195214061,
            0.04806095561485275,
            0.06296323554992743,
            -0.1326668035476961,
            0.1632529212461702,
            -0.013261230771164584,
            -0.1676574808195768,
            0.10367890998200945,
            0.04330570836091264,
            -0.11951486806372565,
            -0.09169403813002795,
            0.2397675438721737,
            0.01188347262398901,
            -0.07155828805219301,
            -0.018986209590030792,
            0.08235295197443372,
            -0.04387664184375271,
            0.1010431708997693,
            0.1862122438591357,
            -0.06561167138934873,
            0.019087214399000737,
            -0.024370733358648346,
            0.12571295331465762,
            0.09682350132143491,
            0.022297133353282456,
            -0.05057302103802631,
            0.18648638253987895,
            0.026792128445154627,
            0.06538458071855999,
            0.0040592550545703295,
            0.03515130701889867,
            0.022764396279975712,
            0.038945207993774794,
            -0.14801962385904752,
            0.14269631309081385,
            -0.1454819407275987,
            -0.1824284487839909,
            0.13488483309687999,
            0.11481797487100073,
            0.14382430442234537,
            0.02089317883148144,
            -0.021202161436857186,
            -0.0343499815107971,
            -0.04937445161999979,
            -0.1724595299003911,
            -0.05570846311979578,
            0.005219759467795985,
            -0.041168687257369066,
            0.04529982939832857,
            0.136676223438962,
            0.04287941669953044,
            0.1362471559195016,
            0.07251221747471619,
            0.20230083460256862,
            -0.037578393047416954,
            0.05016361151175225,
            -0.110530911100448,
            0.050927089581966255,
            -0.14407849774457002,
            -0.12583698124553544,
            0.08607469758875844,
            -0.04844477968289635,
            -0.11693941834980602,
            -0.04840137345452139,
            0.07523987915433519,
            -0.036823301610296635,
            -0.05642185206468924,
            0.1714796922024238,
            -0.06193596811822157,
            -0.039876781741159883,
            -0.016549491285595717,
            -0.027229864570049257,
            0.05582451611981563,
            -0.033344511296260454,
            -0.15999336620430993,
            0.10069756931609837,
            -0.029856909213053413,
            0.08060975044592356,
            -0.052769464868587815,
            0.044765627309739306,
            -0.10650447893900682,
            0.008265822341220974,
            0.042676113948464135,
            -0.08609155782835148,
            0.010310517234449671,
            -0.0949426426486159,
            0.3421470827432541,
            -0.07626565575781377,
            0.16806539311166147,
            0.002659867595099852,
            -0.016195272447680018,
            0.015957246566865355,
            0.17982012939527184,
            0.017767756451198526,
            0.03336086263596641,
            0.03776585542011096,
            0.025356313924807895,
            -0.12025188157478714,
            0.21664650268527014,
            -0.11103672263654579,
            -0.10542596914805108,
            0.13648076301699136,
            0.11230579472091606,
            0.02934157168391357,
            0.047533482199964984,
            -0.05607200757598927,
            -0.15405241964676022,
            -0.2290449786958161,
            -0.15728636767712675,
            0.008998947649338203,
            0.19746253333168196,
            0.018361365959920488
          ],
          [
            -0.06383658716634216,
            0.22900231150713807,
            0.09281800809464967,
            -0.3424219124491487,
            -0.03376332694063682,
            -0.12151491612136467,
            -0.19969443094287861,
            0.00280233986772703,
            0.2007464557482871,
            -0.11251475706278226,
            0.02312728280449969,
            0.024333689283082705,
            0.07534444884526714,
            0.06136561535431098,
            -0.133211381501257,
            -0.08415554215633408,
            -0.010199018271844927,
            0.03429523864210149,
            0.15712355294204194,
            0.045776401889555306,
            -0.1496684749604658,
            -0.055336425534633235,
            0.000183165525618649,
            0.0877615334428192,
            0.034045312758539344,
            0.009507204187951195,
            -0.013311187798560341,
            0.02379648039480485,
            -0.07537744803164727,
            -0.06564174080178978,
            -0.01890421473534413,
            -0.04015955757427424,
            -0.0025471686061577007,
            -0.12769306242190723,
            -0.0669922886974376,
            -0.13353233783921506,
            0.0026606499384012267,
            0.196315950190731,
            0.17771005780153193,
            0.19748445425225114,
            0.07275162926348819,
            -0.09370260483053196,
            -0.027306221521305924,
            -0.09610423315802015,
            -0.051480871273857386,
            -0.2364254509165749,
            0.033468052991390926,
            0.08727934399198481,
            -0.0038386020414615967,
            0.12820720435439376,
            0.03597788932150916,
            0.08090809347979824,
            -0.12543960955342642,
            0.032460265140289254,
            0.11767119740844155,
            0.04667202107253821,
            0.2164486306054155,
            0.3073852303062236,
            0.07383037368355558,
            0.015752730570814562,
            0.007225769178612794,
            0.18444756746374916,
            0.025914001966518548,
            -0.08334394123187637,
            0.10467012586718272,
            0.0806755569896012,
            0.10295342024301911,
            0.07573902121850942,
            -0.13868342493939126,
            -0.300951145362522,
            0.007794501146486957,
            -0.06330460127512537,
            0.10921976817553156,
            -0.11784010114401208,
            0.1376931521624368,
            0.11560818992477732,
            -0.2690690059443648,
            0.044332307696786644,
            0.030255836236508522,
            0.028546820895203866,
            -0.16249840136590987,
            0.026871806284580697,
            -0.07887789557084009,
            -0.14636576864027073,
            -0.026733584310705674,
            -0.0042124611689624315,
            0.14163025253816572,
            0.17378629076599655,
            0.20303472454106142,
            -0.04959673628758945,
            0.03627508679944674,
            0.13375834763251765,
            0.004157909175061978,
            -0.0032364038260918196,
            0.04110773445928783,
            -0.06167839414028721,
            0.12345809591065887,
            -0.21221432869325987,
            -0.06493164647473858,
            0.30282564015191227,
            -0.20219328967953773,
            -0.3203810846165851,
            -0.1937585990767868,
            -0.13474842698990314,
            0.005531174355833906,
            -0.11037056423930462,
            0.1045141271365655,
            -0.12551000393989775,
            -0.013688884330314899,
            0.023808637619377387,
            -0.11242547592656411,
            0.08095087911151738,
            -0.18035977563234387,
            -0.028965659970251453,
            -0.06117289536643805,
            -0.006138972614025888,
            0.08119205706639049,
            -0.04239353550918871,
            0.06852596161898657,
            0.035987276832699214,
            0.0816532012064761,
            -0.1839586620580113,
            0.15318623240342175,
            0.008559076992101655,
            0.10147315244471815,
            0.13368580042583275,
            0.08975945866544655,
            -0.13138784514197765
          ],
          [
            -0.009113171736545387,
            0.05552250882048373,
            0.023642615181356026,
            0.06985482248718143,
            -0.1797691620667326,
            0.09187347272776178,
            0.038247109951921765,
            -0.045349128992402156,
            0.01604005945845275,
            -0.020397712653631262,
            0.0893461277191581,
            -0.17081103872031908,
            -0.05223465945940501,
            -0.07629001803045782,
            -0.1778149176589025,
            0.11742192186502128,
            0.07852969967872733,
            0.22026377146403048,
            0.014083385249767212,
            0.040435022090144185,
            -0.05868174505604104,
            -0.14841584525837256,
            0.06937088458148806,
            -0.007365898859032654,
            -0.053784363494111136,
            -0.16831424775445936,
            -0.03349192172379371,
            -0.033054688038462725,
            -0.11936080814582345,
            0.13770984678511547,
            -0.17089767911309534,
            0.06043411726154018,
            0.06157941250388995,
            0.009495457139926501,
            0.0076489733411812975,
            0.0485452509053031,
            0.03027096161305648,
            0.03920264078422014,
            -0.055466140643524335,
            -0.0754643379968383,
            0.01626982562062013,
            0.02368834559441961,
            -0.020894683918803322,
            0.13764176226661123,
            0.011972929010028046,
            0.033105408811939026,
            0.08884645638826763,
            0.03408085760937974,
            0.1319820990599869,
            0.11326387343906805,
            -0.1519086185022536,
            -0.06750135935159489,
            -0.04112682744646756,
            -0.07447032374903041,
            -0.025178809632562447,
            -0.07774138164179216,
            0.23635046767327675,
            -0.10293921821196067,
            0.0449775883163324,
            0.027796845443788475,
            -0.09522009431059064,
            0.1697283626179765,
            -0.054002127439532456,
            0.09425835986031876,
            -0.23041203391009973,
            -0.09967906311846081,
            0.18644614129713596,
            -0.03222346233920501,
            0.003910555891370112,
            -0.06718926156322552,
            -0.0884324168614835,
            -0.08346676573711066,
            0.008231882322315965,
            -0.10516370606776484,
            0.1522254930074333,
            -0.07050976862070213,
            -0.13995822475423375,
            0.09902304540102283,
            0.1085824831213544,
            0.03312409111934577,
            0.1406114969100228,
            -0.033470667764883555,
            -0.06443776829454881,
            0.07273749575591709,
            0.110250733868763,
            0.1001150065787864,
            0.009467373901158361,
            0.2875488828755251,
            -0.09636494594620647,
            0.049305708053483534,
            -0.03934416829526347,
            -0.030175505768200286,
            0.01373244248853297,
            0.0545345116279177,
            -0.027841012036845945,
            -0.08262327948407629,
            0.00549182338639582,
            0.005449243775977113,
            -0.12837036990856102,
            -0.22049433383725497,
            -0.13888732563255074,
            -0.12278017369591407,
            0.047143879557495,
            -0.09052880147374677,
            -0.1405701053505205,
            -0.11809335835867503,
            -0.012421217126376225,
            0.23538056772677976,
            0.06643114791470574,
            -0.06480936904312809,
            0.006060497278498105,
            0.12976506553097178,
            -0.17070162413210488,
            0.008385216052776713,
            -0.17473416551108772,
            -0.14434419298738738,
            0.060926167242266766,
            0.05788297728761626,
            -0.048473969193213964,
            0.011002964294725779,
            0.01749428621512552,
            0.013625157613112433,
            0.16822834680612853,
            -0.17552666450428545,
            0.06996467927327638,
            0.007811468751352237,
            0.003854150650922059,
            -0.020154091383689215
          ],
          [
            0.10619566474946644,
            -0.08778899091932224,
            -0.10256103451508453,
            0.10581088743085115,
            0.20174451460688564,
            -0.15735819226690312,
            -0.072862635296413,
            0.05912376336098731,
            -0.07137907558862443,
            0.21666986037317357,
            -0.04157471233844221,
            0.154813573030469,
            0.07385478120840662,
            0.022435875359375152,
            -0.008610670652839006,
            -0.19360220192614427,
            -0.15012915626690082,
            -0.05616771221199642,
            -0.049696789293876574,
            0.20853542843211312,
            -0.06167736831853623,
            -0.050606509548168824,
            -0.08385218708158726,
            0.11654349417562156,
            0.14491484139407582,
            -0.08770145324733485,
            -0.19372341245942676,
            0.04379797987685992,
            -0.03696591134380396,
            0.08444876362707161,
            -0.15622287049633318,
            0.058696450426483034,
            -0.002271129466094106,
            -0.05382085039964064,
            -0.05897716548456257,
            0.05032150826115616,
            -0.06267043149127825,
            0.09496765830588527,
            0.014173658920093446,
            0.05186624073278097,
            0.07834211601781997,
            0.09280805231446417,
            -0.0245680012098456,
            0.0064761737195370254,
            0.11203917743553811,
            0.04634947179633679,
            -0.05525338451386164,
            0.014400635372993643,
            -0.1299441912901364,
            -0.04849670416666547,
            -0.19298103629408356,
            0.09718969132991921,
            0.047407518863280575,
            0.09862809899309907,
            0.11490558825264593,
            -0.17148666719205896,
            0.1149256531340057,
            0.12947164483722826,
            0.07206534999294142,
            0.02798278090638579,
            0.06572567898407451,
            -0.08840575729082668,
            -0.10111914695225539,
            0.013348242960435488,
            0.14292138392083611,
            0.010802245956644646,
            -0.08411129502192369,
            0.15776984183551362,
            -0.10578481683975831,
            -0.015579771488598331,
            0.028203916083850783,
            0.16904589253825725,
            -0.04564016391583515,
            0.05164460208591281,
            -0.015380145154930506,
            0.038036342585051855,
            -0.15728961527533664,
            0.08339896301696488,
            -0.04723832863051408,
            0.13831321673358205,
            0.04183801334080622,
            -0.09450150886497778,
            -0.009942565762390653,
            0.008404052043321507,
            -0.06541301071183155,
            0.08628609143993428,
            -0.014822618827308665,
            -0.054715459815980125,
            -0.04596114192495104,
            -0.021199796959659685,
            0.07334049703029528,
            -0.050962515728000424,
            0.005461173199948556,
            -0.09017667960369509,
            0.1506785782588553,
            0.07315940371169138,
            -0.03324290289476569,
            0.13997253409425106,
            0.006281976313976125,
            0.14807384477757646,
            0.0945727117133021,
            -0.01544009314519644,
            0.1647300875275125,
            -0.03904853663236551,
            0.10173034966887054,
            -0.0546135833673491,
            0.11248967013168888,
            -0.13587413988246705,
            0.15717255871706673,
            -0.1562198310801111,
            0.07070286552496223,
            0.18043760547702886,
            -0.11583414195830485,
            0.012596401655358039,
            -0.1552319038747482,
            -0.04544674020008825,
            -0.016702208931711544,
            -0.14441578146485134,
            -0.04886957603706583,
            0.002486603877746988,
            0.05714545525684474,
            0.17823534437024188,
            0.0850459130029352,
            0.012202489881346614,
            -0.01961257654406031,
            0.12276955128780369,
            0.1178631560998916,
            -0.1588812853340511
          ],
          [
            -0.17379500565035944,
            0.1966587262789934,
            0.01145517068949937,
            0.002594205666395597,
            0.04960918158376746,
            0.0976701909497323,
            0.04327969043991881,
            -0.02369138540433907,
            0.009704664760821524,
            -0.06554536938042967,
            -0.11922016330484508,
            0.029533846271791533,
            0.08020916041759875,
            0.1198471203501098,
            -0.0895065054818728,
            -0.033548674029085505,
            0.16937371907483428,
            0.014271793817498893,
            -0.035962144689802376,
            0.06253936831685634,
            0.04211462232887821,
            -0.17475147204245228,
            0.07550151404390192,
            -0.08785932703960145,
            -0.03819120531265916,
            -0.08561122674523108,
            -0.0003782606804322818,
            -0.17623335045087532,
            0.054368212715763906,
            -0.33122216009562766,
            0.03746442717726012,
            -0.15750615915029212,
            -0.1451391532389425,
            -0.1294656964440103,
            0.30122246956077525,
            -0.16302640214978273,
            -0.0425760963537081,
            -0.10750812936704739,
            0.07523525221494981,
            0.012224990495494723,
            0.027111697538261443,
            -0.031949986156568265,
            -0.010099134603568411,
            0.12539331405936682,
            -0.1567291372622129,
            0.010439265837848002,
            0.09043966593196005,
            0.21855313720505803,
            0.12174846373557964,
            -0.14374154339307602,
            -0.11916168865933903,
            0.23012504589152133,
            -0.01917968423147058,
            -0.11581450898427009,
            -0.0784405157285636,
            -0.1538108206019623,
            -0.028151601276566417,
            -0.11720804132284668,
            0.029076711386637945,
            -0.21064749740278144,
            0.09729575225831914,
            0.005561407018691908,
            -0.07474067346911527,
            -0.016144561308299932,
            0.06799644609647382,
            -0.07337957783857639,
            0.0020537353739264724,
            0.021264843561909972,
            -0.04042316304586646,
            0.11288344433547076,
            0.15199114922300613,
            -0.05684181821269303,
            0.17135615614825428,
            -0.04270133608154252,
            0.16402518117339926,
            0.08273876624057543,
            -0.035835199163349866,
            0.050477813557749704,
            0.02861941406253026,
            0.09714748465980717,
            0.17181169601836896,
            0.02962743524849095,
            0.037084663061291843,
            -0.04057851091626053,
            -0.07439002813543753,
            0.11640293467965579,
            -0.16115677709920342,
            0.07455044001695336,
            0.1725978324742157,
            -0.02589113460863665,
            -0.005404557007680664,
            0.07695230031888219,
            0.04268848105681944,
            -0.10128827265584948,
            0.051414399463677665,
            -0.07596459050342856,
            -0.13046481453488545,
            -0.15022871211958552,
            -0.19031965291170375,
            0.12146038655471632,
            -0.056002745603838285,
            0.07586869640388785,
            0.09690233463706706,
            -0.04905870532131343,
            -0.04604673330887617,
            -0.019621125463464117,
            -0.04503459627745923,
            0.22577979908449153,
            -0.05992478888677812,
            0.0811700691630085,
            0.1312513725421056,
            -0.06853678252096021,
            0.17364227590430031,
            0.04441955199644577,
            0.17051519025078155,
            0.06487495529975067,
            0.13827886720623572,
            -0.036875395263374286,
            0.06658769114334995,
            -0.08816590794627677,
            -0.0015394946214573378,
            0.15255760665503548,
            0.07565154585385832,
            -0.18664994559539133,
            0.02281831241115118,
            -0.021398114252798906,
            0.13919948781847205,
            -0.2520694265124656
          ],
          [
            -0.06398602508241082,
            -0.10036074405580528,
            -0.060351434896996535,
            0.07474509553905652,
            -0.06829003111590055,
            -0.10909238677790853,
            0.047660142909108624,
            0.1246631568697062,
            0.14605435350040577,
            -0.02429536759157782,
            -0.1558085724213199,
            -0.011956804979021763,
            -0.040128464321680206,
            0.029319676993200552,
            -0.11673015684252673,
            -0.1944976750787246,
            -0.1001488177448269,
            0.06842613029361996,
            -0.04851141649387604,
            -0.05828353980165929,
            -0.06180309944687034,
            0.08310672593456103,
            0.04485730598969159,
            0.012780721249337925,
            0.15772961947698708,
            0.10605740452774932,
            -0.08228875337604231,
            0.0770533704486727,
            -0.013916762478738985,
            -0.1596929352994355,
            -0.014057058326211857,
            0.11471381919837169,
            0.06861192485331441,
            0.16113092376639607,
            -0.1664427031309453,
            0.05314720725675398,
            -0.1337452754948162,
            -0.11816756474588397,
            -0.042333560606325656,
            0.1477346700851291,
            0.07227642600648258,
            0.02651765256966443,
            0.0733045415376972,
            0.04695795575758145,
            -0.15322616280614318,
            -0.07037611417863494,
            0.0032817338698205435,
            -0.011893548844002767,
            -0.17970602433841804,
            -0.11795074934581387,
            0.05171101755194041,
            -0.12418251064427344,
            -0.006788961318459355,
            0.027454409884441935,
            -0.042300212727563465,
            0.01477866577134814,
            0.06578498662556408,
            0.1541336933643483,
            0.2013724671469614,
            0.18807708663304765,
            0.052247760262121586,
            -0.12206629545819973,
            -0.07590846937953956,
            -0.11029694039965227,
            0.044839923532128984,
            0.022066668294091832,
            -0.07095261446519129,
            0.16726425952074886,
            0.06445083760445496,
            -0.10129152954248313,
            0.08124626387631448,
            -0.017600041528372266,
            0.07517127745112086,
            0.10237668673302837,
            -0.02916207318529428,
            -0.1283284785943079,
            0.04830129631478847,
            0.11029684175895008,
            0.11758920650014519,
            0.1510352468164247,
            0.15619664679886208,
            0.15726381827578786,
            -0.032292761953896666,
            0.19273136981317743,
            0.09840943025278209,
            0.0972479613043283,
            0.0930814886878471,
            0.2845785733174778,
            0.1205789803891284,
            -0.06453863649128941,
            0.03183148259665869,
            0.03224666893703713,
            0.04928225118798901,
            -0.09408777068048582,
            0.11744384669457794,
            -0.1769616636388404,
            0.1950681592844956,
            -0.059182149430196535,
            -0.10015583933891992,
            -0.11937476595773536,
            0.14235857740250532,
            0.03897172894313989,
            -0.08234361774291414,
            -0.10100271262919995,
            0.00779733315950986,
            -0.04368672429129319,
            0.1036192848416974,
            -0.022332941400510325,
            0.07481040165300624,
            0.08172302244886528,
            -0.18887969252601272,
            0.12663125891861518,
            0.1206651426207146,
            -0.03462718707774835,
            0.08278504772901406,
            0.02790916297252685,
            -0.028416212519613085,
            0.06433137431952302,
            -0.1810243606818935,
            -0.05926859155057799,
            -0.17663598043488501,
            -0.1374545717796154,
            -0.0004900761194018755,
            -0.005290826001686947,
            -0.025093650362871027,
            0.1632026935047787,
            0.11702109216809106,
            0.04612197490089315
          ],
          [
            0.05467392960911961,
            -0.0725522858210976,
            -0.13934077513424842,
            -0.06566462440086071,
            0.15615378050679796,
            -0.01454058986688647,
            0.1773595448405686,
            0.3148737431762057,
            0.049588369365800154,
            -0.0170162170227762,
            -0.10980676111545262,
            -0.038106733465723235,
            0.06799726768934382,
            0.07856936818481501,
            -0.1239920336798613,
            -0.06203908665160754,
            -0.1366763355760457,
            0.0779928289699444,
            0.24626670249620897,
            -0.10370681776123981,
            0.07923226886312797,
            -0.17256425402764425,
            0.13779410247014284,
            0.12892368997518533,
            -0.07694880854508655,
            -0.001959578555675739,
            -0.014083122677392037,
            0.11543748458414733,
            -0.10261505948849078,
            -0.1840501083729438,
            0.06575293971668032,
            0.007441021825736224,
            0.01837781808883455,
            0.2104118491657263,
            0.009161896211199068,
            0.08330729484511802,
            -0.17393391046934312,
            -0.04557234735356175,
            0.11613192348380474,
            0.1259286926733089,
            -0.00878178300366716,
            -0.1311663194653088,
            0.1791621436852748,
            -0.10029349290773128,
            -0.07310110488628702,
            0.13435145884472677,
            -0.039814702976537934,
            0.03427495821832342,
            0.019367710359247493,
            -0.0063997518821759655,
            0.11473169981493102,
            0.12991154984799705,
            0.00247219661354755,
            0.06955029170231403,
            -0.09218710557235939,
            0.15797234260683488,
            0.07773973876344073,
            0.09972627409459583,
            -0.09679303447386256,
            -0.03342596270564823,
            0.045298858725351596,
            0.03168867632276445,
            -0.04619254924784959,
            -0.08222744664303691,
            0.10426589013039851,
            -0.01832561388348408,
            -0.013536845412036431,
            -0.030138997992480595,
            0.06745729802181946,
            0.03936774451773484,
            -0.1727416418846098,
            0.13010391557019882,
            -0.1081500131054029,
            -0.11640671417454315,
            -0.06407783662540638,
            0.020165046636019413,
            -0.00012950338553082696,
            -0.07490532254362149,
            0.09008023472983584,
            0.09168792418620318,
            -0.06313086066346242,
            0.12251344001270738,
            -0.05296061087257451,
            -0.11503379838678178,
            -0.14115804808475435,
            0.1575006038662208,
            0.0958483174693313,
            -0.15194125723252305,
            0.09612524913386697,
            -0.03763194731109626,
            -0.018791172521689492,
            0.08224934469292984,
            0.15693153914460048,
            -0.04532477395856117,
            -0.07652838864829112,
            0.01843896235727171,
            -0.08732202575682624,
            -0.17361610977159447,
            0.09832195081386573,
            0.11086090970110352,
            -0.06300103105848699,
            0.006436416682523767,
            0.07540866610162081,
            0.06403498720638144,
            -0.07024079563145405,
            0.0025446069860559375,
            0.02391497924173881,
            0.14035312884005824,
            0.07800852227181462,
            -0.041330932615773405,
            -0.026444953969853767,
            -0.12234297875351181,
            -0.03929953567748269,
            0.0382529381542311,
            -0.044202922013450885,
            -0.011063195816378402,
            0.04650236692789712,
            0.04107471632850093,
            0.09086796472987997,
            0.1851209035674333,
            0.013939292280139565,
            -0.20860552162846085,
            0.0031842084113656126,
            0.08662421492968937,
            0.10377725329880205,
            0.18339044529337817,
            -0.14164042444791375,
            0.08998115628018946
          ],
          [
            0.017941055427081454,
            -0.11739448692442121,
            0.02820482920545192,
            -0.07423881736830391,
            0.10483354631017695,
            0.08559409864213491,
            -0.05305899385464337,
            0.03610870918707631,
            0.07787369863611969,
            -0.0360210385020357,
            -0.05853722417926381,
            0.09992615335427579,
            -0.10399836477998221,
            -0.04870861179661436,
            0.039870071696581744,
            0.13652264375462736,
            -0.11344823597711291,
            -0.021402453006453735,
            0.07986688556058551,
            0.11264883075364165,
            -0.1677316052526482,
            0.05842541776630396,
            0.03157070800430362,
            -0.04229448580286228,
            0.17735358624330075,
            0.13317055635852748,
            -0.0603137172667998,
            0.12867900420829612,
            0.07247634451813278,
            0.08007638663756325,
            -0.17180949556514044,
            0.04413623553372334,
            0.03870826911932278,
            0.08867457929982384,
            -0.09971286875956474,
            -0.019043153954156303,
            0.031553997179527185,
            0.05369990754291791,
            0.09574404115178285,
            -0.06453847082238609,
            -0.06633484488855565,
            0.0595593540335634,
            0.10835912307064434,
            -0.043597494181899336,
            0.04975601873255001,
            -0.07818847076108605,
            0.000826920976993835,
            0.17641666665630723,
            -0.17871340208331332,
            0.0965086298270467,
            -0.13362006649488328,
            0.08018738419402885,
            -0.05865699606037325,
            0.09046759329513289,
            -0.06899941811669429,
            0.22193549726496128,
            0.0021568619368851727,
            0.06683914667378688,
            0.13311201847532134,
            0.07923176929961022,
            0.16937920640972676,
            0.1507458078006001,
            0.03427712202309497,
            0.03090959385267065,
            -0.0788837963916964,
            -0.23037177040194173,
            -0.2546023180506978,
            -0.11735158190762367,
            -0.12302249182635938,
            -0.10960530586498324,
            0.11308879887491778,
            -0.11129980035791077,
            0.038837758553806716,
            0.1012587605222438,
            0.08960919502986302,
            0.07518176861883348,
            0.07951043937842063,
            0.025510054354552617,
            0.1661883701732733,
            -0.09962398774013248,
            -0.08952614553888126,
            -0.12045511201190764,
            -0.08372999381874721,
            0.010596748466350546,
            -0.12289115309256968,
            0.017178696066870135,
            -0.05465478400299768,
            -0.09822560991793045,
            0.02432050876066748,
            -0.0821005820134374,
            0.24006505995384644,
            0.049825963273576884,
            0.16468938430408525,
            -0.044867282256770995,
            -0.20596989920912384,
            -0.021857372790275272,
            0.11356505065700362,
            -0.017812701756025246,
            0.13857901131427144,
            -0.03146234315134854,
            -0.0754580177582294,
            0.07944368572359334,
            0.00027286636069163495,
            0.1422187136033457,
            0.08570966623105812,
            -0.07130420693147295,
            -0.1417556397715063,
            0.032581177045999964,
            -0.061933537280217076,
            -0.08574327076407316,
            0.03333360292923167,
            0.257889926316632,
            -0.058574892049122064,
            0.22969411988138172,
            -0.20870555161727555,
            -0.2097929530520423,
            0.07948582512491408,
            0.15435944679298344,
            -0.08624504842590829,
            0.1691547609577721,
            0.13666225121406012,
            0.14898362374041205,
            -0.010839724816233668,
            -0.008885785685928118,
            0.1493563149018849,
            0.22388006657310736,
            0.09609171484390153,
            0.18768613092283806
          ],
          [
            -0.27549731864103905,
            0.23022978011055162,
            -0.03393680375925125,
            -0.06392652566904328,
            -0.03631583008124226,
            -0.007056783839867536,
            -0.11692673023198927,
            0.05345371673805001,
            0.03463416484736292,
            0.06163079604135906,
            0.1910007438847219,
            -0.12438149134553346,
            -0.01076096738983256,
            0.04654912757368369,
            -0.09767550170884237,
            0.16275824389842092,
            0.004081826930282018,
            -0.0198387873790691,
            0.06912594568635713,
            0.0520723122855107,
            -0.02404223071802273,
            0.06907598232255668,
            -0.04718363094688154,
            0.04198480044195993,
            0.04511476942597082,
            -0.1510514426701652,
            0.1284667113994929,
            -0.0700921360894703,
            -0.08010192289367216,
            0.23419734915816975,
            0.03691779547195905,
            0.2186857958651418,
            -0.06145644237306561,
            -0.13987910858210675,
            -0.06436740750484334,
            -0.07485279273068242,
            -0.04358695461062183,
            -0.06902200622077913,
            0.09444538726117747,
            -0.1705053564104386,
            -0.002136860888824162,
            -0.1809147513006071,
            -0.17302484195113668,
            -0.061176308804706696,
            0.1659304659424902,
            -0.14815704376341923,
            0.028137426444646247,
            0.09741744774603607,
            -0.013868389737846395,
            0.2211771630881399,
            0.15777688333941106,
            0.021386309456675377,
            -0.17415700589707056,
            0.10883781188059342,
            0.17015272495252814,
            -0.19016430424929176,
            -0.09471662538787702,
            -0.18542598240532662,
            -0.11516857453187972,
            0.05607583948893687,
            -0.06729627404560119,
            0.14796018369139546,
            -0.10535144665942665,
            -0.11059803166944938,
            -0.003584983627922557,
            0.08394894329123553,
            -0.06468580907362516,
            0.13121299459952815,
            0.0348578671135028,
            -0.09185137524879512,
            0.06689919532866505,
            0.19752707799851546,
            0.03137062471772576,
            0.03623137453415707,
            0.01886962263191756,
            -0.042697875674862225,
            0.04006140243376215,
            -0.03338129096694217,
            -0.09695091973298661,
            0.00900147250766232,
            -0.16804914710886484,
            0.02288746659322721,
            0.010921077102604622,
            0.132755372370783,
            -0.030276501027391094,
            0.0018097608202974978,
            -0.1523073591831192,
            0.029416480389119187,
            -0.05037696511708843,
            0.1357477135754308,
            -0.017414096440902794,
            0.17454311831877914,
            0.05498632701105305,
            -0.1340818409063022,
            0.14116738974266652,
            -0.024438958118640972,
            0.09683161906951746,
            0.03378474687525274,
            -0.049429242856993474,
            -0.09478611417507651,
            0.12704927969869403,
            -0.09281572617416438,
            -0.0023558186737865122,
            -0.20525331906234495,
            0.12395887134545927,
            0.09692725056583165,
            0.021847328276312656,
            0.17005841301229815,
            -0.02307852289156114,
            -0.114165890464809,
            0.0016556773095342974,
            -0.0024684005671533455,
            -0.0698385872905197,
            0.018286374609905818,
            0.02180615302240783,
            0.0434519930812315,
            0.033471392876103845,
            0.19854936331464126,
            0.041889704280488674,
            -0.0019273216468638922,
            -0.0528832155043331,
            -0.02816239412294872,
            -0.12879350524559557,
            0.1377449656788479,
            0.19374242451012103,
            -0.006463512815855321,
            0.008894706256331675,
            -0.05999944512112866
          ],
          [
            0.06922984816033631,
            0.07218075903223628,
            0.0753563137533436,
            0.1547223175553231,
            -0.009034817344251557,
            0.019831376364902314,
            0.007323310940355376,
            0.00234707878191197,
            -0.031175612994927396,
            0.03683659941690481,
            -0.025820652056929874,
            0.03810580883282049,
            -0.017615815956502457,
            -0.16976513812804742,
            0.07511344168484335,
            -0.04118338948061794,
            0.029997800048687705,
            0.02636993436291488,
            -0.016597191679062602,
            -0.017380743555774857,
            -0.08087590873050034,
            0.025985948189885023,
            0.19712016190204548,
            -0.02067279181439305,
            -0.014263893182873664,
            -0.1348365484651701,
            0.011619444507880624,
            -0.009882514879684223,
            0.09188751994890017,
            0.15892843133234827,
            -0.007016933669760095,
            0.0201170842560106,
            -0.05815026024324232,
            -0.07524045896000817,
            -0.029811021484329556,
            0.037517154151226695,
            0.008431430931036864,
            -0.06209341956504522,
            -0.1067305899868526,
            -0.044021995685724784,
            0.10037213264480513,
            -0.11896044802893346,
            -0.03585585839950235,
            -0.0407784789879056,
            0.05821233006589369,
            -0.12238650494194683,
            -0.13242499445037004,
            0.1719777773951943,
            0.07458966080663279,
            -0.1093721000148216,
            -0.005243977980860542,
            0.12115255013335602,
            -0.06771990990332205,
            0.0008195459441078899,
            -0.07660788850716164,
            0.05230152225426363,
            0.08545712159758827,
            -0.10734345179292484,
            -0.14127653834805004,
            -0.019794809498966698,
            -0.1611483402077277,
            0.0018065341222837778,
            0.09956100394417296,
            0.04126302140864092,
            0.08284989453919317,
            -0.04366980507379833,
            -0.07135217255344098,
            -0.006693236092421789,
            0.01931927480289109,
            0.05942514482067021,
            0.07644330809078755,
            -0.009540412875984184,
            -0.1660727900481209,
            -0.0665517495787291,
            0.1803375807919211,
            -0.02130888598012632,
            0.036771726849904804,
            0.1477598111284959,
            -0.06712838910966831,
            0.1527385635720086,
            -0.1054054112081176,
            -0.1673654849330744,
            -0.12195345123171852,
            -0.07758044529044082,
            0.03983881691587495,
            0.2068179770708617,
            -0.08291145583599552,
            -0.05077609672286942,
            0.008297147848238534,
            0.09700379238492901,
            0.0987313896641015,
            -0.06009503040291491,
            -0.03181461218483178,
            0.2623817267194315,
            -0.1819698747478479,
            0.02008868562660369,
            0.03653258679516671,
            0.01756717851997481,
            0.009059980229651482,
            -0.0037719101167352307,
            -0.26142272926837573,
            0.10999741805600563,
            0.030296128361303215,
            -0.10093554365869363,
            0.011728270303318059,
            -0.08178964574075104,
            -0.047899295856808896,
            0.045441939372638816,
            0.03813132125238786,
            0.004357036040168292,
            -0.19512529239901077,
            0.14830079486528036,
            -0.03225126336856962,
            0.0017633298542686288,
            0.0866108322280403,
            -0.0758314557755045,
            -0.058032150545533734,
            0.012704172623423248,
            0.22425004275001956,
            0.0995959328994784,
            0.030346854725391666,
            -0.08104760660185792,
            0.009799532559899227,
            -0.29820992143601066,
            0.18904509464262087,
            -0.10748658866743342,
            -0.03259943631282122,
            -0.09728475370631308
          ],
          [
            -0.1563044208996423,
            -0.04726573123302319,
            0.09406158365817184,
            0.02123886593411103,
            -0.02000190474600624,
            -0.1609042302529535,
            0.02428743171731778,
            0.05444404965884211,
            -0.19070144293251234,
            0.03127091563324196,
            -0.21832313022022434,
            0.2519799076851908,
            -0.033221046308326674,
            -0.05638264994482705,
            0.03581934208775841,
            0.08566044080041167,
            0.09526067340334284,
            -0.11362193978447253,
            0.019059177571817156,
            -0.03581832308710063,
            0.08341386827387082,
            0.04194551272991731,
            -0.031902239634147136,
            -0.20796110281362806,
            -0.012002588231857899,
            0.06082340264294394,
            -0.04052314995952385,
            -0.06893880860497727,
            0.24666138687458392,
            0.05841471196898312,
            0.007769805998390734,
            -0.1473792386541355,
            0.16625178347978453,
            0.016218241233388535,
            0.03765991493568588,
            0.2608274170904551,
            -0.07933890776059234,
            -0.08938822216673827,
            -0.09008169198738261,
            0.10257693534205206,
            -0.14487944840889372,
            0.08230883204906175,
            -0.02667452707114464,
            0.2317920356769905,
            -0.24988725530315775,
            -0.04798123058039172,
            0.0017489683455830212,
            -0.06723827789196674,
            -0.08697555814985015,
            -0.022828716544472497,
            0.05658928441028953,
            -0.009403994183900038,
            -0.12102653753442111,
            0.07792295224611961,
            0.15164317146629855,
            0.057708350230901026,
            0.001982921104135152,
            -0.015474326719787108,
            -0.1535459372485741,
            0.018096117816720228,
            -0.04485079952760076,
            0.13637943810820505,
            -0.01811301913926825,
            -0.07792989754491765,
            0.09321150948114428,
            -0.004024027769988498,
            0.06233410939351627,
            -0.22971374184728527,
            0.05388208795319706,
            -0.0014956689849025733,
            0.051204829912687426,
            -0.1748630995383632,
            -0.12057749334313488,
            0.027685413628665428,
            -0.042635716291496935,
            -0.018469788984837886,
            0.13763987077314616,
            -0.051491055640276055,
            -0.04600422496046301,
            -0.053772969214381426,
            -0.023641249060494248,
            0.14161960125936893,
            0.025297967967351193,
            0.11318309342020091,
            0.041208489612401394,
            0.006035947112173624,
            -0.0013073682962357874,
            -0.10802864576700844,
            -0.01783749382345993,
            -0.2513914475524587,
            0.03560166713874379,
            0.31577293212162516,
            0.12536202469778063,
            0.0735520391168099,
            0.13885001358553425,
            -0.05070897811375451,
            0.00932196146949268,
            0.16564248792060754,
            0.11739683532941644,
            0.10416137128719576,
            0.025977797356369306,
            0.0029917199736287734,
            -0.09148369576593265,
            0.05187698796373497,
            -0.1724061288272735,
            -0.11704645920182426,
            -0.016532822370743563,
            -0.1483996317682805,
            -0.16920625306906306,
            -0.017225649246266114,
            0.013496352758244021,
            -0.023018113710651884,
            -0.029705674522299122,
            -0.015508133005547708,
            -0.0724939201535332,
            -0.07036357324959588,
            0.09589260348602788,
            -0.06252463976928713,
            -0.02544704054541228,
            -0.2014753354969842,
            0.027818463200714627,
            -0.0652734003601405,
            0.16019587512755157,
            0.08643980236950229,
            0.1552311165710681,
            0.1537516943223209,
            0.10944506894295011,
            -0.029924674139732158
          ],
          [
            -0.09418720637965869,
            0.18988602847839198,
            -0.05101537312337629,
            0.13568279041999146,
            0.09721896918376194,
            -0.005894278002837974,
            0.11673323795343885,
            0.04797057337585659,
            -0.07936549664878204,
            -0.133934084177645,
            0.06589530593219457,
            0.07178305082330147,
            -0.04433341246570918,
            0.1108408623451605,
            0.12177849005058618,
            -0.1440414862615645,
            0.03131989347218816,
            0.08345584089387888,
            -0.037424822579021515,
            0.030811078031498174,
            0.17275717272481703,
            0.11640910785658251,
            -0.037598161984766884,
            0.20695456686609998,
            0.02752642769453743,
            0.09326186195321458,
            0.06508904072005431,
            -0.19888362498303547,
            -0.0466098680265425,
            0.08529643684575666,
            0.1996956005602493,
            -0.026246489209554708,
            0.08938381438240497,
            0.04842999155869537,
            -0.02806733278993707,
            -0.07710229823123631,
            -0.07775343344515055,
            -0.0467597573159992,
            0.090220941948807,
            0.07219142006570188,
            0.12440355123727286,
            0.009161506993864366,
            0.12811231508569645,
            0.08003879112284908,
            -0.017396455111424815,
            -0.2733702593869039,
            -0.10650333487513929,
            -0.008579428660033321,
            -0.012578280227655976,
            -0.15052191766109588,
            0.08435470648788264,
            0.0671217396825746,
            0.0045605119410272385,
            -0.11295006666543732,
            -0.0783203701424744,
            -0.15738528773549132,
            -0.055186449806206885,
            0.10718529382362936,
            -0.031001239054809147,
            0.18508487068627605,
            0.0345827809861448,
            0.17895334670390217,
            0.03755631452999204,
            0.041364883270719154,
            -0.08993542872789664,
            -0.2369215804631351,
            0.054058764645048316,
            0.11609524337412594,
            0.10177736602193688,
            0.08656650744141288,
            0.02267844339177027,
            -0.0037130533415475455,
            -0.07129845308860228,
            0.053804844657912985,
            0.11013957979672036,
            -0.0442636654143867,
            0.06609374869548222,
            -0.006497518459142725,
            0.034089433434903116,
            0.01835021196476273,
            -0.05490590050247553,
            0.073157691879614,
            -0.14325743748394293,
            -0.12355928702904452,
            -0.10826974080046373,
            0.030687085055048944,
            0.1440187883046427,
            -0.1669030466682991,
            -0.016604240324999776,
            -0.03765101562799415,
            0.012505718667323768,
            -0.010951528188820649,
            0.09529476431944076,
            0.22864433350463598,
            -0.03777269732933712,
            0.05655478761848557,
            -0.16129293911728698,
            -0.16898471924844585,
            0.03788162248328215,
            -0.1779687250490459,
            -0.0645749089425487,
            0.21617083249727273,
            0.08438073047291572,
            0.2441646581666941,
            -0.10631190388147443,
            -0.03905437172566871,
            -0.16207283167231915,
            0.1121434382331643,
            -0.05477446637528749,
            -0.13469414373043995,
            0.09347364056885003,
            -0.033164647456993365,
            0.03296191713112559,
            0.23283254301662903,
            0.031156478800254822,
            -0.04175633766864778,
            -0.1760371557390754,
            0.18844015291512262,
            0.04567042823240648,
            0.1609867477542172,
            -0.028377592169428763,
            0.1745500195739788,
            0.021330107280027696,
            0.000942417625191624,
            -0.05439805094588949,
            0.12716419289876948,
            0.1975861107369475,
            -0.0725336629009216
          ],
          [
            0.05727049463752931,
            0.03413429141360508,
            -0.009890891758809077,
            -0.06259869200682791,
            -0.010058597746881014,
            -0.06385317974877155,
            0.03400229103568007,
            0.1100591723838663,
            -0.15604289821155182,
            0.03263636770847669,
            -0.10457504227355911,
            0.14022877002708115,
            -0.15785757789331437,
            0.03440088942324832,
            -0.09444603578892738,
            -0.012236446659751205,
            0.038681138785048794,
            0.00799169479190633,
            -0.28229950057842024,
            -0.01206973914081742,
            -0.15673501381488775,
            0.047809006886286594,
            0.04999434455250172,
            -0.07170785708262131,
            0.07784743184934707,
            0.04804111154105764,
            -0.05637932247175388,
            -0.0026977779971307566,
            -0.26251979464138464,
            -0.02651882395853642,
            -0.15917281850749226,
            -0.11479630442300207,
            -0.16589034751870696,
            -0.0862921314806661,
            0.2212480459749882,
            -0.02255041963632822,
            -0.10445696589865956,
            -0.02329368536089258,
            -0.1417240865747011,
            0.03246189721887181,
            -0.08617673310852005,
            -0.09208814453069954,
            0.011869756926214378,
            0.10368754693475436,
            0.2929375330497581,
            -0.0323233884583422,
            -0.184090155837612,
            0.07192149600232745,
            0.11394240209088828,
            0.030105716095481867,
            -0.15221123451574906,
            0.08628451253262788,
            0.1563069654135609,
            -0.0472202119674611,
            0.10411036094255105,
            0.16441382623992948,
            0.04351427420448068,
            0.052133547379148625,
            0.06157116003104342,
            0.0031163292817476154,
            0.24747942229114359,
            -0.10418258892730523,
            -0.17686337809449054,
            -0.12821512495518417,
            -0.030075559354030806,
            -0.11609683717825706,
            0.04545268562015305,
            -0.14603386015650263,
            -0.27096375804659245,
            -0.04446295076435739,
            0.1222537578325738,
            0.043825746261772484,
            0.10246672595420078,
            -0.21133271624302905,
            -0.11152001716257402,
            -0.18136449524115475,
            -0.26897130374627015,
            0.028411146768149122,
            0.027023032416790736,
            -0.027133525804257128,
            0.15924861064863596,
            -0.025779778462034705,
            0.12495365780858592,
            0.17172565461881573,
            0.14886166290688813,
            -0.04992541157904326,
            -0.028824513848105405,
            0.07834804568202945,
            -0.06568672720301749,
            0.06223025881356942,
            -0.23347113108625023,
            -0.03798915840073534,
            -0.18373282596082482,
            -0.012433800911898543,
            0.056930289574407746,
            0.06808600247785189,
            0.23482243948050108,
            -0.06512735207155486,
            0.0430601708978856,
            -0.00916262942399435,
            -0.10796872804222353,
            0.05316047034834751,
            -0.15566603788405867,
            0.133075799046759,
            -0.1341523432209397,
            0.04335293492714201,
            0.14227518353699187,
            -0.19129023315238644,
            -0.05579912200474717,
            0.14997257085549762,
            -0.03779804652559626,
            -0.09405569929760449,
            -0.008738816115011736,
            -0.06682033028603483,
            -0.17663193669347182,
            -0.16695114879671555,
            0.13281053806867094,
            0.13934653177391307,
            0.17449921978577315,
            0.23833339484096022,
            -0.12337600427425818,
            -0.15347777017345243,
            0.1524348678423324,
            -0.06980002887871037,
            -0.14960984797256074,
            -0.003446157940381844,
            0.06364516594127717,
            -0.1450740772890249
          ],
          [
            0.027859348143248995,
            -0.04544785001046692,
            -0.05633403966906677,
            -0.05948573786658591,
            -0.07516107657455365,
            -0.07988506225337279,
            -0.047541942251386894,
            -0.029658171097731348,
            0.011976155757878006,
            0.12437068990069466,
            -0.00011343324841744736,
            0.1839308041357699,
            -0.14631315497612507,
            -0.1078705606346272,
            0.04054871765489274,
            -0.0383634860137732,
            0.10944234742569497,
            -0.07316584841468945,
            0.13332725092591144,
            -0.006947662661128764,
            -0.019417287378119843,
            -0.0013471989342508156,
            0.04795366589946384,
            -0.24082550961094895,
            0.12850525709584046,
            0.17783298051667945,
            -0.1869318841556888,
            0.03805587646155311,
            -0.05115426910819804,
            0.06943754708266778,
            0.009897880727509334,
            -0.0248773558245728,
            -0.04356296812342366,
            0.006648469708598313,
            0.03046798581833665,
            0.06399853295220187,
            -0.14434101552592365,
            -0.003993409093149328,
            0.1592086452977725,
            0.04165762272741954,
            0.0035304662388285627,
            0.10188487401168075,
            -0.0033796096630927066,
            0.27737065972275954,
            -0.10173453050939042,
            -0.03762558200789713,
            0.1657650365008349,
            -0.08723539071548629,
            0.005762972553766005,
            -0.05770323932353817,
            0.03495671604821763,
            0.0479433540442367,
            0.1036605204146827,
            0.009637111193156151,
            -0.007303542266557868,
            -0.1025493525104732,
            0.32993759481993296,
            0.05292898334285476,
            -0.025923865354596762,
            0.04683406765008359,
            0.1034769911712036,
            -0.20795804205286372,
            0.08336650191260461,
            0.11739041773820429,
            0.06235865372069988,
            0.20472038818410782,
            0.04228054007834684,
            -0.08174049810678291,
            0.03016862321399533,
            -0.19812243045854325,
            0.07833443198523718,
            -0.016000167476448966,
            0.12960999208848378,
            -0.11716841088855268,
            -0.1834717210892764,
            0.026890512948258227,
            -0.00835702402344623,
            -0.14915794168074875,
            0.1346406239117626,
            -0.10629473388570979,
            -0.1484759435673852,
            0.10823201458993874,
            0.009388650845380282,
            -0.09908976668833078,
            -0.050330478657145176,
            -0.03866570076364216,
            0.044354169535167624,
            0.10659651824481851,
            0.016402222987298976,
            -0.10440918834433592,
            0.04338528012227865,
            0.18838041378181392,
            0.0906174633161341,
            0.11876184548723209,
            -0.06244636267743755,
            -0.018740631322253284,
            0.11371265608757318,
            -0.09984058304515038,
            -0.043644115768582716,
            0.0819027092714684,
            -0.00012231181399114207,
            0.0036857684448525926,
            -0.048602556370855435,
            0.009209240425988238,
            -0.15209457775113616,
            -0.12431373805481757,
            0.020113066178548182,
            -0.07537556373491373,
            0.16401349770747492,
            0.27822389234281175,
            -0.010296331421072578,
            -0.029949923194755288,
            0.07783160226871234,
            0.2366574709950701,
            0.13713851728663992,
            -0.028579469599735386,
            -0.043360660049440156,
            -0.23320316744288896,
            0.018332675644567236,
            0.027093766610520684,
            -0.05581978672104129,
            0.06594371948127149,
            -0.029797002831015898,
            -0.011515586756158035,
            -0.1357183052268266,
            0.10158490741863313,
            -0.05033653427445625,
            0.013315427556509442
          ],
          [
            0.007577621370888543,
            -0.01719703966210554,
            0.1013066521575415,
            0.10183828990349515,
            0.05867202891219131,
            -0.09498263612553824,
            0.18816962112034438,
            0.06188816977579405,
            0.0002809614217964393,
            0.04092103732580344,
            -0.004619519497485118,
            -0.018724991216538932,
            0.026585682024822428,
            -0.03790881937454649,
            0.024083887883389023,
            0.0030464081423106516,
            -0.13420283496033697,
            -0.01117714362494944,
            0.034978712521618,
            -0.07891318082681252,
            0.07726931728783433,
            -0.05349439451523697,
            0.1487220495699723,
            0.09505829853179308,
            -0.0322738416023891,
            -0.18436021607090622,
            -0.16469815941203117,
            -0.05490133148783838,
            0.019062341859285376,
            -0.02293223995753507,
            0.1458168545828673,
            -0.10194204706250842,
            -0.2268515621818199,
            -0.07732120364195963,
            -0.11416441456202846,
            0.1364882202097402,
            -0.12858635002147226,
            -0.044580687533913574,
            0.012545127490386021,
            -0.06267518917995045,
            0.10430011394453953,
            -0.007386920428639976,
            -0.07674075994152912,
            0.0868726246172392,
            0.21921114273586473,
            0.044332399614727624,
            0.09032204107401615,
            0.03578432396817972,
            0.03156081432787506,
            0.08344808320246536,
            0.009230748061536278,
            -0.007200780167431462,
            0.09291662674076251,
            0.08638308207087797,
            -0.015830459415082362,
            0.03789246015784524,
            -0.17857128291240468,
            -0.05130283254092212,
            0.02423125988236411,
            -0.04973636781715998,
            -0.010251216607157635,
            0.05354029621147061,
            0.08019844942581729,
            0.05249611436020259,
            0.2158933593002536,
            0.1385693075969703,
            -0.08601889675283758,
            -0.08718055302621844,
            0.005411370655522489,
            0.06308731919886618,
            -0.19573874380641224,
            0.1040850279073574,
            0.011692015886324843,
            0.011899449810216792,
            -0.16506611742376412,
            0.05954485218699845,
            0.19498848297435753,
            0.04636803456025185,
            -0.10025811964292855,
            0.0648644561265115,
            0.1725159290044246,
            0.11589023424911604,
            -0.022335795942874024,
            0.12426380639547023,
            -0.040246738512563,
            -0.0071710408328286256,
            -0.16343451810186374,
            -0.1790842981689883,
            -0.0620915540428702,
            -0.01108865049815231,
            -0.0607817385456858,
            0.10581064718336186,
            -0.06424723890579619,
            -0.03553324026742814,
            -0.011122416853524861,
            0.11432218929997483,
            -0.011291538943211124,
            -0.05789914292928873,
            0.05804742880947547,
            -0.17690150713282995,
            -0.168287889941626,
            -0.05588793563994734,
            0.2339659995153312,
            0.08896105531194196,
            -0.04170356865104382,
            -0.33650562126395767,
            0.025139373863678042,
            -0.018422881562207567,
            0.0607619370327962,
            0.04642101586832253,
            -0.026437430331259084,
            -0.09805112164317609,
            -0.06423148391574336,
            -0.1762269180719423,
            0.2589653853449878,
            0.07299547612557793,
            -0.20693336526719444,
            0.031327582413223656,
            0.04931645142812595,
            -0.09242313962920905,
            -0.2030383596474109,
            0.11551128150650145,
            -0.12945063590418524,
            0.17804937632461937,
            0.0060250164023654745,
            0.1375761789593477,
            -0.08690231497216397,
            0.04748272960696297
          ],
          [
            0.03882805325464601,
            -0.006531963813985229,
            0.3902446592083597,
            0.04417689090317061,
            0.020464000090236408,
            -0.02909085038648555,
            0.01762777637575041,
            0.10453045421209932,
            0.009462403413241269,
            -0.04550846190261603,
            0.11569282612548056,
            0.020025433918333,
            0.0044148623172231526,
            0.06862479123819619,
            -0.021841380072578444,
            -0.08971675729491471,
            -0.14035953680210816,
            0.019933705343072837,
            -0.15226083599189272,
            0.10407445611592502,
            -0.0938154259795938,
            -0.08769674897301279,
            -0.047934185233706385,
            -0.05891650281079512,
            0.2990621254418886,
            0.004189307474590499,
            -0.06350648953698035,
            0.035845470248621426,
            0.10114577862139539,
            -0.021417663798594992,
            -0.03323187881450918,
            0.04970354850531857,
            0.08143160499886307,
            0.14304770459767005,
            0.20902493618146917,
            0.09839151484069014,
            -0.2157978743665899,
            -0.10834777327647774,
            -0.005162860939818085,
            -0.023995603822108247,
            -0.024495648051598838,
            -0.0008573422773638545,
            -0.10567593327659285,
            0.0211072226270521,
            -0.20215893795656384,
            0.0837246473167686,
            -0.018792540546442856,
            0.001351322843996766,
            -0.14889533527387436,
            0.08667329558128614,
            0.032490869674611816,
            0.11360582818539117,
            0.042335794249488364,
            -0.1145733453238662,
            0.002793049068493815,
            0.08790809042380168,
            -0.06392800992501604,
            0.042486349535584236,
            0.1644320956066286,
            0.0038255949496825933,
            -0.09513409701029756,
            0.08099687112128201,
            0.13667916420214235,
            0.10147391762509336,
            -0.10590452267824413,
            0.007962431340686556,
            -0.08342868656853686,
            -0.1250820915811206,
            0.05604811146820813,
            -0.009809622834810027,
            -0.03802177059453623,
            -0.0036615775040195423,
            0.2591909208908041,
            0.0568578126089483,
            -0.055777368288424514,
            0.24873988063061755,
            0.06735514848607355,
            -0.07534623083816792,
            0.11923117864732967,
            0.1571059547323618,
            0.06847307346959837,
            0.0025739602751194417,
            0.0034671484821541523,
            0.11616562702281961,
            -0.16290776214295133,
            -0.05499341968998888,
            0.07003247774650935,
            -0.11490771886813662,
            -0.10182924622932489,
            0.08856176004599135,
            0.0007400360399855258,
            0.08350919768962528,
            0.012079213901709561,
            -0.0690012832112375,
            -0.02552242763059099,
            -0.07206094587588682,
            0.09319696050208794,
            -0.07363855119978661,
            0.02298414402446288,
            -0.32497121845675414,
            -0.008790256897688264,
            -0.06717273627721511,
            0.17431372055121117,
            0.03846622012595292,
            0.13686889774557887,
            0.14242889302334683,
            0.1398125742699647,
            0.10109853221627944,
            -0.06472605395057142,
            0.029079020639289292,
            0.0199994191390049,
            0.10838334528791656,
            -0.08987646257686702,
            0.0019966898668432277,
            -0.08785498833861984,
            0.008970783761354168,
            0.08557223877902999,
            0.05504605671503348,
            0.047850153164206155,
            -0.08720778383944824,
            -0.1076368871283064,
            -0.025647455146964045,
            -0.09055558237072894,
            0.059212858446996565,
            -0.16698375762881473,
            -0.1226466978901665,
            0.06634696414479022,
            0.016343735094864413
          ],
          [
            -0.050980437325570845,
            -0.12983078574085943,
            0.022398058574212055,
            -0.09788626975593982,
            -0.018308837412061792,
            -0.00896153584827645,
            -0.23020539866524845,
            0.07902234968630883,
            -0.0716357838743874,
            0.13134631881284647,
            0.16053420284292513,
            -0.16907493458548634,
            -0.22748569658946619,
            0.15601037729201328,
            0.08315654289600266,
            -0.03068463491047593,
            0.023003057629518216,
            -0.0659704578667099,
            -0.2512808342092627,
            0.10117394550997193,
            0.03633835454751869,
            0.011960473794829719,
            0.06771297666041808,
            0.02270254018356698,
            -0.03513753147540683,
            -0.2568232378167989,
            0.09798408289916781,
            0.008102636409788205,
            0.025376267981189676,
            -0.07471948383573433,
            0.17779710207424076,
            0.025849045595216162,
            0.036683026152813276,
            -0.08289903649299953,
            0.10780413483937913,
            0.14330345209208975,
            -0.06591550177993959,
            -0.023478358789097167,
            0.16359031340677124,
            0.018544180408000648,
            0.1950730326263743,
            0.1649134342076614,
            0.10651488850642822,
            -0.06968445684742663,
            0.0734536139498203,
            -0.09651095342238176,
            -0.0358467634860365,
            -0.03277208693465813,
            -0.07920962962988777,
            0.21851393311278863,
            0.03872720728846338,
            0.10626193076568667,
            -0.11544229772797873,
            -0.11569093030444554,
            -0.026106844389825544,
            -0.08199085273763647,
            0.1681422719490925,
            -0.22789787969281644,
            0.02082059648439578,
            -0.12783342232220224,
            0.13435266384457908,
            0.18282137207558324,
            0.013015049918723227,
            0.09726311958553198,
            -0.02498274439602152,
            -0.2412843257527002,
            0.07385418835823448,
            0.0031122029153462273,
            0.08902338621833847,
            -0.06965106428727998,
            -0.12455036155405164,
            -0.0009758047693704955,
            0.0264105609345717,
            0.1820261359511156,
            -0.20065842235035833,
            0.047418702511161995,
            0.06128866416287443,
            -0.14897029500705145,
            -0.15998203234311695,
            0.09605154460661526,
            0.16308488456191086,
            -0.03756485989607406,
            -0.10777468539465274,
            -0.06309713095192351,
            -0.008890235047400509,
            0.08519736437809228,
            0.09598984434040585,
            0.07076715927875492,
            0.04817320123688811,
            0.017430055812923704,
            -0.1329138946131783,
            -0.21570958943716684,
            -0.041107962729583364,
            -0.0208599769814515,
            0.07883945040306609,
            -0.043543775634877505,
            0.1219794517469243,
            0.022187728099316562,
            0.039885098818564814,
            -0.26102696456337415,
            0.1474872198795505,
            -0.07157564041592097,
            -0.0015717953245799547,
            0.1845632129342233,
            0.2437169081190621,
            0.052176325684058514,
            0.1009206157519243,
            0.0035586884218451855,
            -0.2449992845355438,
            -0.0033561003408550077,
            0.02982540570050324,
            0.07954775130541948,
            0.04407766451255712,
            0.1461203900970713,
            0.2023130661412848,
            0.06362343636383272,
            0.07459468032394911,
            0.05027331931686533,
            -0.054370846307718906,
            -0.08638532086048656,
            0.06274036946530054,
            0.010991888355959033,
            0.16453861269079295,
            0.1909060049328435,
            0.0028645785345093517,
            0.11380171669138853,
            0.03461314329907277,
            0.13807359176790918
          ],
          [
            0.07419245558433765,
            -0.027084329736264966,
            0.03895989916077768,
            0.16451279072779923,
            0.3040610454634314,
            -0.15625954628606636,
            0.06571372958615247,
            -0.022471743993666925,
            -0.11024948178807094,
            -0.05535459458878273,
            0.1749533104187753,
            0.1126000842831697,
            -0.14916012682695445,
            0.06640551983111502,
            -0.08882041200984853,
            -0.07326159734537416,
            0.0794881491433938,
            -0.16470788408581818,
            0.2300971293371816,
            0.18819061309692567,
            0.10666970440185454,
            0.07115898737918516,
            0.18702292048452057,
            -0.17852058768568493,
            -0.11937207900448983,
            0.2315802018278544,
            0.04643348703231648,
            0.014556724164828533,
            -0.06417706103221048,
            -0.04149953882872514,
            -0.04001549929236868,
            0.006560781956828204,
            -0.15320526036037355,
            0.050872143470390756,
            -0.199030982769538,
            0.0445184753698528,
            -0.06631956707396952,
            0.06601674745591289,
            0.08098109660793415,
            -0.11712954488763261,
            -0.10951981860112402,
            0.015793898620429122,
            0.07799735358390515,
            0.06965068517804704,
            0.03804806549839804,
            0.15415206601028364,
            -0.1261973505408106,
            0.0949981925053033,
            0.08546396746543719,
            0.056756069745922004,
            0.009322628391384756,
            -0.19465200062341953,
            0.04839517682829732,
            -0.0024406030834656384,
            -0.026913784602905808,
            -0.03802312531284246,
            -0.018524468939677585,
            -0.04153341675954157,
            0.0065898644275891845,
            0.06562749208179865,
            0.11498758550152507,
            -0.05469536826247287,
            -0.037033666721559264,
            -0.01559663134404617,
            0.04545731843527407,
            0.012978822883668679,
            -0.09118062474450211,
            -0.09534580145221698,
            0.0548082055131778,
            -0.06039303172513472,
            -0.05621003460301259,
            0.1053966629442598,
            0.18785026666941995,
            0.1186828108914967,
            -0.18458770153208193,
            0.06685659275398406,
            0.1313956201961599,
            -0.03350069130916835,
            -0.1237875256989479,
            0.17295077744954002,
            -0.07892039097108336,
            -0.1664757397085137,
            0.04735951046006083,
            0.17167113960025857,
            -0.05978699241198885,
            -0.05851808457215244,
            -0.06795206650372515,
            -0.1852071577441627,
            -0.018132671918651044,
            -0.23372686342045756,
            0.051055911951898826,
            0.1068605282230512,
            -0.04507089286604338,
            -0.006123524627218145,
            0.05177763377122339,
            0.044241895455132,
            -0.025249435629482044,
            -0.07039106843925007,
            -0.014682330753820128,
            -0.053384632019142585,
            0.011885647971112778,
            0.1315961000381664,
            0.13388965228570648,
            0.15699751258950267,
            -0.023936211420218293,
            0.04862431729713068,
            -0.08760771275050917,
            -0.10144140841256166,
            0.02926769566650072,
            -0.053942698997466114,
            -0.0764689094285487,
            -0.033638360288860775,
            0.0008282366309910684,
            -0.0021035545004076507,
            -0.1295822245303804,
            0.0967790182950995,
            -0.0581735429817333,
            -0.033496695948426844,
            0.014220779578096789,
            0.1176521199412574,
            -0.08274071475019892,
            -0.13850893477973408,
            0.13838044814986591,
            -0.03040025762291622,
            -0.01688356025535073,
            0.07941666672217809,
            0.14590050919115854,
            -0.11178564623775769
          ],
          [
            0.22061642489899738,
            0.10158697239620361,
            0.10193421240652271,
            -0.022505413816735063,
            -0.13927456470072938,
            0.05751345844215977,
            0.1272295419874003,
            0.06119807432610266,
            0.1151313615450085,
            -0.09056200016134133,
            0.17047565360020034,
            -0.041536759793757635,
            -0.034524203976476854,
            -0.013472060436180069,
            0.05878964136495058,
            -0.058751123938640744,
            0.07267862912487812,
            -0.11402382986050695,
            -0.15719143456988308,
            -0.15575140706695614,
            -0.08549965472011616,
            0.06958216869110309,
            -0.03535017846354924,
            -0.04234334508589767,
            -0.1004845789802162,
            -0.23968542155736214,
            0.05510855256212125,
            -0.014257405852464248,
            -0.1249088657458247,
            0.027943226151947193,
            -0.04323123600157004,
            -0.06660000864421461,
            -0.0920400818062598,
            -0.0043984987766607885,
            0.050532864907951565,
            -0.07380572142347662,
            -0.15953514248310766,
            -0.06122952658670687,
            0.0450606538871398,
            -0.05929597192026854,
            -0.07608777760680738,
            0.03245054354830097,
            -0.27467845215307324,
            -0.05001809684785027,
            -0.15675760431896327,
            0.30294252806496136,
            -0.04674984464822955,
            -0.028279035527898934,
            0.0663159507343042,
            0.10090304395475497,
            -0.021675660486155112,
            -0.0069480149424676636,
            0.033761588770751375,
            0.14470247990168267,
            0.1741493027139953,
            -0.08707128154763397,
            0.11784825749786162,
            -0.12216361279100686,
            0.09590229857828111,
            0.14425977441643592,
            -0.07036023967606773,
            -0.08442927261047299,
            0.12338501964912132,
            0.20854397072111086,
            -0.13761583649073006,
            0.0002474920830734937,
            -0.07888339553934812,
            0.08389788485214617,
            0.061084719779398305,
            0.034029972872019476,
            0.18132602558282632,
            0.003533447592476032,
            -0.10793614272605516,
            -0.23709156217948438,
            -0.18039032944359773,
            -0.018442587479818834,
            -0.16944223463015468,
            -0.06289718956904572,
            0.1132650999913671,
            0.07500644800463797,
            -0.03507546732272543,
            -0.11211812150125876,
            0.07195563829732056,
            0.04644705127247603,
            -0.045054033118959974,
            0.11360917854094689,
            -0.10004549080166006,
            -0.06872261551570755,
            0.055588868747943054,
            -0.0240662686761155,
            -0.10600136057653066,
            0.14267443996419255,
            -0.12682007257693964,
            -0.17905687003069737,
            0.14697481601628554,
            -0.06698938733125195,
            0.13246110705861622,
            0.04075077911703462,
            0.0704568767862279,
            0.05987363758137894,
            0.1042359828998998,
            0.04365569380247256,
            -0.2112761945852616,
            0.04240158644757234,
            -0.0201360246929784,
            0.059609314574271405,
            0.20382368176174293,
            -0.09645293026618497,
            0.014303967334527773,
            0.1740676748303747,
            -0.12540759426037393,
            0.044516496040328944,
            0.09274401674126544,
            0.03532671779543483,
            -0.06557244044839927,
            -0.04596106154242415,
            0.009486795216667978,
            0.07904176777809199,
            0.03189213335685104,
            0.09088353734747649,
            -0.05043069172223831,
            0.28851553764894144,
            0.05827931173343594,
            0.049971161041604865,
            -0.08500743947554162,
            0.0747216709324585,
            -0.0546367561673465,
            0.008242115883907839
          ],
          [
            -0.046882335094396745,
            -0.047224197419391364,
            0.025428643013911532,
            -0.006503552075514889,
            -0.0590726336572895,
            -0.02556935540240947,
            0.03997887763913432,
            0.17184327790112067,
            0.06561346074786857,
            0.06653148874104088,
            0.01472432336233891,
            -0.1187518372560871,
            -0.07164171634052373,
            -0.18889402836191888,
            0.06681202531306864,
            0.12757098234798656,
            0.08088594786358953,
            0.011975996809264994,
            -0.10936229969913082,
            0.018483238530775953,
            0.18049858951961711,
            -0.1071353976480164,
            -0.09995643291654863,
            -0.167872068519008,
            -0.11507449553433721,
            0.2014514717041544,
            -0.13265701829355883,
            -0.11511191913826133,
            0.1684760449546876,
            0.04652786989444913,
            -0.004969747671728342,
            0.0022196082280523458,
            0.11188804440181471,
            0.14643117860003552,
            0.053184075406938286,
            0.02173651324761563,
            0.0732915620994256,
            0.07183429782430521,
            0.0021945241749502216,
            -0.02109432685552167,
            -0.03024678130376505,
            0.08424405513847724,
            -0.03109367246405314,
            0.022986622206650004,
            0.05344505232270167,
            0.011845713824657737,
            0.015977055353967574,
            0.16256411598660675,
            -0.13737486020777678,
            0.054696655554172566,
            -0.04266795365360128,
            0.24130458161023882,
            -0.042697323504084825,
            -0.0692329078580346,
            0.17002867102111058,
            -0.08361656063656733,
            0.029142176700782795,
            0.03278920343504814,
            0.11758570356903565,
            -0.006739152064169751,
            -0.017748467810150447,
            0.28803403060275706,
            -0.13543102851499256,
            0.13544227862481464,
            -0.028981614313802268,
            -0.064949988669279,
            -0.15117699890546862,
            -0.12839591679314769,
            0.07799073279895746,
            0.05078045129018004,
            -0.1265634287417577,
            -0.07892000757853111,
            -0.10628907540733251,
            -0.02744587765537585,
            -0.03198366903809491,
            0.006561981886980402,
            -0.10939095303337043,
            -0.12223814645482138,
            0.02409009480809936,
            0.071270193965871,
            0.15756057515830532,
            0.030530994291493828,
            0.10113537899964602,
            -0.002913210686553491,
            -0.054113337012283914,
            0.13631611881248884,
            -0.006020628881840344,
            0.12321434841614891,
            0.11770914482898877,
            0.17450045127985234,
            -0.21298442250664942,
            -0.07497542475774917,
            -0.015789857170752757,
            -0.08913099394550075,
            0.22879471734315376,
            -0.057120990906178094,
            -0.06192433973986563,
            -0.158566964272956,
            -0.0429697619089998,
            0.11530090704411233,
            -0.10008046030148753,
            -0.06512691014061882,
            0.1216135575540891,
            0.011134211006871878,
            -0.12350233952609319,
            0.02137710487716307,
            -0.07854514867711317,
            0.1580370114042612,
            0.06233032935612226,
            0.1913423210207698,
            -0.00831447240265038,
            -0.15370949464953923,
            -0.04339568799672534,
            0.24991339179641145,
            0.032620181990048396,
            -0.06637649605044656,
            -0.01831855989062979,
            0.3502477067330077,
            0.14232551926559775,
            0.2004011063700715,
            0.0570099318404937,
            -0.13919837243478586,
            0.14569157713322234,
            -0.017798308452858076,
            0.02611274078735123,
            0.07197347151782119,
            0.09830779586098236,
            -0.0840181997977477
          ],
          [
            -0.04539120794645708,
            -0.018263504683081248,
            0.1726200737382475,
            -0.11641404049878294,
            0.05558854435556083,
            0.07481665187141043,
            0.17832511286582214,
            0.05603044253230272,
            0.11824859576008422,
            0.058629147924363925,
            -0.09550687596466369,
            -0.061969744213978155,
            -0.027472883596190795,
            0.14332335564190435,
            -0.043839385463480755,
            -0.11691086201886823,
            0.13531227509727245,
            0.0034488969292214584,
            0.04694560742298917,
            -0.0496420160414991,
            0.21838700056027172,
            -0.07460122462194414,
            0.171179459862586,
            0.17097816734475665,
            0.13321667505792792,
            -0.15926527238387275,
            0.10105067262589232,
            -0.08629238047037403,
            0.03304466444294855,
            0.07512422857935457,
            -0.16707130876335083,
            0.05718016745343125,
            -0.2015801024965163,
            0.01789717634832264,
            -0.03135672907921097,
            -0.03169429406537782,
            0.12724921324099453,
            -0.09067749995382399,
            -0.06449441151913074,
            -0.035258036227234855,
            0.09833160573702678,
            0.12490965425461809,
            -0.13315393875807663,
            0.014014908194421218,
            0.1434221237298677,
            0.16230841234980492,
            -0.18212515638769647,
            0.09078266146078946,
            0.1125965411476741,
            0.03608873610198049,
            0.02577745126557342,
            -0.1334978736263641,
            -0.09477006343937627,
            -0.02485111347337204,
            0.07589610824144669,
            0.006059248293321464,
            0.12694944990748816,
            0.02443683536242839,
            -0.018599070809835364,
            0.11700005577994065,
            -0.2004814368539155,
            0.1304085074298749,
            0.0023094893573255863,
            -0.04530838307990968,
            -0.04166868263957841,
            0.08546212304172453,
            -0.15310670548892907,
            0.13139985205347574,
            0.0157179161378335,
            -0.1345276832886056,
            -0.03862912311792143,
            0.08102152510183545,
            -0.04924337600220653,
            0.0995903530635697,
            -0.0014272209326093366,
            -0.016510964489427002,
            -0.10017097144244742,
            -0.13461979266288873,
            0.03278967169602673,
            -0.10430702195771517,
            -0.01071044272547692,
            -0.009579448642694112,
            -0.0017951761739858193,
            0.05614933021546489,
            -0.2517662409204208,
            -0.09712318258236824,
            -0.012194889646101173,
            -0.12287152882835205,
            -0.0016236881880022861,
            -0.014125730245865735,
            -0.021204026509290378,
            -0.12517048719390994,
            0.2330524004698775,
            0.015950904270697796,
            -0.10309970097651262,
            -0.0029787247443615332,
            -0.04036556148801665,
            0.03888717464220232,
            -0.16241475581051446,
            0.03360802780810659,
            0.02929108974619708,
            -0.14570229264814027,
            -0.09232237379376475,
            -0.05192374380774364,
            0.00340472763519514,
            -0.05426700385367618,
            -0.031792345449665166,
            0.15496299583394466,
            0.02512349522219967,
            -0.1318046718946859,
            -0.010367464595132228,
            0.1803507950120154,
            -0.040649505399070036,
            0.25277118941896687,
            -0.08458630988216588,
            0.21662963354124645,
            0.050456004743976574,
            0.0985759866713688,
            0.007204515570453121,
            -0.11694327738940456,
            0.029328024901668956,
            -0.15912985075090866,
            0.08809366404620082,
            -0.15343429922528096,
            -0.06073335497360605,
            0.03645935017548094,
            0.22277492835675275,
            -0.13917764269230443
          ],
          [
            0.1552188411550577,
            0.16146797328445783,
            -0.08956595659714599,
            -0.03228315906685292,
            0.025972514724499764,
            0.07046391111547634,
            -0.12152576933205946,
            0.037926987548666836,
            -0.10174204328029784,
            -0.005786894886535343,
            -0.029412873109009117,
            0.007590847610873748,
            0.18603682161626175,
            0.11710838708667734,
            -0.08591464681700914,
            0.03252799946892906,
            0.002918738331550911,
            0.19144976656482218,
            -0.04499769789332093,
            0.05951584119548069,
            0.09946615302790855,
            -0.07272382851692855,
            0.16865595004319348,
            -0.11655613809997267,
            -0.07579640230935117,
            -0.06875445297840158,
            0.1538936223474968,
            0.02857321434875452,
            -0.08003219495512602,
            -0.23481953184993418,
            0.031942072469866044,
            0.0025892884143131965,
            0.01641978443936698,
            0.2222477162322421,
            -0.11985647768207999,
            0.030730854414458636,
            0.03699440911756387,
            0.05620763674666631,
            0.11139963626471731,
            -0.07928117888463425,
            0.14002622924679373,
            -0.10970605081015987,
            -0.009812150945780973,
            0.022263503759969612,
            -0.02603127686387283,
            -0.05845066722493748,
            -0.03702273662268582,
            -0.008994966613494217,
            0.2131864704066077,
            0.08496931774663735,
            0.03216231914338665,
            -0.02135202291559762,
            -0.011060332401265955,
            -0.10921489929534212,
            -0.027591615448004973,
            0.12752238433153187,
            0.13156392066098788,
            0.04672204102712923,
            0.11903414054674344,
            0.009577278243933837,
            0.14219883242963804,
            0.07813424741202506,
            -0.146542518045946,
            -0.10822596590893345,
            0.08859578685266513,
            0.12018448866951838,
            -0.017554083154764845,
            0.049793576871201006,
            0.1654977179602107,
            0.23775217245418756,
            -0.048407009244795574,
            0.03932736735873831,
            0.023016488606023427,
            -0.15688378311698067,
            -0.17513679506129362,
            -0.15423087726874696,
            -0.055656530836484815,
            0.00037842012461717555,
            0.09164309316475426,
            0.03852212683840706,
            0.02602652243368694,
            -0.08183105354637973,
            0.15792245085005693,
            -0.08139632221533008,
            0.164033521374352,
            -0.07471681108943629,
            0.004824451017822795,
            0.07042123102962734,
            -0.014607528208022268,
            -0.018608001356407517,
            -0.06566804287415298,
            0.059463755386909393,
            0.021083232122086522,
            -0.009619542539430183,
            -0.01813585650516205,
            0.17478349268301185,
            0.057874627846406165,
            0.0705378540773656,
            -0.03277706444603114,
            -0.1289727652959845,
            0.058667292654865484,
            0.27585673307593717,
            -0.045725976955123766,
            -0.055688024435759195,
            0.20725364565329207,
            -0.1070359388692395,
            -0.058185611876498095,
            -0.09909933648157036,
            -0.02736638781544038,
            0.0787106849175089,
            -0.0039211971541581354,
            -0.0836107293251119,
            -0.10028007585157218,
            0.0964681149072501,
            -0.1448775950715352,
            -0.1456469149299674,
            0.012888377768743962,
            0.05948857525036658,
            -0.037124745946582056,
            -0.16198199664401877,
            -0.01099578697533302,
            0.0004619013074776921,
            0.20093811193557815,
            -0.08737139616984431,
            0.10687664272500248,
            0.08770507805968879,
            -0.026622936389685978,
            0.001168037998263048
          ],
          [
            -0.19599544309191566,
            0.11238222248156268,
            -0.01089467368020858,
            0.08340018923567043,
            -0.05256790527501712,
