{
  "state_dim": 37,
  "hidden_sizes": [
    128,
    64
  ],
  "gamma": 0.99,
  "lambda_": 0.9,
  "segment_length": 30,
  "segment_overlap": 10,
  "temporal_scales": [
    1,
    5,
    20,
    60
  ],
  "policy": {
    "state_dim": 185,
    "action_dim": 8,
    "hidden_sizes": [
      128,
      64
    ],
    "actor": {
      "layer_sizes": [
        185,
        128,
        64,
        8
      ],
      "weights": [
        [
          [
            0.12212506231467556,
            0.0015098791106806487,
            0.04321316288819506,
            0.10333169179003392,
            -0.004426772489448167,
            0.0731805131835986,
            -0.09636758830205007,
            -0.05015512609667272,
            -0.15109761126923849,
            0.05408586456137797,
            -0.0907257511041524,
            -0.06560033682222238,
            -0.02630198003441287,
            -0.1694030560058856,
            -0.12382378700972425,
            -0.08473515680501852,
            -0.011704677768571568,
            -0.042141483561871924,
            0.050389465963557575,
            0.0680843838730836,
            -0.02833490858350696,
            0.056356991471277824,
            -0.002890005414052646,
            0.20672889344425494,
            -0.08078470166770862,
            -0.014555546670067981,
            -0.06145568295246981,
            0.04788806904400446,
            -0.07516502626060673,
            0.14832302574530737,
            -0.16180015807352063,
            -0.14107847744557972,
            0.027017495123441235,
            -0.11743802894675501,
            -0.02019929424974421,
            0.005876406679278794,
            -0.05364408960785708,
            -0.033603874909413634,
            -0.04436624867176992,
            0.06480790640958477,
            0.02996288117374506,
            -0.064056950541596,
            0.15572319247032926,
            -0.04922658654019695,
            0.005446896493142575,
            0.010104169627274446,
            0.13144840133373403,
            0.10387514186082647,
            0.033791714630994854,
            -0.2558111636133262,
            0.008878573512247865,
            0.01484176931001611,
            0.03899555039209472,
            -0.007300767188017654,
            0.025932049793442085,
            -0.008928446533635698,
            -0.09267782512515968,
            -0.02005584336757707,
            -0.032552589300130615,
            -0.049199814331322214,
            -0.08078028057332351,
            -0.027328616022501803,
            -0.03182105212389359,
            0.036748240787266025,
            -0.10046955527946969,
            0.07257067845377205,
            0.11222193164318052,
            0.009963070019600213,
            -0.05688976736011126,
            -0.060472927158116474,
            0.1548340920693482,
            0.07098820042146947,
            0.08394462442459777,
            0.0023341757535858096,
            -0.0352613686825005,
            -0.014362734287338051,
            -0.05065439943343393,
            -0.0872431529583698,
            -0.019837872960582183,
            -0.08246057936556016,
            -0.06906192815324248,
            0.15369805138369466,
            0.10235233484324092,
            -0.08404233393428029,
            0.07581124962236824,
            -0.1427826807803218,
            0.007139273207160559,
            0.024926527966949195,
            0.060609943518181206,
            -0.0038122907593375233,
            -0.04460492542700809,
            -0.17381907706565616,
            -0.11102367672822946,
            -0.024427262701072646,
            0.002060520710688818,
            -0.0780110271006175,
            -0.15405035289652244,
            -0.03979697784969428,
            -0.08550277181442045,
            -0.020632623052901745,
            -0.01715845312234504,
            0.062124999997204056,
            -0.0464148547087288,
            0.009179660305116022,
            0.00999767353385716,
            0.010341657698551651,
            0.04881350744935005,
            -0.09937627295495552,
            -0.03665896122417454,
            0.04992947335049547,
            0.1941143236807617,
            0.07711425303287472,
            0.008914700076476139,
            0.12352469705614269,
            -0.19373077817603562,
            -0.049726421608185564,
            -0.05354068092502033,
            -0.11758038431963162,
            -0.141934653512293,
            0.0822816148173504,
            -0.0035923609978817353,
            -0.06067447430576133,
            -0.03791783041394047,
            0.13379847079926568,
            -0.10720133079865034,
            -0.011366276366814554,
            0.05894803442488196,
            0.1640213934999535
          ],
          [
            -0.06577497514262805,
            -0.17346480426467994,
            -0.013924666302812359,
            0.06017862686750006,
            0.016501411147731737,
            -0.12481985898009057,
            -0.10833660734278093,
            -0.08802784725582988,
            0.08151121037815154,
            -0.01299832245434059,
            0.051283427025522334,
            -0.1370860823104052,
            -0.09576304613098857,
            -0.07149685909252676,
            0.08932466793238271,
            -0.015563519865711271,
            -0.07740962107118342,
            0.12580268933442593,
            0.010515513158332273,
            0.10729290661111104,
            0.07323115676903416,
            -0.062156662225301175,
            -0.0363230261846282,
            -0.031259838805373544,
            0.06815713249507677,
            0.13159502076768073,
            -9.715899483321599e-05,
            0.0016966799974278926,
            0.04787995925082239,
            -0.11023427819350688,
            0.020251263268878886,
            -0.015322153038087715,
            0.013947324572225299,
            0.07809433869192135,
            -0.03258470656115295,
            0.08518602703887142,
            -0.016204722588577455,
            -0.00528765417048481,
            0.0805194722469618,
            0.09368588025762453,
            0.15977125756354438,
            -0.10489648734754077,
            -0.13416160521918968,
            -0.07463442273170699,
            0.05638942446615137,
            -0.08438037130892546,
            0.009727828181989556,
            -0.12211008588782683,
            0.04237593152343757,
            -0.03345773741106775,
            0.000209685238207076,
            0.0695967863927218,
            -0.053245504932920885,
            0.07181643195500663,
            0.04936554758826306,
            -0.06599251469220987,
            -0.10086955720046777,
            0.09689447718206004,
            -0.047129671283589705,
            -0.06375014336049935,
            -0.08019229470030513,
            -0.032284251976335485,
            0.007926864500138618,
            -0.03440901063534999,
            -0.0702009055892069,
            -0.03784755795850397,
            -0.04681242211263464,
            -0.112370393461051,
            0.00948227494216661,
            -0.07084955832268741,
            0.023678968653171525,
            -0.054698642898351114,
            0.03982632982910434,
            0.04971861423352409,
            0.09064609092405486,
            -0.06760132816003776,
            -0.08366684349303381,
            0.15944720274994287,
            0.09713875776791207,
            0.05398988744605997,
            0.009660775461456748,
            0.028444648474359686,
            0.09276063149235977,
            0.11761851371651978,
            0.09528901075702738,
            -0.08579415670400081,
            0.116401998133793,
            -0.028209122322961282,
            -0.030635928915927896,
            -0.003946564752045081,
            -0.17176617033226327,
            0.060948231736581523,
            0.0032356604167246956,
            -0.018856799467525814,
            0.07031562767718519,
            -0.1285917214952781,
            -0.05713671554344724,
            0.0180243363175115,
            0.005534601615730294,
            -0.14953000617390194,
            0.002492845059232739,
            0.06047272882234817,
            -0.09903058250112673,
            0.0034154966866317693,
            -0.10023215328504659,
            -0.1059190552540806,
            -0.0022904356880486293,
            0.005874351997465905,
            0.010225880941723418,
            0.021093512535700697,
            -0.07305509793793058,
            -0.1363705565720143,
            0.07007877196471506,
            -0.07471943273165217,
            -0.13652722081837915,
            0.01998675641434157,
            -0.07148148981654037,
            -0.04215380354401592,
            -0.0934375007840414,
            0.09838851626634319,
            -0.12841152128117342,
            0.12195405586580507,
            -0.006190912638634513,
            0.02292502922467222,
            0.06998458297703158,
            0.042399660769144455,
            0.012046209803652437,
            -0.08283966731468491
          ],
          [
            -0.0068000528015952156,
            0.05678292250729905,
            0.04182338316131049,
            0.026169924885985924,
            -0.1860621261662188,
            0.1154294640840331,
            0.03496046047442167,
            -0.033294659678561794,
            -0.0016978549009437113,
            0.030132065877257398,
            -0.1716704206678937,
            0.08945767307040295,
            0.024234334172538383,
            -0.1368856644359249,
            -0.07012110585811349,
            -0.01345962076353568,
            0.10552308961276602,
            0.05934664248341649,
            0.029481963575953896,
            0.034874755352009096,
            -0.14144098003240016,
            -0.029165694046901367,
            -0.04736660481102151,
            0.09737828907329975,
            -0.019145400864600565,
            0.057393036860418675,
            -0.014977778550489042,
            0.027203933990367957,
            -0.005183810233146537,
            -0.039250022084693435,
            -0.16341599170025967,
            -0.08171540402770905,
            0.0027736942421352426,
            0.030755393334324307,
            0.020417778986162687,
            -0.03844284921691228,
            -0.03311197600516758,
            -0.12229631075282432,
            0.07137660429759134,
            0.16414453834261059,
            0.07970741291056742,
            -0.040419341976815626,
            -0.017809528126797595,
            -0.1152182757500845,
            -0.04184084318792424,
            0.13488901909390477,
            0.11114643518092257,
            -0.0303938259132091,
            0.03832352850340022,
            0.02894859940106725,
            -0.019891967500700016,
            0.006190064158542929,
            -0.06602373843797946,
            0.06385043769784153,
            -0.054035101109226616,
            0.09765757375222107,
            0.0289933797035478,
            0.0947789461610084,
            0.010802710294543365,
            -0.05086142625709677,
            0.04183665536968492,
            0.03319352381491298,
            0.09073725317384791,
            -0.019176571101084748,
            -0.017972214220647258,
            -0.280958283097584,
            0.011744049396846154,
            0.07498439939212734,
            0.05063297870412012,
            0.048012705594087005,
            0.09143720038558537,
            -0.023209873040531112,
            -0.014046380058092398,
            0.13799661242751704,
            0.061075107598251854,
            0.03987650161222324,
            0.059274497202789586,
            -0.0412503268585732,
            0.060004886763034344,
            0.06731096362493352,
            -0.01805675827365522,
            -0.16644178654642802,
            0.09425748238459633,
            -0.04670642826195539,
            -0.05655349491298893,
            0.03200692319654669,
            -0.16417084771823262,
            0.021068750129855335,
            -0.139146754853992,
            0.003029434995739229,
            -0.06963061572035288,
            0.06663738857684376,
            -0.14488482817870063,
            -0.007083985331870393,
            -0.08602361518105281,
            0.019990686979140145,
            -0.04752865743116043,
            0.016994726701652915,
            0.019635063754009436,
            0.023031928655496615,
            0.04250238972203325,
            -0.02102774234786449,
            0.03855215995637418,
            -0.03453105590349435,
            -0.15666312119246445,
            -0.05656965967476378,
            -0.06376158250816291,
            0.023548489873530164,
            -0.05821096020981201,
            0.05930993264425654,
            -0.09742672099751286,
            -0.01827710554592041,
            0.0983452421345353,
            0.043313060881789336,
            0.23120520967447625,
            0.034168012347254334,
            0.015058530609679351,
            -0.032701779885334896,
            0.13399253558038227,
            0.01913727832011731,
            0.0008866159031872394,
            -0.029206593798004485,
            -0.019289024530539475,
            -0.14917705826153982,
            0.005644929686439828,
            0.08512833052534746,
            0.012173326418082366,
            -0.0007442900851596998
          ],
          [
            0.10529884159037148,
            -0.03390233084006847,
            -0.03827535753796879,
            -0.038351936205863385,
            0.027038207588036565,
            -0.061085108978051264,
            -0.030330188049567757,
            0.00870213643410191,
            0.1621855224331821,
            0.12331720610654752,
            -0.21595919198587726,
            0.10190920495895889,
            0.036532462972518075,
            -0.06486095238503765,
            -0.004823058835361411,
            0.021935698113634133,
            0.008715209698147706,
            -0.04894610214139726,
            -0.08711226569401352,
            0.01972669423890296,
            0.08600728677991976,
            0.08733071271760229,
            -0.00936494214124342,
            -0.0009175564638672666,
            0.16468151032864217,
            0.14164084127663654,
            -0.04999209328229878,
            -0.16194729991506812,
            0.03914852194736459,
            -0.06279274743478028,
            0.10921227645177514,
            0.09577111873916845,
            0.019651298457094925,
            0.05434935057784802,
            0.025943882149026015,
            -0.02242040603979576,
            0.002523030056894009,
            0.22577595959555619,
            -0.07389327347659631,
            -0.09060102208696652,
            -0.021488027559936975,
            -0.07496702599969887,
            0.04917759735542072,
            -0.019480626827879852,
            0.012150692203886372,
            -0.06577466199496447,
            -0.07243933101155658,
            -0.09476958423793692,
            0.06905162451711251,
            -0.0705942203264929,
            -0.012376294540122883,
            -0.018234956199215127,
            -0.05390911078423986,
            -0.08472800891528405,
            -0.042786774776776684,
            0.04517980721722977,
            0.0007249043802682254,
            -0.002386214697690438,
            -0.014744747786436538,
            -0.03505133885386611,
            -0.0009100890030644386,
            0.027064453222392138,
            -0.06327799324004811,
            -0.05759284280102134,
            0.049028105326182,
            -0.05628950606990767,
            0.07872107531661227,
            0.03069140787820339,
            -0.026662191617192698,
            -0.030588395057975257,
            0.03670021086524272,
            -0.009855540763995526,
            0.19493060198366216,
            -0.012258179830869092,
            -0.04631065185320335,
            0.03231441475795576,
            -0.00994162311446976,
            -0.07856860983762001,
            0.011645478245710076,
            -0.019356857469855,
            -0.0419935763899493,
            -0.004023505656075935,
            0.07159742510112467,
            -0.07104848939813903,
            0.15682476030672063,
            0.09769613333381172,
            -0.010519452079399192,
            0.190311712249736,
            0.06466601062015973,
            0.2684997682968536,
            0.013447346997434582,
            -0.06041435909654976,
            0.04218194534177177,
            0.1414354671941958,
            0.041855815651749374,
            0.0035423227320964677,
            -0.04318897663920651,
            -0.022399654695817246,
            -0.00938164446562274,
            0.07761423237498521,
            0.04026569415190745,
            0.014323449922160988,
            -0.048429441406265594,
            -0.058360151356397445,
            -0.032823421957520714,
            -0.06505384453411633,
            -0.05105788497672673,
            0.011958577835961211,
            -0.09025762781169475,
            0.018374527299252,
            -0.06990268020746981,
            0.13590018470212273,
            -0.014308217575129336,
            0.008609695132236934,
            0.00564382950395724,
            -0.07372760119494491,
            0.023589985460191105,
            0.1272185518095763,
            -0.013654352266082958,
            -0.16863790511094734,
            0.07981385009585343,
            -0.14384127421726087,
            -0.09039231313916801,
            -0.08259963143697477,
            0.11787312385898706,
            -0.010318236945618502,
            -0.08351635495475923,
            0.002249187921962773
          ],
          [
            0.10636473261322607,
            -0.15265284630936182,
            -0.08912149911142783,
            0.06895460952192835,
            -0.033294231216010974,
            0.1448539217614078,
            0.06230927352645342,
            0.06480705230182901,
            -0.017975003699206026,
            0.1195242358155808,
            -0.14258970733972193,
            -0.03205799628946471,
            0.011578302287724225,
            0.0676705406175921,
            -0.03533176287089632,
            0.14591808083649166,
            -0.08203497416471729,
            -0.025478986618131638,
            -0.09235103204545254,
            -0.023604244449378767,
            0.1945911243190732,
            0.03364853925775719,
            0.005554745535912505,
            -0.05921215479454804,
            -0.05806924043029775,
            0.12480190896048132,
            0.08362867712381808,
            0.03955577324509256,
            0.057605821189413375,
            -0.011833283139479294,
            0.09796021013345381,
            -0.051542326736529274,
            0.014919335548933089,
            -0.005486269995138806,
            -0.05341688602327979,
            0.012563720276743153,
            0.131845224528266,
            0.05272186132927568,
            0.06032962532162187,
            -0.1049085917617266,
            0.0469414337468746,
            -0.03520400391762887,
            0.12526735285629956,
            0.08467386678002159,
            0.11310324215748997,
            0.0034008887566159295,
            0.03907924072283316,
            0.041493901869453044,
            -0.007812552069913064,
            -0.10183920488935985,
            0.029516323836149015,
            -0.060201030424746754,
            0.007470323894642068,
            0.017716069967054934,
            -0.154534049612982,
            0.06639099408694504,
            -0.11856770060159008,
            -0.055650817954368506,
            0.11945270867604921,
            0.09471625448504073,
            -0.00920519640882682,
            -0.02795890590012788,
            0.019455554670739394,
            0.09107269136032752,
            -0.10147900552195549,
            0.15337100495689845,
            0.011498453751573864,
            -0.010071497675994433,
            0.03715908828434184,
            -0.014469779370076276,
            0.1537145465877867,
            -0.033503973159572036,
            0.19369578961937137,
            -0.0628798398681847,
            -0.06566509120418905,
            0.10367366661789293,
            -0.047284068528058325,
            -0.037101374688889195,
            0.12140174610388617,
            -0.08380964570590915,
            0.006829596251369094,
            -0.06340659339978379,
            -0.06295421415415181,
            -0.07746503802260524,
            -0.020718418533971786,
            0.06416269125821657,
            -0.03679204750464612,
            0.0557719264727424,
            0.036732792029000476,
            -0.10891545397291374,
            -0.11154696026889024,
            -0.06690091604038326,
            0.1300087887041578,
            0.015185632265816006,
            0.08411735649821944,
            -0.02369370290418629,
            0.02180303310691422,
            -0.022604712664668968,
            -0.07906188570515624,
            0.0875799784695376,
            -0.037373937391752855,
            0.04811858116226168,
            0.03134392457346804,
            -0.012132712097547281,
            0.04733087542294221,
            0.033739832772051254,
            0.12119223696476776,
            -0.13096746234289589,
            0.020376622596639533,
            -0.09070885034118713,
            0.09708340024324992,
            -0.04895844362056505,
            -0.02016552181913834,
            -0.1397496824587156,
            -0.03527303714334687,
            0.0842418989517514,
            -0.039542931150823614,
            0.024772686683032848,
            -0.05780009765855211,
            0.08695752425752869,
            -0.02014467384603864,
            0.09765441065057626,
            0.02286661690483415,
            0.055253335511427186,
            -0.08952612778238363,
            -0.08407319161234814,
            -0.01710289509234591,
            -0.09652723489642633
          ],
          [
            -0.0906917327678137,
            0.009338605966565999,
            -0.011889747029929782,
            0.1199554073367358,
            -0.00860662090320374,
            -0.053870430370866015,
            0.10600468532229529,
            -0.0479636263991476,
            -0.0540609100333118,
            -0.0810795677133348,
            0.008799085156880763,
            -0.1737133188737129,
            -0.05002185419646917,
            -0.05851171615128907,
            -0.08231086134012945,
            0.07755515671557445,
            -0.08991864250416448,
            -0.08838337152625107,
            -0.15951194768713087,
            0.0501706450459529,
            -0.024305210761161718,
            0.04717210002474941,
            -0.053284238262494094,
            -0.032258403929558074,
            0.054514880982228474,
            0.01844928137058804,
            0.19334651193830382,
            -0.005011327925385507,
            0.15409848101953985,
            0.014084533269654014,
            0.011121566352174738,
            -0.014154687019921603,
            -0.05669066341664184,
            0.06687005579108257,
            -0.006063013476656333,
            -0.05540418541675605,
            0.012766007955230998,
            -0.11304145418839955,
            -0.11092565384026476,
            0.05963467360367772,
            0.07434443566267053,
            0.13969045417940845,
            0.05774647505417617,
            -0.011727557510675684,
            0.12501273486363823,
            0.010419662762900352,
            0.08919178200827352,
            0.015711731402550964,
            -0.07664578113775668,
            0.16781954046071879,
            0.1364342889938794,
            0.08509296758975839,
            0.1417971287892089,
            0.01913791161107472,
            -0.07322442292126656,
            0.10840765779628343,
            0.08326510000922381,
            0.07823189194190835,
            -0.053241610358020934,
            0.11203254255415752,
            0.0365345244914805,
            -0.14609503850837327,
            -0.15030310054380136,
            -0.01162212314032209,
            0.09346474366502663,
            0.03484282529720939,
            0.06622576021482238,
            0.07304283615544718,
            -0.056234981232698024,
            -0.031378468678686405,
            -0.1470716955762624,
            -0.12713219667934125,
            -0.09353635139843144,
            -0.04193570970856137,
            0.11357378059660167,
            -0.08083611301472955,
            -0.07129630479149629,
            -0.01080051827216053,
            0.040684843974317354,
            -0.06695142935234101,
            0.14350728515670277,
            0.020689057987984434,
            0.007259298141577267,
            -0.2106252698229254,
            0.010331982370199727,
            0.1656356878701521,
            -0.11521477724697524,
            -0.10898050215339679,
            0.024070491201451546,
            -0.028580469709172326,
            0.025641384905297833,
            -0.011912624929184277,
            -0.0568627545355829,
            -0.04742483024213213,
            -0.04930853738839682,
            -0.11873391830328414,
            0.0348296671098496,
            -0.1628995975101421,
            -0.02486852252294248,
            0.07514247498950134,
            -0.03670402860401574,
            0.1248367719726632,
            -0.0043012499904874395,
            0.01801204498764583,
            0.02584529073569655,
            -0.014372087143559404,
            0.01590495858072298,
            -0.009289975658966063,
            0.0072144354267777095,
            -0.024229450959177678,
            -0.07491946221134767,
            0.0587516838320086,
            0.050160017138901294,
            -0.08363482497250914,
            0.02430103328399341,
            0.10587582552110196,
            -0.01605994570348137,
            0.11884841013709316,
            -0.12947761778347158,
            -0.04727374816516573,
            0.012754473450922045,
            -0.05505396026201948,
            0.11892010172903394,
            -0.09595934211647165,
            0.033700565117312044,
            -0.05140282598282142,
            0.04354443119810233,
            0.037331081637586076
          ],
          [
            0.014060210890701329,
            -0.04115691921703546,
            -0.04166784071720641,
            -0.06075407128958455,
            0.10173267944828723,
            -0.07056237664019584,
            0.02911529224056143,
            0.12454307602613315,
            0.11714908467246839,
            -0.04533108560589588,
            -0.021410397964084477,
            0.07179957578861672,
            -0.1704807141710152,
            -0.015926882034855924,
            0.060295449408851225,
            0.003161846547202182,
            -0.033854878546677465,
            -0.03354710703306146,
            0.04343029325553561,
            -0.08080451413169469,
            -0.022085296360910615,
            -0.027918114944132988,
            0.025226336710268575,
            -0.005319631777826548,
            0.0019426459010262324,
            0.001548885748588242,
            0.08513728240793024,
            0.060775184145571676,
            0.10863618046945026,
            -0.043191319989273814,
            -0.004745600255664923,
            0.20311857664842498,
            0.08167111922907305,
            -0.0019239562918047079,
            0.031275712051154,
            -0.03114062642022188,
            0.09391686105420759,
            0.00030218070291896054,
            0.09745421579358163,
            0.11583552321900537,
            0.04430240367905218,
            -0.08199588708860402,
            -0.07120865159332782,
            -0.11555860299473496,
            0.04002042993219322,
            -0.03892198571937848,
            -0.06938500478136801,
            -0.053551268947036906,
            0.062177129646785456,
            0.04842301280399201,
            0.02135098202020581,
            -0.005615641044237715,
            0.012886029918927795,
            0.10042114342819522,
            0.13410313504286547,
            0.028307044092066358,
            -0.15721021341334257,
            -0.08492173162338039,
            -0.0919804160046986,
            -0.050566905715074745,
            0.126387128973784,
            -0.11831981035310125,
            0.05320020075044741,
            0.01271053395945593,
            -0.03566303081704527,
            -0.05507340285102352,
            0.06852488049025872,
            0.04337899579027979,
            -0.023860089514510782,
            -0.03645467263039915,
            0.07886474272881586,
            -0.05608998229365285,
            -0.013630035077274108,
            0.06010393964070968,
            0.0061176532505799654,
            -0.10460056236458,
            0.052615526124259245,
            -0.04339231621633287,
            -0.008080090775128146,
            -0.05629008999561461,
            0.06578397171304243,
            0.012064208375294348,
            -0.06575734965385892,
            0.07155799585382777,
            0.1424434658261617,
            0.1559852184692966,
            0.00797921573992549,
            -0.16406629038683151,
            -0.056816736969299945,
            0.06767827015152897,
            -0.1360458212223391,
            0.011879946490378891,
            -0.06546377136393773,
            0.12159024042661061,
            0.06933265925523313,
            0.14128988365956993,
            0.11339847014214344,
            0.04190266741264996,
            0.08673422506138731,
            -0.011113480614469554,
            0.09166247824097008,
            0.0950564370040324,
            0.018924779301897055,
            -0.006733818655038396,
            0.0895406133543516,
            0.01480866412465465,
            0.024362592109380698,
            -0.05279723850813802,
            0.016984492659809718,
            0.13083319097223925,
            0.024283417386095695,
            0.05494862104488589,
            -0.04618817381522398,
            -0.013182046878040091,
            -0.053951981893331835,
            -0.0174725479796649,
            0.04601589115146134,
            0.09570197533414844,
            0.026190191479691878,
            -0.04648354692794128,
            0.14590796353739924,
            -0.0699010160574112,
            -0.01080944439228372,
            0.07969168049462626,
            -0.09155864954530482,
            -0.18126091290837767,
            0.03258699375530487,
            -0.0398553277808873
          ],
          [
            -0.017272558954781334,
            0.01963576541572212,
            0.04036951820968554,
            -0.101266034220328,
            -0.001532508004601026,
            0.06941471112639883,
            0.047933338160262,
            0.03254224813914894,
            -0.1337121245283849,
            0.03130733391921028,
            -0.10913050843888158,
            0.113653237035359,
            -0.025548020757365737,
            0.04198628054211253,
            -0.08228853730233164,
            0.1542749289630072,
            0.12543258060864979,
            0.08422916033179714,
            -0.12362648132247508,
            -0.09981668412626837,
            0.11671724330650715,
            0.024835807428070643,
            0.14370109352835614,
            -0.05452087840183036,
            -0.1389590283134533,
            -0.15593471050065935,
            -0.0463433195326514,
            0.04471961014983541,
            -0.022113518044197047,
            -0.04872039026147331,
            -0.012004913788259733,
            -0.09158087927349087,
            -0.0711183729421552,
            -0.002226376882422285,
            -0.00647440500561788,
            0.03185534408501552,
            -0.1579416162124813,
            0.06816179140647506,
            0.053486983486418976,
            0.07519132395223728,
            0.10047138777341322,
            0.04203286179565018,
            -0.0899576191709925,
            0.10607332290805918,
            0.00288882141280952,
            -0.1291623064232965,
            0.006856628257816713,
            -0.19232208641829845,
            -0.04393654653993435,
            0.020115539571721665,
            0.012948938761325772,
            0.023123683671264342,
            -0.04262048969624127,
            -0.23036463714095914,
            -0.028632641243202684,
            -0.0081244521569314,
            0.034099646524782895,
            0.068213343450487,
            -0.08668926882467316,
            -0.015533335507674748,
            -0.03821282006307963,
            0.06708405226733477,
            0.033837404897735145,
            0.11232103731498028,
            0.03432588490078382,
            -0.06344934227523398,
            0.11571154178389785,
            -0.0030694881536180536,
            -0.13351798733406955,
            0.0020646068163682626,
            0.035058184007552416,
            0.001218262851570966,
            0.07096612410363959,
            0.010768728538805358,
            0.11956867383589387,
            -0.06146752668360767,
            -0.05448822187144219,
            -0.003410732759600336,
            -0.033811275182856544,
            -0.1017584983478925,
            0.0178769448080017,
            -0.128224395006622,
            0.14937719342633446,
            0.025768986290961183,
            0.20940400496501482,
            -0.010537747511499678,
            0.030057962195032893,
            -0.06790206201927938,
            0.028506941373843964,
            -0.03976949242755427,
            -0.04084080284360878,
            0.10192325157029819,
            -0.07331787454747311,
            -0.028875740194295275,
            -0.00972542500189504,
            0.11058750334087504,
            -0.058626012687728865,
            -0.09763900944806665,
            -0.02005231447748089,
            0.06320204183146298,
            -0.04205460573308967,
            -0.014191911976955657,
            -0.1447288655340324,
            0.04979922107799896,
            -0.029816393658341253,
            -0.17532583753102915,
            0.040152542157014,
            0.007243441539219197,
            -0.0014960280118928291,
            -0.11599266823533622,
            -0.10946616975136411,
            0.06052996920817301,
            -0.015191509453552226,
            0.06914478705837766,
            -0.006690441084223915,
            -0.11007949482579032,
            0.014166280560029372,
            -0.060832981309643507,
            -0.10716380927529402,
            0.103872340471822,
            -0.06206798445890644,
            0.24335813131126363,
            0.006431715607649894,
            -0.02744254034276177,
            -0.02465496630975602,
            0.03948526803687539,
            0.08392803223295908,
            -0.014745627206524194
          ],
          [
            -0.016062580901378326,
            -0.083948704446341,
            0.030781753092852124,
            0.045764543865399,
            0.0761818286510449,
            0.1291832309660118,
            0.14355488614286901,
            -0.05595648078803182,
            -0.05850571167731962,
            -0.10241141784771532,
            0.04188968994833094,
            -0.04408160595622302,
            -0.056497333682514334,
            0.03777334242678613,
            -0.11651132046649233,
            0.08807900986617118,
            0.16429317347539524,
            0.04359845537197365,
            -0.03119069666026692,
            0.17391352664163523,
            -0.09733329038685895,
            -0.0017843340938579976,
            -0.029723156044878168,
            0.0244660596990538,
            -0.031034342509981435,
            -0.12204913421305792,
            0.05589729295859185,
            0.08407350082867282,
            -0.03893184337156596,
            0.08823950863353933,
            0.09928392733819784,
            -0.0009997874718767788,
            0.08460982556216319,
            -0.04260798667950487,
            -0.10724542498627455,
            0.05885316837326968,
            -0.03583018164678876,
            0.10411840514126444,
            0.01624126277835621,
            0.04486237472983302,
            -0.04483774820239021,
            0.006571731416403993,
            0.09930568180885131,
            0.07560572848120578,
            -0.037936894583671166,
            -0.09542682445400098,
            0.08021671281888468,
            -0.07710689923047209,
            0.04443177281982417,
            -0.042762638720643655,
            -0.05000138763542855,
            -0.04322840288696837,
            0.047915515726188136,
            0.048009538813957656,
            -0.011140766511242855,
            -0.05100045587406747,
            0.07895940026125954,
            -0.14163245396051508,
            0.03149815490600046,
            0.10786284623959776,
            0.17141176000923192,
            0.06333013981682256,
            -0.021363855706622515,
            -0.14141875471097048,
            0.08296765661219756,
            -0.041205942996714554,
            -0.00477560618069291,
            -0.08589355907924713,
            0.0296981099562498,
            0.023288066265969246,
            0.03278677143727814,
            -0.029611771457961848,
            0.012622997510298372,
            -0.0014163934928433863,
            0.010685040700864517,
            -0.08324581846086425,
            -0.05977676381614256,
            -0.02270339447901327,
            0.07691394408751226,
            0.0270003734856012,
            -0.06184383503071015,
            0.11659393596148163,
            -0.06284180278417258,
            -0.07815062386202014,
            0.02280333714662135,
            0.04212958752810077,
            0.027442504356523106,
            0.11975619823992277,
            0.0039569536594583395,
            0.046554599728051343,
            -0.030893995635763147,
            0.16712893203986479,
            0.02405485184384493,
            0.14827604717818782,
            -0.0828875756731191,
            -0.005745154256337107,
            -0.07563681733996058,
            -0.021846868987674923,
            0.005400146252780722,
            0.016299384783219805,
            -0.11607745280663445,
            0.05676385504008314,
            0.04089035831244853,
            -0.004845436926766595,
            0.05568269363190784,
            0.027637941803673786,
            0.06211383579112528,
            -0.033003198036501695,
            -0.001414606729536295,
            0.03499904859502562,
            -0.11850730353169951,
            0.09914890916514064,
            -0.05257608776802562,
            0.10720236669245609,
            -0.06850193378819376,
            0.02551108892728957,
            0.08726142182798118,
            -0.05764260356847914,
            0.07352639013161386,
            -0.035150836517260184,
            0.018701901882648638,
            0.00489608338556857,
            -0.17281760762263954,
            -0.07589065891399863,
            -0.008103802534351563,
            0.09477487667330697,
            0.03970052050515363,
            -0.14686347596331506
          ],
          [
            -0.20940902653326374,
            -0.0025858126344123983,
            -0.02170299159827051,
            -0.06581308999009275,
            0.06192437391025526,
            0.05254180169971904,
            0.02838810244079923,
            -0.07142026582278392,
            -0.0075751187499341404,
            -0.12592513050092222,
            0.08090250120544032,
            0.07358382601620701,
            0.016920757742206367,
            -0.08001781864628747,
            -0.0651288645393238,
            -0.050698014573878146,
            -0.04179436018866432,
            -0.15901895098902102,
            -0.0038742454007736644,
            -0.08462866044076142,
            0.12918442416145126,
            -0.025844755858293385,
            0.14578977322126632,
            0.10123613234317369,
            -0.09401638756384337,
            -0.0224226786289861,
            0.0030297392906535148,
            -0.02395108146429097,
            -0.06850205864212174,
            -0.08613949974491267,
            0.0660424139518001,
            0.07748019263098946,
            -0.07775480204263494,
            -0.06738942255081899,
            0.12514964131864129,
            -0.04880950249143909,
            0.057353262001992256,
            0.12131154980375985,
            0.027685675550159525,
            0.00934419833327258,
            0.10987287705951342,
            -0.04899795197338677,
            -0.08021832006534316,
            0.08296687782241838,
            -0.012537182919327353,
            -0.010239891773465497,
            0.05546635565899081,
            -0.11166213196873585,
            0.1116459597285548,
            0.06809284581171336,
            -0.007165732874851343,
            0.02367549257629065,
            -0.04052206949465198,
            -0.025895843652816504,
            0.05003604374235049,
            -0.059422582550812696,
            0.11633728050404618,
            -0.09180324822492031,
            -0.058892409124223805,
            -0.05862887910724113,
            -0.14940170128617752,
            0.20221574159857272,
            -0.0026939635644501595,
            -0.05461396308189118,
            0.017481759124608615,
            -0.13664260589880722,
            -0.003731585683584159,
            0.015321901888499788,
            -0.06797877405620961,
            0.06818832140615558,
            -0.05117845710853731,
            -0.054573261784826105,
            -0.051952855664387544,
            -0.060815598363914355,
            0.012695971327544372,
            -0.08415650263207332,
            -0.07608154365492302,
            0.0007593262732155908,
            -0.08605938648673152,
            0.012888217023779491,
            0.11167985223579176,
            -0.06552500279389874,
            -0.001800800175467738,
            0.03562172550686717,
            0.07947484178419721,
            0.007626914179859332,
            -0.056261563175182744,
            0.042667412944438994,
            0.0875896236854771,
            0.05566122348513564,
            -0.0017912882873771594,
            0.09518618724070686,
            -0.08410367428353509,
            -0.03650399027219434,
            0.019591953422007553,
            -0.022398866543789045,
            0.08186409381872924,
            -0.03193750440362047,
            -0.001603281272699662,
            0.013053668790659832,
            0.006521656884602789,
            0.05414903588474845,
            0.09336702053869646,
            -0.05292017341656442,
            -0.16727768704887738,
            0.1245291731504374,
            -0.09098256871225113,
            -0.06561189787496745,
            -0.037955604092624835,
            -0.06363271621433016,
            -0.03098370698075497,
            0.05973803482093219,
            0.08688826829074058,
            -0.053628402120765355,
            0.1242968868858904,
            -0.012248658775449268,
            0.014495714993615487,
            -0.02849043975258153,
            -0.11353072766481581,
            -0.02738382108586233,
            -0.1378379005945627,
            0.07281484543321123,
            -0.03311980022859817,
            -0.0052030908862417315,
            0.08582771176199988,
            0.04306417210601495,
            0.09098663300883078,
            -0.00519345534909511
          ],
          [
            0.07683676638390599,
            -0.04105804601402527,
            0.13078107940154002,
            0.0645609289862298,
            0.023409758474448133,
            0.025471493918065514,
            0.03832316981787512,
            0.09833548468073754,
            0.11373842939335213,
            -0.09829825761436702,
            -0.1426116400949751,
            -0.029261898626384408,
            0.09182937869079494,
            -0.03903011457406266,
            0.1865649111906932,
            -0.07399998112814718,
            0.010470677431601188,
            -0.053672591065225934,
            0.05311420779134192,
            -0.003859805482575504,
            0.016259056707458024,
            -0.10108068691781158,
            -0.02558292607117373,
            -0.120619770776578,
            0.1257572568647956,
            -0.03406690691034921,
            -0.033643537010520044,
            0.028481265814560428,
            -0.0633896921343563,
            -0.11103482814474454,
            0.0772209021036209,
            -0.002944996032642279,
            0.11330374289474898,
            -0.036462745679140075,
            0.021494010042836204,
            0.05623876148579235,
            0.08458025319638508,
            -0.02971261905003458,
            -0.036619761563094856,
            -0.07174775056970435,
            -0.11093133201639747,
            0.01770674873644449,
            -0.022019490579758955,
            -0.02630780285676472,
            0.07158341188435062,
            0.06366719361706727,
            -0.10028845501479482,
            0.007612542294009315,
            -0.04524679938108119,
            -0.02088669467929629,
            0.11118319461998744,
            0.05729521452288849,
            -0.017415183612409835,
            0.14373695120575503,
            0.1489579918918169,
            0.01664311188322887,
            -0.002076259235198671,
            -0.03434016907263033,
            -0.05812516947715725,
            -0.03278318578001735,
            0.0013872851816283949,
            0.033973890446141554,
            -0.14396109523703085,
            0.07418632024180466,
            -0.09505600510521497,
            -0.05793799345597789,
            -0.030800344421660096,
            -0.11054006699929228,
            -0.03580907443774469,
            0.07723929910359269,
            -0.08014766900662292,
            0.040394431324593916,
            -0.09779785025574596,
            0.0485396099990087,
            0.14953666869872675,
            0.03359730251611596,
            0.049106191467762995,
            0.04888043607203476,
            -0.027777246778557953,
            0.22703585178606525,
            -0.21007135204344587,
            -0.055310778075498696,
            -0.13277687287508125,
            0.12758658150619628,
            -0.13535189486603644,
            0.18341488663320835,
            0.04734817088482495,
            -0.1454212259950285,
            0.14385538429452552,
            0.02281798574768469,
            -0.09867047437064574,
            -0.024809671603818386,
            -0.03414375257671635,
            0.02816741840824878,
            -0.08028474537078707,
            -0.04188033700301034,
            -0.047158307823599935,
            -0.006899844351803446,
            -0.11198762322582988,
            0.03667059302771676,
            -0.0023197332769338114,
            -0.003965344645395899,
            -0.004987148452578616,
            -0.04360955768862244,
            0.0664377846019928,
            -0.02875790264509277,
            -0.07359596746070529,
            -0.07517615105076043,
            0.061191793590279556,
            -0.1140394432330603,
            0.06339493462990159,
            -0.008414360687665774,
            -0.06722557708643574,
            0.06703993122379226,
            0.06315489072756819,
            0.07603669758921493,
            0.05896202562329167,
            0.015299207846554745,
            -0.053953747164396,
            0.08354937957219126,
            0.15139037000941677,
            -0.020653067816318094,
            0.06365753012885608,
            0.09133805096830197,
            -0.0029281379478082142,
            -0.0163346463778592,
            0.021926015078920454,
            -0.07707603177935497
          ],
          [
            -0.07633285821283183,
            0.07007867226957006,
            -0.05242166014522298,
            0.10735649020892558,
            0.022764877982873584,
            -0.01690944962192325,
            0.010704490403223686,
            -0.009978603329888756,
            -0.0858160274721874,
            0.07118715072034101,
            -0.007219254801286217,
            -0.05739419138742049,
            0.13385381977801122,
            -0.016968539436151488,
            0.009261366137400294,
            -0.05518564635581844,
            -0.08299252679667411,
            0.010495179924053312,
            -0.083739687303986,
            0.020824776970067085,
            -0.035022699860858875,
            -0.038737914306478785,
            -0.008206851951635612,
            -0.07427938088315256,
            0.0601351669464983,
            0.07546659229505523,
            0.05987690198443034,
            0.09484280387691257,
            -0.03078640719029526,
            0.061800838471882176,
            -0.013729710780183155,
            -0.07720940772045591,
            -0.15590445735281802,
            0.04321870331246146,
            0.16908075778070952,
            -0.03720119596720482,
            0.02422784152774318,
            -0.035158111660186585,
            0.05304910083191684,
            -0.0006697885357466186,
            0.03962907375812993,
            -0.032023373908395256,
            0.01675614048027802,
            -0.043396376685795386,
            0.019951516237734317,
            0.11827172259858296,
            -0.05812044883217143,
            0.12503911845503968,
            -0.03599806675499795,
            0.11738034022058282,
            0.1273009394983589,
            -0.15401294294329385,
            0.046438449706060383,
            -0.0073830253218485084,
            0.07724501323691327,
            0.06046754484772279,
            -0.018564438442780804,
            0.2781681722506581,
            -0.08106571537600263,
            0.08209558980754378,
            -0.002629312708441641,
            0.050120417645430404,
            -0.07812209434703696,
            0.00019501952944715671,
            0.0607574121842984,
            -0.023460233162259612,
            -0.0719556469089919,
            0.010523828782460257,
            0.027949029840378954,
            -0.03084285419893548,
            0.08679800439210181,
            0.006357238497239106,
            0.01456176698387197,
            -0.16325652798484955,
            0.0026727505380378853,
            -0.00810864196547865,
            0.02654652567151818,
            0.03414095169894646,
            -0.08301178511199125,
            0.05050283776002663,
            -0.005655393652308616,
            -0.046427002662615395,
            0.05641407502679277,
            -0.00307984956263621,
            -0.028926232739884154,
            -0.1279284183133193,
            0.024986638573020137,
            0.012675150946168657,
            0.15745820334009497,
            0.038958300376204465,
            0.05047863575369433,
            0.022624708745630873,
            0.04251834513025535,
            -0.0543553291652002,
            -0.11094799772822025,
            -0.01347512445858593,
            -0.06580284178173237,
            -0.0585782493129759,
            0.06843315622022159,
            -0.06564169645610603,
            0.12644273449367557,
            0.014889347135213322,
            -0.21088633870932108,
            0.04362554805433785,
            -0.020190782318760418,
            0.14759649509007766,
            -0.14935368467136054,
            -0.115001543551904,
            -0.02491115508857244,
            -0.03795401485504287,
            -0.08903728574751814,
            -0.0008167472944397707,
            0.1261907380891064,
            -0.11509118554305804,
            -0.057261079373867055,
            0.04186805540267105,
            0.018283202257740792,
            -0.05897589691321975,
            0.10789618641632884,
            0.03708541822272129,
            0.013529636971805167,
            0.03378642254992439,
            0.09742974837085493,
            -0.009300945052379933,
            -0.05159363955498922,
            0.029896163119835922,
            -0.12214303614159217,
            0.1000122570219584
          ],
          [
            -0.17896552406268718,
            0.010020972474645163,
            0.08361138160581481,
            -0.21206133989696452,
            0.09079080750284996,
            -0.07491581617426113,
            0.040406293057555054,
            -0.05710614468248813,
            0.009807294121800187,
            -0.030060206155176152,
            0.02664264737907299,
            -0.04451199621094671,
            0.08992841198445073,
            0.030105221954333,
            -0.07896608923960055,
            -0.016127881656278445,
            0.06982925308505125,
            0.05656577378223592,
            0.004699831226591549,
            0.08137349445519984,
            -0.007150675156926816,
            -0.11623509150965083,
            -0.04487396502088043,
            0.05289492191689576,
            -0.021861797996794743,
            0.02762190143043919,
            0.04480774161488777,
            0.08194502794462412,
            -0.13105075582253684,
            -0.05300740142630441,
            -0.011417022526482006,
            0.10378972819381557,
            -0.03843011285796898,
            -0.019557309077099808,
            0.16764861723739113,
            0.055079538399646556,
            -0.03712214512313963,
            -0.09356910314811172,
            0.057589973189271094,
            -0.026675806150857406,
            0.06919095898059334,
            -0.011714945140474225,
            0.07907290040800824,
            -0.0723852038097671,
            -0.12137700390462165,
            -0.08835652563425003,
            0.033029399649099345,
            -0.024083573162539524,
            -0.06364146556121333,
            -0.02863928272336318,
            0.045525632739647534,
            -0.05124395462853231,
            -0.017343212238350263,
            -0.07770500170836776,
            0.005457504169649814,
            0.11434465139802764,
            0.04561764375872846,
            0.0334659585474234,
            0.07800136191358865,
            -0.013570176843146996,
            0.07995687727255268,
            -0.12948132167872461,
            0.03749071501466963,
            -0.005068699733595133,
            0.09250517090576511,
            -0.054009782978030704,
            -0.05001329598817933,
            0.06750856420732856,
            -0.02616668900104023,
            0.01290825166527652,
            -0.11911798321459903,
            0.06476112892693277,
            -0.009884107438800997,
            0.08243082789442319,
            -0.09418416936186122,
            -0.04523713446040881,
            0.04515069676161446,
            -0.030454406789192656,
            0.05848743243601907,
            -0.05270762289130631,
            -0.030213811921891594,
            0.02584933648159989,
            0.03541372213313717,
            0.08584640161203669,
            0.06193471481221938,
            0.05754095576918501,
            -0.03191378989644413,
            0.028831675924579164,
            -0.1172749165744071,
            0.05705843863114748,
            -0.11973809231120723,
            0.0548607091471825,
            -0.1319350578502985,
            -0.2329514729107079,
            -0.029058803949235868,
            -0.1968926526985238,
            -0.08914725914202316,
            0.05533383407079627,
            0.07633999300364702,
            0.01562584506860832,
            -0.012100079169800038,
            0.06013717652728632,
            -0.023980226326801635,
            -0.0302064668325861,
            0.04010844613336192,
            0.034318332964382595,
            -0.08319762237038796,
            -0.12451215816378479,
            -0.09561032299995965,
            -0.048392189070939846,
            -0.12301257916867886,
            -0.0036922650815777265,
            0.03748504944322817,
            -0.0225065513720305,
            0.009950435231939956,
            0.044754728874192844,
            0.014341973613664512,
            -0.11479220088002379,
            0.0723495062569653,
            -0.0630228101255536,
            -0.05518921041552366,
            0.07510999390669978,
            0.033105309042009846,
            0.010575695089019102,
            0.0636116078575051,
            -0.026842298655622834,
            0.11132169303206346,
            0.26549791069490153
          ],
          [
            -0.011019878176854172,
            0.015822122029054947,
            0.0011884424437362219,
            -0.17870213609202756,
            -0.05530814399191172,
            0.03081116396118741,
            0.03542825997237243,
            -0.06918095687060025,
            -0.0881278898443337,
            -0.022862248581102515,
            -0.046288254535035274,
            -0.08480475071134089,
            -0.17787830514767916,
            -0.0404563389778034,
            -0.02535131574323522,
            0.08573251837932652,
            -0.05128677520360843,
            -0.055642951742689774,
            0.05857032815656762,
            -0.049973051461672094,
            0.1171632089093869,
            -0.05152861089711336,
            0.03892390032712979,
            -0.011791375444277519,
            0.015618625193507447,
            -0.010891657938096572,
            -0.06241898397817153,
            -0.07374129250581514,
            0.12122295931337312,
            0.03339377485799401,
            -0.008992025548306687,
            0.023220588464165134,
            0.026813306474515818,
            -0.07770989937469612,
            -0.2783382043688933,
            0.02469811737030938,
            -0.10322748269537331,
            0.0961178830083566,
            -0.019941114819279362,
            -0.037435180166171596,
            -0.023983173641235762,
            -0.13207797651993378,
            0.07339491644410231,
            0.11548815403196568,
            -0.036238331795549056,
            -0.07046517552912707,
            -0.043156546303021806,
            0.07587276371951598,
            0.07173017685969452,
            0.056779285662075074,
            0.07397718151385181,
            -0.014234646428593244,
            0.02293432278263709,
            0.03324642063230953,
            -0.05339011446568133,
            -0.0057341454590094446,
            0.13455943795085368,
            0.019038011520907807,
            -0.16520549350551797,
            0.0804780160141235,
            -0.06281516128126914,
            -0.053838029714901356,
            -0.06814088769672993,
            -0.036896761545942694,
            -0.043411274764772925,
            0.12342161945160299,
            0.04088513748273992,
            0.03816160045959252,
            -0.0057040134634362295,
            -0.014655273102724116,
            -0.04827967189158232,
            0.1147712375065343,
            -0.07865108558688576,
            -0.06599182508342116,
            -0.05312253474307107,
            -0.03997296564128614,
            0.034842060425388295,
            -0.05357068151869488,
            -0.12772703180816156,
            0.06719615016875143,
            -0.05595203561178311,
            0.14669880357269202,
            -0.13220840672729137,
            0.1905725353499891,
            -0.0844300203742165,
            -0.14774272705030606,
            -0.07927762688405565,
            -0.04910701458519146,
            -0.0397085325073511,
            0.010821469407210273,
            0.010381197990730048,
            -0.08009788679848691,
            0.028093724891796658,
            0.11156154551664907,
            -0.019047946981066786,
            -0.04704000370024996,
            0.006221685206499754,
            -0.09984716716620798,
            -0.02579090188633826,
            0.07742058226231929,
            0.03827553930139547,
            -0.06965284608016352,
            0.009806908938435903,
            0.018006884554305696,
            -0.06715312343003838,
            0.0026018375962841233,
            -0.11271852208276904,
            0.007967551912780342,
            0.007208220934588929,
            0.036075340549712655,
            -0.07234509468403899,
            0.03634820828492616,
            -0.10849906518438848,
            0.09943510740626242,
            0.0816903452706217,
            -0.07818017787195679,
            0.047974601487845894,
            0.09291930612497135,
            -0.06741080175904232,
            -0.1439781364195553,
            0.08624652261226486,
            -0.011187447532633699,
            -0.21775944110114417,
            0.05549617779315659,
            0.04824455323134394,
            -0.10926089425843273,
            -0.06819719808988346,
            -0.028070866152316055
          ],
          [
            0.057520926824507025,
            -0.02321698567984393,
            -0.03731795334527048,
            0.0846334765406337,
            0.010389438764710402,
            0.042929410334667996,
            -0.0121325802099564,
            0.049967226027169555,
            -0.00300566938091917,
            -0.09373970076200706,
            0.042541655728798075,
            0.009680674012403852,
            0.010469158781167297,
            0.04519661795602101,
            0.12127240100519941,
            0.02027871936286014,
            0.07198183476139916,
            -0.12909086697935498,
            0.17458302199450945,
            0.09896586298326844,
            -0.04525013226082795,
            -0.0050492156883748035,
            0.039247298724715156,
            0.05731118946058821,
            0.09292161901024189,
            -0.10966155681897978,
            -0.15438596787800238,
            0.05605825397446976,
            -0.0007748656367564685,
            -0.05155177291588964,
            0.05919701648607444,
            0.01353939827692214,
            0.015610435079013076,
            -0.1531936649940266,
            -0.01060019220230959,
            -0.005860965402341462,
            0.00825544433525513,
            0.10310682152118524,
            0.03423942813647903,
            -0.03398419871977878,
            0.11056278922308764,
            -0.16760562950854424,
            0.00867481126396782,
            -0.057992246708653605,
            -0.07672081021447137,
            -0.08673666513515983,
            0.05019788654481453,
            -0.009258720920175108,
            -0.016082349505641014,
            0.02632199120500245,
            0.08783834443395673,
            -0.1359192845963589,
            -0.0634344982843477,
            0.06016482026351152,
            -0.08774264150757465,
            0.012508911676206274,
            0.05823368383557424,
            0.018147332634067138,
            0.0031902361895363375,
            -0.1515064206473092,
            0.14148043450591968,
            -0.01680936953234847,
            0.10533128565667839,
            0.06653274896667134,
            -0.02486773413215076,
            -0.015237715495958717,
            -0.03256073550040585,
            0.050827731387372815,
            0.02120177638142642,
            0.08996248630617898,
            0.09932720181481365,
            0.06696420720730463,
            0.08586828721034973,
            0.11316541272048503,
            -0.09067482811371033,
            -0.08042740129834923,
            -0.07997816493117069,
            0.024902182653375193,
            0.016713684148980848,
            0.013553266937028578,
            0.16103369060460884,
            0.06698445666634624,
            -0.007815173641355236,
            0.0600242592650147,
            -0.11729700845071866,
            -0.08369027612334687,
            0.019235760357457093,
            -0.0025417345659690216,
            -0.047924588363162955,
            -0.09817732662952385,
            0.0143967715956671,
            0.0026963825632446833,
            0.013367173474088244,
            0.10957838793413452,
            0.022687663283909337,
            -0.027618360449317488,
            0.028275525434120274,
            -0.12930985959457503,
            -0.0558260278884366,
            -0.03575417781952053,
            0.021397338506943826,
            0.046734867156348524,
            -0.0028200673147733488,
            0.06816318042065098,
            -0.08694021487326463,
            -0.05157215964552426,
            -0.13327884633932152,
            -0.008026304921638718,
            0.01616831734465529,
            0.025102102028994766,
            0.08017901089187358,
            0.11861474228501041,
            0.03922548612896894,
            -0.1175682287738177,
            0.065655678803543,
            -0.046120608387473935,
            -0.072392641172494,
            0.12779891469355162,
            -0.050666649824666,
            0.030571412677996616,
            0.11389793506904018,
            -0.04870527629288467,
            0.10363675731367196,
            0.09081394710874517,
            0.008894238641584737,
            -0.039220191187398286,
            -0.10544469211306289,
            0.024668541611765796
          ],
          [
            0.04181700565330082,
            -0.0755951664034397,
            -0.006911352227166029,
            -0.04400207528949936,
            -0.03308025458650866,
            -0.09313841264228997,
            -0.16609942895743376,
            -0.1419988871927855,
            0.01756947358328762,
            -0.1396364816304956,
            0.03785867035552293,
            0.015106193957573935,
            0.08261779741725316,
            -0.045656472228876054,
            -0.022096707182382835,
            0.1538503300266855,
            -0.12992593401817806,
            0.13993543594118632,
            0.0526762080635781,
            0.12645623624248667,
            0.056970596499766935,
            0.02222890468773312,
            0.021893611858896895,
            0.048946495280921265,
            0.08442814671037903,
            -0.07145140261734055,
            0.00665369824689923,
            0.00573462987530328,
            0.0186841789738382,
            0.06625088972572632,
            -0.0004929175471817743,
            -0.0719660902422653,
            -0.045884050878339085,
            0.1794096823833169,
            -0.06195175757331448,
            0.03473696891142841,
            -0.015058448700111625,
            -0.13988049431008984,
            -0.009547543707780123,
            0.11715782360956205,
            -0.03843006676404705,
            0.14620501037671785,
            0.08639464758002285,
            0.08754921079854645,
            0.0027858106571502003,
            -0.08212148293268065,
            0.04098992626367713,
            0.0138175954885494,
            0.0662292982740052,
            0.03705608552730281,
            -0.11070486376483775,
            0.07856371704970891,
            0.01818513817647272,
            -0.037800935432170224,
            -0.06986130139805928,
            0.07464432851556482,
            -0.07448259990816271,
            -0.011380764210962931,
            0.0777624104564488,
            0.029249283242249555,
            0.09744531828934455,
            0.0290306966320924,
            -0.057351400548087225,
            -0.03442162598836795,
            -0.043390384531540586,
            0.1445207481579696,
            -0.03271153272414745,
            -0.0078360369074114,
            -0.053427462553549195,
            -0.07218604888914903,
            0.006891395609726238,
            0.02367405770347376,
            -0.10089254579679083,
            0.05546728250622354,
            -0.09220080750370768,
            -0.008770807644882422,
            0.0877430602510313,
            0.07951653274774052,
            0.033750614023735144,
            -0.005419294025801482,
            0.02785500364985428,
            0.049974910379985325,
            0.1291140192404074,
            0.015566831875954923,
            -0.09136437490697694,
            -0.007834210033615454,
            -0.10823565745259184,
            -0.14481983060681533,
            -0.04065042663694921,
            -0.0010647185056365976,
            -0.1123979167956937,
            0.10567429187169429,
            -0.03312608701119076,
            -0.0014838685681645457,
            0.034588946673276486,
            0.022268830416795247,
            -0.09282469590388004,
            -0.06288828281038537,
            0.07356639537849366,
            -0.01260979843892318,
            -0.07506116613500921,
            -0.019632870862229285,
            -0.07837296438073829,
            -0.02411662854520976,
            0.02632790004500918,
            -0.006931768127438305,
            -0.0007639885643031883,
            -0.14861198046087784,
            -0.03826599108024771,
            0.06793145321415792,
            -0.05325113687574055,
            0.040150775379888676,
            0.14708535499374428,
            -0.027429340004812792,
            -0.03984572493726346,
            0.048231975352104904,
            -0.02324584439407711,
            -0.056286462161555494,
            0.01958712599766849,
            0.13453411664039597,
            -0.09693806745210434,
            -0.03497028030412908,
            0.10165560500876408,
            0.10980533061533554,
            -0.04083306294175286,
            -0.032604653731784214,
            0.0465908776996645,
            0.014055269206267979
          ],
          [
            -0.05518742112748484,
            0.15022384351125662,
            0.10010581210232292,
            -0.02116068947843285,
            0.04302550636457298,
            0.08415577086766082,
            -0.03147885026283222,
            0.12467811729436923,
            0.11410736247390653,
            -0.02372286869665522,
            0.0730393682068262,
            -0.0857668901289643,
            0.011090548408051019,
            0.05892278590631073,
            -0.05862076900402876,
            -0.05668137827133527,
            0.13104499501815148,
            -0.18626927241995148,
            -0.12474998281865698,
            -0.0944934335148055,
            -0.03251319176326808,
            -0.10112666054581781,
            0.14289106506670024,
            -0.029357642539460025,
            -0.0562590239453604,
            0.047241883460051204,
            -0.025986506671195703,
            0.03840196841504827,
            0.06002743333232726,
            0.08378006940471651,
            -0.04829615113086921,
            0.05670780984689811,
            0.01881843821714362,
            -0.057392528846967696,
            0.16966554229461878,
            0.12619940139186048,
            -0.06633321097871316,
            0.11702255179162724,
            0.17498545225300985,
            -0.04159699114717599,
            0.03632769934402669,
            -0.08378367729467114,
            -0.0025768832732585545,
            -0.10929339673769284,
            -0.06109551771824975,
            -0.030793804313796712,
            -0.1048067091098367,
            -0.003783176392013228,
            -0.11485269067223212,
            0.11041188321853998,
            0.09634552008213555,
            -0.026337577021151318,
            -0.008086442270894828,
            0.02042874434010381,
            -0.03241337050741272,
            -0.0506086826952503,
            -0.007414076788737598,
            -0.06835752533320712,
            -0.04197034905487963,
            -0.05259156959662343,
            0.0457194670516238,
            0.14984748104538986,
            -0.052608094825362,
            0.11965524023864378,
            -0.02704336237543501,
            -0.030684758122653116,
            0.09102037125027754,
            0.16254780157117646,
            -0.009914397960516802,
            -0.06436267445205232,
            0.07319724346761318,
            0.02007381241412794,
            -0.06028835159073532,
            -0.04002364166690864,
            -0.028426402840074964,
            -0.06709441115656699,
            0.09076206608957417,
            0.03869541708276018,
            0.03687452055170041,
            -0.01728080304996647,
            0.06246276463823281,
            0.11478638986528518,
            0.059742176103840174,
            -0.023525628389426564,
            0.06638408209328457,
            0.09375596842469541,
            -0.12729391976909948,
            0.058430898193816166,
            -0.12733727168766837,
            0.04432945881524236,
            -0.09329506444595202,
            0.015531354463500463,
            -0.008392157760033584,
            -0.04534972301014615,
            0.08083493498294896,
            -0.050642223985704934,
            0.00128943032795614,
            0.0026198947447829417,
            -0.011503479972017668,
            0.026013561111934324,
            -0.020921263387367904,
            0.02286830708993601,
            -0.0993327579889785,
            -0.02160896078729299,
            -0.008124292457861929,
            -0.0298930388767687,
            0.04963112055250004,
            0.07806122789337848,
            0.048013263437354556,
            -0.08717431848338512,
            -0.060725941190102946,
            0.027653055580885273,
            -0.10913813313567398,
            0.023987352067115993,
            0.02193444414420436,
            0.10054281707543201,
            0.05840858807266717,
            -0.004602749007385329,
            -0.003679734386403576,
            0.0006439094673771565,
            -0.024996625877658878,
            0.014384552745197772,
            0.0881157312539202,
            -0.039777855291903134,
            -0.0008462197071193778,
            0.04172650173089854,
            -0.01956772502966544,
            0.13504704153040373
          ],
          [
            -0.10213910830295651,
            0.07039109955037345,
            -0.030514561515913533,
            0.058500616341501374,
            0.057510377335161886,
            -0.009099450264548597,
            0.11139017287486423,
            0.07373077623786337,
            0.07361790087981332,
            0.06370236726814439,
            0.017317358459313363,
            0.003671306308678739,
            -0.09825005844898126,
            -0.12126834062422888,
            0.03539014070482459,
            0.07673849334168036,
            -0.03401237304635184,
            -0.06666857295392166,
            0.040588677492485487,
            0.0465952464508124,
            -0.08226377894371392,
            0.17426478000843362,
            0.1130357261824525,
            0.07488169422845964,
            -0.06346427794547448,
            0.06378512084266702,
            -0.20623077278558216,
            -0.11021399978724822,
            0.018417684187730012,
            0.030024137587152853,
            -0.01568753949817995,
            -0.017805235114370196,
            0.014764359719602223,
            -0.048137307774716726,
            0.1946277129478425,
            -0.039221536278428906,
            0.061025148860952595,
            0.038313491033901616,
            -0.027928487672296762,
            0.15462014596877202,
            0.019816580573228892,
            0.13168186203459498,
            0.01319383831906444,
            -0.010959677085970305,
            0.01599107468556499,
            0.025550276007540125,
            -0.09634231218742964,
            0.05230539065147871,
            0.09486567093904974,
            0.03845165546450573,
            0.12567466509730008,
            0.06567236264274415,
            0.04705497266724284,
            0.08229090222747432,
            -0.017594692133107808,
            0.016181411796832475,
            0.050451782250326704,
            0.06124813060218739,
            0.14391056917356612,
            0.09749323682596575,
            0.006253244366285993,
            -0.05601045193224919,
            -0.12099939847941252,
            -0.03919762029465844,
            -0.02070135648298162,
            -0.1262386800471422,
            0.04029737567714082,
            0.12530988305949942,
            0.12863242067667116,
            -0.07066269785783355,
            0.05855724896075754,
            -0.04132086162975158,
            -0.028663446012211005,
            0.02337535824918659,
            -0.033755598687662924,
            0.10648161567602683,
            -0.23002440263158225,
            0.0021571453262857077,
            -0.04828208957170601,
            0.03690187016813548,
            -0.08010427898493913,
            0.002771906821091807,
            -0.08885151041410458,
            0.013760092136358305,
            -0.020799198627612914,
            0.006938493596540621,
            -0.0199266394777063,
            -0.052608664539729656,
            -0.07805516633017213,
            -0.023723205069814055,
            0.05353416381563021,
            -0.02346853791928259,
            0.16342016156844447,
            0.08029599684645494,
            -0.1404475890763332,
            -0.11016421798301149,
            -0.1715312791612107,
            0.02853355684178035,
            0.00010001536938628832,
            0.01663506465098242,
            -0.06949440695699578,
            0.08744091867786323,
            0.04446258959373203,
            0.001152316676222228,
            0.08157343042907259,
            0.06777676728506912,
            -0.08603073600630771,
            0.03424260059910134,
            -0.16219516462985262,
            -0.06697471734968523,
            0.1553741731568469,
            0.0008894508201078344,
            -0.10349221333520436,
            -0.05887231294472065,
            -0.08977537508021537,
            0.03736412775449696,
            0.1245995992205614,
            0.0584786650562135,
            0.0929163458234147,
            0.029585946192072995,
            0.016108664007193022,
            0.1715253845464983,
            -0.011716407754999896,
            0.16428632267615975,
            -0.09260183640431308,
            -0.08904434942801234,
            0.018965276574142726,
            0.17489200421851964
          ],
          [
            -0.003215723205727949,
            -0.005833083216670742,
            0.019712624123814117,
            0.005969144634620343,
            0.0925690371767467,
            0.022351070410716607,
            0.008525518357222666,
            -0.06502705119275135,
            0.07634593294097936,
            -0.2165971542017696,
            0.03721867913645045,
            -0.03509435927974099,
            0.037309640231745614,
            -0.06429136231080541,
            0.058258057577844066,
            -0.057125377287478046,
            0.0696040364249875,
            -0.054451725769562226,
            0.005912773233139466,
            0.1245891142520888,
            0.0702159250956933,
            -0.12329510215217492,
            -0.11714871505065885,
            -0.04683530959543228,
            -0.09601763229410955,
            -0.0013254795797664005,
            0.15101310490836498,
            0.027463348520407112,
            -0.10570490752695533,
            0.1263700360510027,
            -0.012328523041360423,
            -0.07300230539917271,
            -0.05314481904323909,
            0.06351455923606474,
            0.0943208686919963,
            0.033623883386261814,
            -0.01750788230898737,
            0.08795242018339314,
            0.007021558697836843,
            0.014032577493042472,
            0.0031657782822678594,
            0.007382635767311229,
            0.03722226285719512,
            0.15369627952783954,
            0.11088456269231303,
            0.06892993379716254,
            0.029881027861952344,
            -0.06582681542366886,
            -0.047337230309308746,
            -0.08273551639933882,
            -0.12431420101535877,
            -0.059717918690843204,
            -0.04184022651436757,
            0.15269628716612377,
            0.07176687601774051,
            0.049520939034971054,
            -0.005961212778578128,
            0.1964934763444724,
            -0.1543995654374516,
            -0.09195308900607788,
            -0.03584468858117945,
            -0.049741997642878365,
            0.07590950447435595,
            -0.09208535473287617,
            -0.06926637346569932,
            -0.03219930726986271,
            0.07591042897776942,
            0.1363016051327916,
            0.033931327763204296,
            -0.10243090208445287,
            -0.005351444601712717,
            0.014285633245199877,
            -0.06722731499141635,
            0.1116633226337408,
            -0.20957232899293313,
            0.05964863718521636,
            -0.1258962784511403,
            0.00591939831983773,
            -0.03253748089128652,
            0.12831059110129375,
            0.0744400683136493,
            0.11788530694390625,
            -0.01901851352469935,
            0.05018072001457653,
            0.03484595715991594,
            -0.012507907836346208,
            0.03887975543902341,
            0.0500881730887763,
            0.10239678496358143,
            0.014349876911677264,
            0.1398802638725416,
            -0.005092346644949533,
            -0.06880328816128206,
            -0.03280150440834901,
            -0.010491377098210984,
            -0.04604744641826127,
            -0.06862755393885875,
            0.07141694058120085,
            -0.09809444991495796,
            0.051217307988903366,
            0.031028775590701066,
            -0.08087866927163423,
            0.051869518068571194,
            -0.12065027285067878,
            0.015104680452684895,
            0.07061292028510868,
            -0.008341526991005798,
            0.12911672125411355,
            -0.13623787626419567,
            0.022486589010326352,
            -0.015763847646124332,
            -0.10409666443839281,
            0.06458817472445094,
            0.1534109772829646,
            -0.12659453895302547,
            0.015966944396919914,
            -0.02783643808666517,
            0.08168928341278195,
            -0.050957543405277826,
            -0.011867817391279723,
            -0.04292534968405424,
            -0.08784713529952563,
            -0.035126389847090336,
            0.08863536972645222,
            0.037125044303579144,
            0.123888287666428,
            0.08031562054644936,
            -0.11123266196034172
          ],
          [
            -0.11365998932132047,
            0.05688795481907973,
            0.04639922089949939,
            0.0022785056699612116,
            0.038138205875894574,
            0.1465932278355028,
            0.046278925681966905,
            -0.023559915076635404,
            -0.004418446440963475,
            -0.16371722498492192,
            0.016282809219010486,
            -0.17652299011968284,
            -0.07355995252285702,
            -0.1291475797312766,
            -0.005422412364742481,
            0.0025019138684284877,
            -0.13032498705968745,
            -0.11850072779900007,
            -0.011496360530599185,
            -0.03252106246857079,
            -0.08920745505716249,
            0.03573349719465922,
            -0.10155601048145704,
            0.004725988573496435,
            0.027154462336865314,
            -0.07411133587260278,
            0.04307218427547048,
            -0.018536261297017683,
            0.08193060257681269,
            -0.11630253467781178,
            -0.07345900104731046,
            0.22596330272204707,
            -0.04016189284634762,
            -0.12548983767628064,
            -0.11998857214326566,
            -0.05666420882973735,
            -0.022759480901204072,
            -0.04104487211603429,
            -0.020000259839833823,
            0.08567857731120344,
            0.07561895538462961,
            -0.020297546420493702,
            -0.0018572050470299544,
            -0.035186531955952824,
            -0.1335149245883835,
            0.04674304707385538,
            -0.013324606186872992,
            0.0878993325542677,
            0.001868074020097249,
            0.05970180131669174,
            -0.03848110088325642,
            0.057587537688423944,
            0.0050033437123596135,
            0.12043925502383564,
            0.015245171354737583,
            -0.039921112619672426,
            0.01832655375294309,
            0.04989852340816126,
            -0.05860462981138269,
            -0.044330913872454976,
            0.004767357475052922,
            -0.03412385766036633,
            0.09046076373111338,
            -0.08479116412343954,
            -0.03901251517137699,
            -0.05055538278250763,
            -0.06547060782293096,
            -0.008229055293932946,
            -0.006708690710075545,
            -0.08796354551077722,
            -0.08018342879402544,
            -0.012598398487932566,
            0.10077903960963032,
            0.0078205767580422,
            -0.06335790277742995,
            0.04569995107111919,
            -0.04752577002112747,
            -0.060348485048717794,
            0.059555672934172195,
            -0.01580972392189091,
            0.05026671508839422,
            -0.0838730470401927,
            -0.17526695789713392,
            0.0355792907511161,
            -0.02403479670718051,
            -0.07931397405915486,
            0.05510516486940004,
            0.016355862404891564,
            0.007282213974869302,
            -0.02272023856357285,
            -0.13609430359867708,
            -0.0807740709763262,
            -0.0341559110800412,
            0.021771239558832756,
            0.07516853003421325,
            0.022176491676225294,
            -0.04017357764908718,
            -0.1305032095916048,
            -0.06694533695223803,
            -0.0653446195967025,
            0.03256383924926392,
            0.11411433557744177,
            -0.16386025132062196,
            -0.07232692163063092,
            0.11876803392517812,
            0.05646512299848433,
            -0.13266501452170554,
            0.024674019185057478,
            0.015054436503332748,
            -0.0049777721003284175,
            -0.08596362088872801,
            0.1031611188815843,
            0.05704122578386032,
            -0.07855651685709056,
            -0.05445520732902621,
            0.18407327460978326,
            0.008293608892720518,
            -0.03219271653117451,
            -0.000577131934004365,
            -0.05626756523228282,
            -0.0738386801717627,
            0.021055595997119755,
            0.028884710696152695,
            0.006265828123696622,
            -0.01614797640987539,
            -0.03699344278677838,
            0.05125625755419433,
            0.14426923936977087
          ],
          [
            -0.0451840386836489,
            -0.11386786647486455,
            -0.019241403099521572,
            0.15948782400347047,
            -0.09397245219384118,
            0.007352464145880811,
            -0.04908310793426743,
            0.03758288656475015,
            0.07864962378666117,
            -0.09825659588793895,
            0.0920351165910848,
            -0.06652023092399048,
            -0.07993511530458962,
            -0.0611226753462321,
            0.0893592255224605,
            -0.11817211010399714,
            -0.001740611525159806,
            0.00248942678698024,
            -0.029549812985409367,
            -0.028534226263505377,
            0.10788541535555013,
            0.035440210169829504,
            -0.11047654582839883,
            0.0692705848429519,
            -0.12582437764036986,
            0.061817829283048985,
            0.02231455953156989,
            -0.012085483629150991,
            -0.11837325809767063,
            0.13620983003602294,
            -0.04633831770950289,
            0.06383346035910029,
            0.12008375218876667,
            0.00314451276931192,
            -0.06519908699901397,
            -0.07982764595857655,
            -0.15100813969489194,
            -0.042775260231694784,
            0.04808048968271908,
            -0.12206293998870582,
            0.08798112108298474,
            -0.09989451277179484,
            -0.022466710638616702,
            0.07170872426935829,
            -0.0545059507016744,
            -0.015693865513338782,
            0.05169508414886571,
            -0.07200419655749263,
            0.057350752635444584,
            -0.05998359120106061,
            0.04832463255926415,
            -0.10240660021598733,
            -0.12585445192150713,
            0.11713667840201615,
            0.020058990667741368,
            -0.03565468731046916,
            -0.05252844829027448,
            -0.15717889606674865,
            -0.06170537552753717,
            -0.04384734138305574,
            0.04621477000994253,
            -0.08437494519990087,
            -0.10956203075681203,
            0.0750688070623629,
            0.05781169740601981,
            0.01213009216603087,
            0.20434914168340168,
            -0.13413639793805357,
            0.09588686447144207,
            -0.0613727771620739,
            -0.14923521241055146,
            0.01232308593422231,
            -0.06245976644762208,
            -0.06439922634136244,
            -0.019543053342477967,
            -0.07559491409399217,
            0.0510140301498706,
            0.0031262471120834722,
            0.04624937083185589,
            -0.027299968546375796,
            0.003350337675310782,
            0.011145976759855849,
            -0.014900183480874619,
            -0.0028833596553551957,
            -0.04893233400990723,
            0.09796289496776624,
            0.06047614936967,
            0.027318103905356425,
            -0.016253728293800927,
            -0.09352878266693214,
            0.023924764631920593,
            -0.010362773923952837,
            -0.07848338341251865,
            0.004582219867100158,
            0.04318012259049659,
            -0.1040063037234315,
            -0.004322639654717063,
            0.025155807110784655,
            0.051394703191476175,
            -0.0008197890019786635,
            -0.04697243515703365,
            -0.12962093003167355,
            0.05258040531051102,
            -0.06890418909464585,
            -0.06582227961599887,
            0.08534197660817687,
            0.14265309211055663,
            -0.053085257062779855,
            0.04329473030671607,
            -0.038843419609814384,
            -0.029994508034537837,
            0.03255677918960081,
            0.09335997899413581,
            -0.11100242799584091,
            -0.10168626429952307,
            0.0359315506525797,
            -0.0019397545018306492,
            -0.0009775720816561138,
            -0.11942200198774781,
            0.09370338093270442,
            -0.07384803701883356,
            0.17265693286364986,
            -0.05867519880083239,
            0.009804722818975875,
            0.08632688612303993,
            0.05708605244658201,
            0.03501378966160461,
            -0.02202218501016434
          ],
          [
            -0.05752835800600436,
            -0.04613098787901641,
            0.07209054965893291,
            -0.07473676372800954,
            0.09186458301267109,
            -0.03247014807339551,
            0.09505086332745623,
            -0.05201583584171302,
            0.09607131191116706,
            -0.029983217099740687,
            -0.0027599564554265017,
            -0.11429706577177613,
            0.145886207268551,
            0.013611229720714156,
            0.1401365910968962,
            0.14464129326656,
            -0.02932346485209178,
            0.016606853655478704,
            -0.10942052305952735,
            0.06439954929086804,
            0.05557952750922606,
            0.045452423931629696,
            0.17919457907837574,
            -0.019671768534178097,
            -0.0717394219388902,
            -0.05461850549347128,
            0.01267493615095684,
            -0.03189998839158466,
            -0.028745097574187493,
            0.01809492671980208,
            0.11166210894014882,
            0.06433210582434655,
            0.0036434011699620315,
            -0.018781123517938484,
            0.001754594738533695,
            -0.019145234835410058,
            0.15113091014717686,
            -0.13516772538724123,
            0.04282315702803877,
            0.015003351874134901,
            0.04958961141276001,
            -0.12863528838280658,
            -0.03252213481508742,
            -0.055057721115293556,
            -0.08180184700719305,
            0.10056394552801061,
            -0.11422102778101031,
            0.08434150851228947,
            0.1605176769937788,
            0.01626138629419962,
            0.00014149031550529355,
            0.10389447448970023,
            -0.03744411724745954,
            0.006074735664436818,
            0.061225387889192885,
            0.05368786682094654,
            0.055669138315469914,
            0.12568039921432667,
            0.020455311588635512,
            -0.06691715868762182,
            -0.05099106419454925,
            0.0087360079552797,
            0.10903838431191276,
            -0.018426115492913165,
            0.09084932610964472,
            0.03281422995404152,
            -0.06321051456337089,
            -0.028180086018776234,
            0.07261804029862078,
            0.06983587976828527,
            0.08175400507136767,
            0.07675435097876748,
            0.035058353443409566,
            0.025748057342105158,
            -0.07213644894465475,
            -0.003414040747987433,
            -0.0813671006293452,
            0.034840490461242775,
            0.09107152704211102,
            0.011671753818007122,
            0.08561781602826896,
            -0.050864331013178644,
            0.02238467514845383,
            -0.0688903204227705,
            0.009752250671376419,
            -0.09826723390973935,
            0.06693918744505481,
            -0.053593656843276306,
            -0.07953814786098698,
            0.08476204105333005,
            -0.10103268190695518,
            -0.039104592991346165,
            -0.0618126464017111,
            -0.0066505036026508904,
            0.01806072271735731,
            -0.018572174216509942,
            0.05185055005741357,
            0.03415980063656602,
            -0.0027515945528055023,
            0.03066584204374443,
            -0.07547527166731349,
            -0.05920095345713525,
            0.02851345485184988,
            0.08183957511912378,
            -0.14354764478862536,
            0.006963989568011491,
            -0.018960023151192384,
            0.07514924701704884,
            -0.12150989447500125,
            -0.0322914363036436,
            -0.020784797252245732,
            -0.11696199250693677,
            -0.014352594751031688,
            0.01020046035937341,
            0.025221522688679356,
            -0.02981111557350755,
            -0.08849473074245023,
            -0.001596271694680496,
            0.06553933224803202,
            0.13724941871853458,
            -0.013906243249157997,
            -0.10282548442639576,
            -0.0432371955501432,
            -0.0008215074522777702,
            0.08108336512016626,
            0.00644189258143506,
            0.07391639104353849,
            0.048291746515599594
          ],
          [
            0.09025963496644511,
            0.03662935398991042,
            0.075565114465043,
            0.11649405920382233,
            -0.019133730671953293,
            -0.02356008425692238,
            0.12974094697377525,
            0.06882444692702994,
            -0.15456747699696852,
            -0.018226403092273327,
            -0.03997203390872743,
            0.1447352881853729,
            -0.016454402128373406,
            -0.05755860846578087,
            0.0611377445284744,
            0.19296832493728786,
            0.12181039886126087,
            0.058557239603597974,
            -0.06800321623977022,
            0.044313725254479845,
            -0.051061812362780575,
            0.10471365220977907,
            -0.04100330440233399,
            -0.002515132888345419,
            0.03820893357497319,
            -0.012031602379267939,
            -0.019230243629127747,
            0.036770632543781476,
            0.16959860807528723,
            -0.10185844905888203,
            -0.03735035408154446,
            -0.016851605671662405,
            -0.02147412465634241,
            -0.15376529418077503,
            0.1074673524607521,
            -0.0494555144758522,
            0.07029656480742813,
            -0.07977469347784735,
            -0.06595056346618046,
            0.049953187869195725,
            0.008226280994904665,
            -0.16603939247918975,
            -0.14621092988612083,
            0.015010294932195776,
            0.04641644984065128,
            0.11972718096364246,
            -0.09787668833344337,
            0.03958441983410798,
            -0.062426135915754646,
            -0.018916696956001015,
            -0.057353868457468725,
            -0.004221227279777983,
            0.10748986537266426,
            -0.001071605725353726,
            -0.028644867238628944,
            0.013240070606378456,
            -0.06006804519157934,
            -0.12425067139544967,
            0.17665423774688538,
            0.08579187846995474,
            -0.04673445086853029,
            -0.05166555920107462,
            0.07195208685489066,
            -0.018442282859734316,
            -0.013196345773818651,
            -0.06737273313141817,
            -0.05896650965951829,
            -0.013035332360015833,
            0.013638941499017081,
            -0.059863437197458035,
            -0.045870755250580916,
            -0.10113188664510728,
            0.02033904467288392,
            -0.04976016629368539,
            -0.07104727399292139,
            0.05602820596680112,
            -0.1420646464257955,
            -0.07838568480802045,
            -0.05811931883831202,
            -0.029323255523394716,
            0.014394053950689252,
            -0.1879950684023358,
            -0.07046653656432704,
            -0.09481711601365193,
            0.005483276733472607,
            0.03799371572257776,
            0.03027631572794785,
            -0.026054033981836984,
            -0.16857306886413062,
            0.08659397766511318,
            -0.037520103488761475,
            -0.06532562286190075,
            0.04080021411372294,
            -0.015531184068706776,
            -0.10462852482295164,
            -0.08182326525621755,
            0.09371927422249425,
            0.12214264055215683,
            0.05641695566367918,
            0.012853942721506008,
            -0.03052044024604659,
            0.11927845882292278,
            0.0028411422131251287,
            -0.01689950080513618,
            -0.03659126450789722,
            -0.08858733262785332,
            -0.09027728522043774,
            0.06201842294603847,
            -0.003748567002681352,
            0.09987714266956009,
            -0.006637356501192307,
            -0.23596791937628112,
            0.043340427475876867,
            -0.04816175713335508,
            0.020653002070018016,
            0.1357946165642205,
            -0.042281174914909785,
            0.08116525532188341,
            -0.08525024745987436,
