{
  "state_dim": 37,
  "hidden_sizes": [
    128,
    64
  ],
  "gamma": 0.99,
  "memory_key_dim": 32,
  "memory_value_dim": 64,
  "memory_size": 100,
  "policy": {
    "state_dim": 101,
    "action_dim": 8,
    "hidden_sizes": [
      128,
      64
    ],
    "actor": {
      "layer_sizes": [
        101,
        128,
        64,
        8
      ],
      "weights": [
        [
          [
            0.09417150736639583,
            0.0760978367256704,
            0.034249367811826456,
            0.12070296830942087,
            0.12964774658026385,
            -0.02560361597584814,
            0.11013205830665838,
            0.0689700060045227,
            -0.10983411831972316,
            -0.04402267223178968,
            0.08794949486705028,
            0.08971031419765813,
            0.004719775745348103,
            0.046315034965799,
            0.23346995973358553,
            -0.20236913384843463,
            0.1335787827921436,
            -0.04969248537828537,
            0.0165107670169372,
            0.011092326571753196,
            -0.08266288148103844,
            0.027324860833558697,
            -0.07397494933578092,
            -0.07382364472770553,
            -0.07787556258235834,
            0.04300434671088631,
            0.02934548108544577,
            0.10559168078606423,
            0.08202472407310381,
            0.03159950275447294,
            -0.22445366712277234,
            -0.05185489526690637,
            0.0429665765116028,
            -0.0849675122086044,
            -0.08614826573177047,
            -0.11561367220360032,
            -0.03259863896210168,
            0.11584782067112846,
            -0.21087264818708235,
            -0.08334834878608725,
            -0.011272426677771629,
            0.008051570961172797,
            -0.11349171193372154,
            0.03147081564730286,
            0.026930809016207775,
            -0.023920031064270944,
            -0.10886707256522339,
            0.09609408212685706,
            -0.07648484885126539,
            0.004270090223356472,
            0.017010017138644574,
            -0.03147149314557411,
            -0.0044580897601658315,
            -0.06613785053122809,
            0.027492776910002202,
            0.05462771576442231,
            -0.2293954792176509,
            0.04413650879969405,
            -0.09926038369249286,
            0.0847721011584079,
            0.12063569267836437,
            -0.0811802069092116,
            -0.14489212484768724,
            -0.1389754447917746,
            -0.019272834844700232,
            0.08065080050019371,
            -0.11467520447529496,
            0.03148247820075253,
            -0.2324500189186363,
            -0.10585568697065777,
            0.12643791461789214,
            0.002226558513556995,
            -0.0005309328679086601,
            0.09356042435670567,
            -0.058546028215982523,
            0.2266379541245359,
            0.06825093181604802,
            -0.06752088277719977,
            -0.04167871833372756,
            0.07798990400635777,
            0.0987147221533607,
            0.03472823847489814,
            -0.00407090641283877,
            0.12726855783341942,
            -0.09550379661546096,
            -0.01515935300106874,
            0.18412385822385507,
            -0.16230682347027303,
            0.05513807026662491,
            0.002225896890293981,
            0.08230390277687342,
            0.21177555360383316,
            -0.043449396900363736,
            -0.05424515894859051,
            -0.1471718047408305,
            0.12104948929607574,
            0.022566053210814212,
            0.10147894878533484,
            -0.031097869761869592,
            -0.002469415998191484,
            -0.014355871985712235,
            0.006511504152204055,
            0.0639421779098079,
            -0.12505112874543353,
            0.02445951165815224,
            -0.05051153319150658,
            -0.09281312142448016,
            0.017433818038274963,
            -0.11240106831994684,
            -0.17299659689769764,
            0.03107026846876929,
            0.09433118295450593,
            0.007783687867138557,
            0.08873807239666943,
            0.032520211739885105,
            -0.006190876806172403,
            -0.1466012975921512,
            0.04395029618194676,
            -0.1156834928718855,
            0.07537052061492225,
            0.019717219717348508,
            -0.04204694198130318,
            0.09882781779868337,
            0.12086417110141028,
            0.08673589012636798,
            0.09026473662330627,
            -0.09942284484529741,
            -0.042002357956038044
          ],
          [
            -0.007241122405335342,
            0.04126062770186624,
            -0.011279200168344277,
            0.16908494801327778,
            0.01577793750129134,
            -0.013170351192360055,
            -0.096861041288843,
            -0.005629878513513406,
            -0.07994921308893913,
            0.03623660974876181,
            0.12617029266518215,
            -0.027773957807165694,
            0.10465588078690419,
            -0.14738082481341552,
            0.06603363820373771,
            0.1587310409776398,
            -0.009814349266849444,
            0.03477366804222626,
            0.0821348800474796,
            -0.059166842497960045,
            0.009528175275888276,
            0.021915713310802845,
            -0.03773056943755315,
            0.038837825339809305,
            -0.17054012288844425,
            -0.10506982785297968,
            0.18852336951985807,
            -0.1858726286483629,
            0.12612243537015508,
            -0.091811480539058,
            -0.09675490457278627,
            0.12492913373915583,
            -0.04046255428613981,
            0.02659188329862946,
            -0.0025462149592775946,
            -0.02278004612491773,
            -0.05046207029516822,
            0.14160455857183663,
            0.23896362589569145,
            0.06826267196525586,
            0.1253517285256172,
            -0.08935478744734512,
            -0.022088378130643564,
            0.016989394946558007,
            0.07873485209252179,
            -0.03989580428920866,
            0.007416419746287897,
            -0.09957487045045137,
            -0.08588045636602994,
            -0.0561645316325003,
            -0.0991070015113946,
            0.012033063470529909,
            -0.04907243244857009,
            -0.13778466256143407,
            0.1660239098524654,
            -0.06858127652706582,
            0.2699912434044472,
            -0.014161370989560525,
            -0.07280689723161132,
            -0.012586040716533364,
            0.0810916244277383,
            0.003334745775832962,
            -0.030298772132803315,
            -0.0040525339594822095,
            -0.17531361515010196,
            -0.11321062129295295,
            -0.11063048923436783,
            -0.04946855161992095,
            0.060714285113817795,
            0.09360514729733689,
            -0.19622293976791025,
            0.10917553173481372,
            -0.07398784930219537,
            -0.0317502414231968,
            -0.0186304248581262,
            0.19193879558903879,
            -0.004384624106022061,
            -0.017887677486896455,
            -0.09192093232955295,
            0.10271814567613782,
            -0.15890514759492821,
            -0.2999474329282592,
            -0.13229830914252516,
            -0.08733056633968263,
            -0.21111363683438114,
            -0.05701562074131712,
            -0.07951025628105304,
            0.0892377774002863,
            -0.07901458169983273,
            0.020745588760238985,
            0.05794031434617628,
            0.029956755579232157,
            0.15377296301452656,
            -0.16680324070216904,
            0.12630464330017369,
            0.07904933295300784,
            0.055795432988418894,
            -0.013180853475096423,
            0.013325060418691683,
            0.05202674471591968,
            -0.11538212959221712,
            0.0742689435192341,
            -0.14002863308954194,
            -0.011234854917840315,
            -0.05736679180978557,
            0.06938742104999346,
            0.0350823229160914,
            -0.03346535095150222,
            -0.0351235057186382,
            -0.11673083476172331,
            -0.009209963443998588,
            -0.0043484402191634585,
            0.05553636780793594,
            -0.08901649182791542,
            -0.022992216053110047,
            -0.0014090371594705964,
            -0.1434688773864008,
            0.06279822617976599,
            0.05430465845332776,
            0.05887531432255805,
            0.24157739043534152,
            0.043316692421494225,
            0.09142217176031069,
            -0.045293011558374806,
            0.07518991987003959,
            -0.031514346018406934,
            -0.25173677930823113,
            -0.09896971419439973
          ],
          [
            0.12324115395054493,
            -0.008864257969916165,
            0.20930166437246597,
            -0.15831645110237194,
            0.1106324176834452,
            -0.05539111134705335,
            0.18540685168788482,
            -0.06529285378949067,
            0.17787214938167406,
            -0.09052218578004143,
            -0.0859793328651134,
            0.034431399315804495,
            0.003282197057076829,
            0.04331904295825794,
            -0.012116469575569779,
            -0.14004655347072442,
            0.06917474979453572,
            -0.002806024248734431,
            -0.10231055672627404,
            -0.04428109579651345,
            0.05044197935250811,
            0.19018940840351614,
            -0.0044644112053798535,
            -0.1702209495605548,
            0.02110786404493733,
            -0.015610560133910613,
            -0.002969760468101882,
            0.057722616177292345,
            -0.05790322508294016,
            -0.1893470208110595,
            -0.08938701098610612,
            0.21277423908687892,
            0.18689619950695466,
            -0.025055427122916092,
            -0.13900786851767544,
            -0.07850180641095005,
            -0.1724772106858201,
            -0.021854337862325605,
            0.014538405814382555,
            -0.12242601255043147,
            -0.14407882558998547,
            -0.031146284849318237,
            -0.03080244137199738,
            -0.04713321467942625,
            -0.08400086522572552,
            -0.06305353621501633,
            0.09777111372523178,
            0.026213218608478864,
            -0.21458052894073007,
            -0.08669156798742315,
            -0.0314020767981263,
            0.03931680753963394,
            0.01869806674826116,
            -0.1121352304970528,
            0.004114887747721008,
            -0.053627354804011665,
            -0.008799830870747255,
            -0.02936660227631495,
            -0.04389212037005515,
            0.14976221707065693,
            0.07707647462955843,
            0.029984699940568786,
            -0.04602149474090187,
            -0.20574820404623323,
            0.13720934995381454,
            -0.13068833433355262,
            0.052183960038122104,
            0.01576129219503695,
            0.14688548975641644,
            0.054615105487197495,
            0.008203578475966202,
            0.03805349207214499,
            -0.0031541994343585234,
            -0.15619057079151263,
            0.08258458711346865,
            -0.1447680805001814,
            0.006679141151151377,
            0.12634468006121935,
            0.039869739510218494,
            0.22546097238065488,
            -0.01275755785444218,
            0.14181424688260286,
            -0.13289913078465382,
            -0.04838363609753729,
            0.016970024359232574,
            0.021023112049615295,
            -0.022962423581965638,
            -0.1253737997776499,
            0.013009358306701453,
            0.08468201385239912,
            0.01406590286238908,
            0.12608364099196775,
            -0.09917870236919425,
            -0.06323243579631052,
            -0.03256501757860883,
            0.04448662887229899,
            0.1493852227184181,
            -0.18610860479036198,
            -0.09156352552200533,
            -0.1429235021271058,
            -0.1596993313571932,
            0.08847281360267319,
            0.011627470142548791,
            -0.07534544707047788,
            0.061668406167986654,
            0.08341736229913786,
            -0.0036572562961661413,
            -0.028859690845834653,
            0.11348037652613213,
            -0.1220858100038103,
            0.03654196430925465,
            0.04030594929994871,
            -0.025905375270199853,
            -0.015451240629953702,
            -0.10111799884892736,
            0.018227984031588564,
            0.08894596585730848,
            -0.054222410176557455,
            0.042818178334154966,
            0.0332743661841051,
            -0.04866323601442876,
            -0.13249182720459027,
            0.02519223684033474,
            -0.03177203916983543,
            -0.02512593015884008,
            0.04317487677043469,
            -0.01109658250579129,
            0.013400682083788069
          ],
          [
            -0.03225234455597907,
            0.06989722565464873,
            0.03127285038279001,
            0.11709918577276512,
            -0.056061780684619256,
            -0.12119552543672123,
            -0.025593312871383844,
            -0.054360419573475934,
            -0.012487315965861234,
            0.003740717911494157,
            0.01153279078571374,
            -0.1464852393576414,
            -0.10772982879082997,
            0.10710110351860364,
            -0.06182292251692399,
            0.0736738771983219,
            -0.008195814947880034,
            0.03856384989827398,
            -0.023453811389642202,
            -0.01907044132509856,
            0.14574658627931417,
            -0.042068988465347464,
            0.030770585826935672,
            -0.02295628643867443,
            0.04134149116847128,
            0.048381421389804065,
            -0.07968286838133663,
            -0.223949758901759,
            0.021161488711688475,
            0.09585556602535875,
            0.22037400714075378,
            0.011058334066960156,
            -0.1280544954653264,
            0.1554119547996769,
            0.20853844334375227,
            0.023044356878464102,
            0.05065921200120644,
            0.017631109059900868,
            -0.029352621614317752,
            -0.03943958518683508,
            0.14893923756747654,
            0.029968107953889725,
            0.07832302670199767,
            0.06115647103618694,
            0.08686844451147126,
            -0.025487560578228846,
            -0.008053110908121018,
            -0.03912862006236363,
            0.09823856275244303,
            0.12900224607191185,
            -0.05228294879939901,
            0.08861527666609333,
            -0.06723732469066167,
            0.10681899300477285,
            0.12639459779644455,
            0.005495368834250142,
            -0.11380008333773937,
            -0.13102701176559106,
            0.026673156735509653,
            0.025434559802154,
            0.015835657549030897,
            0.004765457801765651,
            -0.02733334045946148,
            -0.07616986696935182,
            0.031188377575296508,
            0.11181071486332544,
            -0.16447692774270117,
            -0.07523745096838302,
            0.08518742441160163,
            0.22562111516259553,
            -0.09644590180328982,
            -0.09714302495813594,
            -0.03609142785465863,
            -0.08643669318722523,
            0.055930607275154524,
            -0.22429804784743276,
            -0.07759742423014188,
            -0.010894201481513254,
            -0.06198328222624419,
            -0.14625391701852627,
            0.021605999021581,
            0.077582692928218,
            0.047504371349249265,
            0.007618184671809713,
            0.020978571177722918,
            0.23186907129487141,
            0.058311433259261705,
            -0.20478075608251603,
            -0.015117746361159659,
            0.09324421289285727,
            0.02937930623176333,
            -0.02787179510578724,
            0.0831552956962689,
            -0.06400513150084387,
            0.03464141922836412,
            -0.0010719761004857966,
            -0.04380523552070026,
            0.09588429686458369,
            0.061360032350332466,
            -0.05700917774887438,
            0.1974833376274154,
            0.22940727360241947,
            -0.04433547920779553,
            -0.05398576560297201,
            -0.006628480641059373,
            0.22205412571584454,
            0.036522262024021444,
            0.10120118905311623,
            -0.10952644704640725,
            -0.1409081618439503,
            0.1004785267427368,
            0.03726298691582434,
            0.11127041160322847,
            -0.14757351362115462,
            -0.017895092010891466,
            -0.12117195791942344,
            0.06027385767152435,
            -0.11766204928967278,
            0.1382634366258748,
            -0.022418109505641846,
            0.1435302858470123,
            -0.08075187960391265,
            0.0035755323910985413,
            -0.09726543411220358,
            0.05314831917792886,
            0.07290749031233806,
            -0.13603210672041596,
            -0.07221134358711191
          ],
          [
            0.19437921938705122,
            -0.018981140688226456,
            0.06445745534433303,
            0.10773862078986411,
            -0.11633538395855164,
            0.0004668276113611949,
            0.08583129202138924,
            0.06237133103731666,
            -0.05859357114303923,
            -0.08106636042354558,
            -0.03277871458100138,
            -0.16083146541723517,
            -0.06997333491676641,
            -0.05916864140134439,
            -0.3452880171606886,
            0.11892507532622615,
            -0.17448511733834354,
            -0.12149910779687487,
            0.07286936081259124,
            0.12824877545476948,
            0.03746248779412195,
            -0.11044302921674971,
            0.015139210898308568,
            -0.035809572994637405,
            0.06967888543269413,
            -0.0012964155038903394,
            -0.011158686938435936,
            0.15329752948909825,
            -0.07971621782773154,
            -0.05670810836500296,
            -0.061497706792887324,
            0.04084608819382135,
            -0.12641817060826835,
            -0.1041146567917383,
            -0.028853010080264842,
            -0.06781904211243645,
            -0.009480539611458087,
            0.10300186936121151,
            0.24183204518107132,
            -0.1152843884800701,
            0.2055330357916295,
            -0.00547553506117942,
            0.10588459079176879,
            -0.15050791047989073,
            0.04757931884522921,
            0.08962666925882962,
            0.10401828064533017,
            -0.09902798525369554,
            0.022201874800868125,
            0.13434516041396177,
            -0.1311960487227701,
            0.006942582226484339,
            0.026091117780956987,
            -0.06765213434222309,
            0.0006971701977151907,
            -0.11431037539015731,
            0.11591681208185217,
            -0.036545924660855475,
            0.06429235012251716,
            0.026778657397228883,
            -0.07364101399560244,
            -0.04007629787516588,
            0.08720436270109193,
            0.12219393593262809,
            -0.0739212860234297,
            -0.0840267483492398,
            -0.09165775222670527,
            0.12322792882524958,
            -0.23203365488787106,
            0.026340305757310004,
            0.09914333696435909,
            -0.12004030219882354,
            -0.08865734800745807,
            -0.04799582634791217,
            -0.09642623524346174,
            0.05325580201817769,
            0.07666976828853572,
            -0.041884728466245684,
            0.03493402469787075,
            0.02095335409918707,
            -0.0742168426952267,
            0.0071738607732667724,
            -0.021716927057403267,
            -0.06715210031565826,
            0.15319122158578868,
            0.11827202134308175,
            0.009744452384347922,
            0.0014303053544008817,
            -0.13282376461047593,
            0.1010028782792877,
            0.08015343528502421,
            -0.03774289308474609,
            0.03821781039898067,
            -0.03168605099243083,
            0.1417819579562135,
            -0.05210764982492109,
            -0.03225102830045369,
            0.033975846383729774,
            -0.3611196314470386,
            -0.07592696957839254,
            -0.20457978648127054,
            0.033267542960230774,
            -0.17137862882892088,
            -0.07829039427044925,
            -0.08380454219115878,
            -0.02385435399016166,
            -0.07344477007007494,
            0.0024060432988554123,
            0.08483497589043229,
            0.12125810121697699,
            0.11846586238510991,
            0.04741678301490846,
            -0.06562290534627202,
            0.004306839545397822,
            -0.04961994312633316,
            0.12655384235517744,
            -0.0762580026677241,
            0.026421396354585465,
            0.08923938428671296,
            -0.01509568239588419,
            0.002353107626496273,
            -0.0028481899057309244,
            0.09982004233524011,
            -0.01785093199933196,
            0.008492269911168478,
            -0.01150698637432207,
            -0.13609235941167852,
            -0.14396147600993486
          ],
          [
            -0.04823574796786276,
            0.16921289175010043,
            0.08893866218265586,
            -0.053387760564442284,
            0.0215138612181286,
            0.00984343206113058,
            0.14826465289985144,
            -0.02176256061486628,
            -0.024427512209028043,
            -0.10888574850755146,
            -0.020443793871951603,
            -0.1677431414401144,
            0.21378352262507,
            0.09211470810808674,
            -0.08925942701497772,
            0.17606843524060237,
            -0.0802891832817713,
            -0.06526654420683606,
            -0.10520066219175642,
            0.07839002484716803,
            -0.21021175802332517,
            0.041057875280610084,
            -0.02064488613105297,
            0.017052468637583515,
            0.13865384677875858,
            0.015916264752820014,
            -0.058593232100397644,
            -0.054877062086377965,
            0.1270498310898239,
            -0.0895186693081724,
            0.16149942691714225,
            -0.06970896367013289,
            0.06560580744785353,
            -0.019363701850742286,
            0.050397791718821146,
            -0.06495968059300133,
            -0.001398987210797844,
            -0.12300136867089968,
            0.01326337640418227,
            0.1739215372497103,
            0.1448250931335076,
            -0.046452498438324746,
            -0.00824783849987555,
            0.11104772925572268,
            -0.22399298797566086,
            0.047677237379959714,
            -0.0002632916145705735,
            -0.03925101557873178,
            0.0499493198790646,
            0.08222573373116457,
            0.02258593724774872,
            0.13158192497703858,
            -0.18884233256371552,
            -0.10334372459617176,
            0.022703788633244227,
            0.18438727157953277,
            -0.014220309937507598,
            -0.027404605630815072,
            0.06895581111537663,
            0.011173387407609515,
            0.14243544138382297,
            -0.07582574815344746,
            -0.04489949784449387,
            -0.15167318237241093,
            0.051088024786163186,
            0.006236796908690894,
            -0.12435912599596725,
            -0.036845887144498116,
            -0.0007586386453760327,
            0.015595300495961128,
            -0.08311402850606682,
            0.08305967344106874,
            -0.22209226378679506,
            0.05933151774986485,
            0.10052964304278013,
            -0.015045883437844349,
            0.005427026394042026,
            -0.06086679134211531,
            -0.044448219374638054,
            0.04753379683496419,
            0.04272744241455468,
            0.006511061670495513,
            -0.07703530484371073,
            0.1028295289112275,
            -0.006746375453949676,
            0.03189317147482436,
            -0.03372476736807016,
            -0.04887869776227186,
            0.01561257014212195,
            0.013324134064994175,
            -0.06858350533377558,
            -0.06574690019973803,
            0.01711458062123605,
            0.14941879159177626,
            0.010500619140007685,
            0.041735761122580047,
            0.028623249197586177,
            0.0615963791315175,
            0.04382028501740088,
            -0.0044712085182020455,
            0.05673851287595313,
            0.010171460582814687,
            -0.06858171648544198,
            -0.0021921663279704418,
            -0.08148892530734499,
            -0.04775659892977498,
            -0.0574283381175213,
            -0.10142034070535977,
            0.09254156195599667,
            0.06680305791959242,
            -0.028033649111911318,
            0.011174221628405223,
            0.08933675832813316,
            -0.02942508367288899,
            0.008788006762230365,
            -0.1850155516720106,
            0.08297584679636483,
            0.10696298467925769,
            0.017967119664568387,
            -0.0740104147737292,
            -0.10571052657796616,
            -0.13608150581288367,
            0.08589590572734566,
            0.026470346603046473,
            -0.015766479550576803,
            -0.0650447718415435,
            0.06233902790073216,
            0.06723260418721634
          ],
          [
            0.1327801700658331,
            0.17393569445090784,
            -0.05896830834162976,
            0.08705177901917667,
            -0.055732578231025225,
            -0.030579790179875128,
            0.027764523574045977,
            0.0419376046655744,
            0.07175483329752246,
            0.043281460201398524,
            0.049073981870705635,
            0.16631073804772414,
            -0.026205192878729192,
            -0.14348687678784325,
            -0.07586061476458979,
            -0.09394145927972207,
            0.16258416438070808,
            0.0640005365992783,
            -0.07140142567968062,
            -0.018456615510199708,
            -0.09982620286940218,
            -0.09066176563274722,
            0.04432007044117654,
            0.01917212743681219,
            -0.01359328361933882,
            0.11749994423264734,
            0.11246412536260264,
            0.18870943787392713,
            0.14754975994765876,
            0.1468796457890813,
            0.24218351528766732,
            -0.016531154369859618,
            0.1305121605715527,
            0.06197471991556279,
            0.20855848723991308,
            -0.015611435215135139,
            0.04236994777738565,
            0.03934339762570845,
            -0.07634488942194823,
            0.006661265331694241,
            0.02091198976722793,
            -0.02650455645399882,
            0.07443879980198674,
            0.006377501619364955,
            -0.014434810102935436,
            0.005831569098360786,
            -0.08942914033834197,
            0.09048171022162366,
            -0.08199350795694607,
            0.09420293802391395,
            0.09313952314483895,
            -0.21522512821594345,
            0.16973791497448426,
            0.05973988831368671,
            0.0727156774367455,
            0.09208440320839213,
            -0.024925715695437507,
            -0.14894415231167496,
            0.04341141610061251,
            -0.0397834612907164,
            -0.004365038294045753,
            0.09259546878613947,
            0.06579835797939895,
            0.19506312636609457,
            -0.03759622491047376,
            0.015333379637305394,
            -0.1707621393680818,
            0.05693585704243513,
            -0.05350380889300494,
            -0.05119585784997916,
            0.04204211479980417,
            0.109639692789649,
            0.022022688233297654,
            -0.10662931665792931,
            -0.015724890930302757,
            -0.008507697829156766,
            0.017877371442301584,
            0.052138412242961785,
            -0.028797946648211968,
            -0.15476269815437274,
            0.05462787827355789,
            -0.02036620364144333,
            -0.1074532674057665,
            0.0658040499131695,
            -0.05317358946187739,
            0.17374630934066512,
            -0.01790197385694384,
            -0.00019591852684637003,
            0.1654254650489131,
            0.017876349918954603,
            -0.016002312457062438,
            0.0572642195035333,
            0.08384050568689624,
            0.16134108464601324,
            -0.048024154513869204,
            0.2055978388983035,
            -0.11371587916959855,
            -0.18186047865862254,
            0.12620294199563634,
            -0.008488649529317403,
            0.08876196398152975,
            0.03549716198523564,
            0.07233300084175033,
            0.008229048240374145,
            -0.0014956874857710847,
            0.0027809524693467023,
            0.09703828154088279,
            -0.17321193705078483,
            0.048404240633259175,
            -0.04967625041526277,
            0.0794764798156677,
            0.01755932178815622,
            0.04998891737782819,
            0.05104189721381707,
            0.10120099978184202,
            0.038737403904176466,
            0.008888956999969166,
            -0.083534490209314,
            0.003827253217356849,
            -0.11365026473896449,
            -0.11960479878399288,
            -0.0806936333421851,
            -0.09585437436251214,
            -0.0045777183375650616,
            0.08455666671145862,
            0.16543334927845024,
            -0.0430674993532154,
            -0.0554967664172811
          ],
          [
            0.27284715509959423,
            -0.003464081548244729,
            0.0289228807618259,
            0.05688821541450762,
            0.05127621306911968,
            0.07280025823651887,
            0.09548260295709164,
            0.12382963047824554,
            -0.04278186891578551,
            -0.007272412421732047,
            0.05951111032859144,
            0.07786886271369184,
            -0.02400378715103934,
            -0.141228930487959,
            0.17659618826036697,
            0.1071850857839395,
            -0.10540199275993045,
            0.029547205730355176,
            0.012377831718483064,
            -0.012970026172473463,
            0.1590784942757335,
            0.15288529651065688,
            -0.03987645640061327,
            -0.008364449863795434,
            -0.008072527985041,
            -0.022730554108660476,
            -0.04426860521548148,
            -0.04950946735062528,
            0.24023587413305594,
            0.13145974063381188,
            -0.004256486903943434,
            0.002396379174507522,
            0.07412891932264866,
            -0.14119105740297605,
            -0.10388906160050501,
            -0.08709759050880335,
            0.062290607712346714,
            0.08067366269091325,
            0.09372477615337138,
            -0.10690054711402329,
            -0.029123377262571897,
            0.06968396999004073,
            -0.05184398744093501,
            0.04596186329816863,
            0.18731309692548043,
            0.05114770253479539,
            0.09513683305837443,
            -0.027808436296930764,
            -0.022642842144497015,
            0.09997620664213827,
            0.08053848311419201,
            0.02247086795472938,
            0.08752275861744926,
            -0.2773256520166869,
            -0.015094218187447014,
            0.15028676947182845,
            0.056929580494001424,
            0.07424855832655734,
            0.054150543575808806,
            0.134866626599299,
            0.0981871466647342,
            0.04326432380257287,
            0.02281253723096122,
            -0.051195009189648547,
            0.08144014901490165,
            -0.16715295646692716,
            -0.032394872574220544,
            0.002722364762986691,
            0.013811885074035885,
            0.02056081377616229,
            0.017872330888277742,
            0.10003978310676465,
            0.01290112784100398,
            0.03678138177270473,
            0.06675246274850649,
            -0.09659577163357969,
            -0.05046808965715545,
            -0.04461500308688128,
            -0.04360460498939556,
            0.05158836639985318,
            -0.14609306015098533,
            -0.11740354396587259,
            0.09123641852843037,
            -0.06159167718583959,
            -0.05372405133933242,
            0.10455711556278449,
            -0.07588697478351518,
            -0.0710725336979673,
            0.014910466125429383,
            -0.12624538383186565,
            0.10174387026244777,
            0.04909081433564104,
            0.005384875042011653,
            0.11738749415245962,
            0.013581468942197805,
            0.037901153411448854,
            -0.016487576583057214,
            0.08673572883657729,
            0.12156848493437551,
            0.028344985260434497,
            -0.02839027584947015,
            -0.013539332748154739,
            0.09330811367390576,
            -0.0864755483565831,
            -0.05791937452447615,
            -0.17858569537532343,
            0.09268223833666604,
            -0.013082238550090436,
            0.10228412930217828,
            0.040264864752138474,
            -0.08065657014897853,
            0.043988203202241304,
            0.05705132163214782,
            -0.05786946607454221,
            -0.015390863145945649,
            0.12078232917853289,
            -0.03744832244457677,
            -0.011199742547916287,
            -0.012471659256013082,
            -0.015935517946128033,
            0.14877285771468104,
            -0.0694199703332284,
            0.023672309514874427,
            0.03881201622388119,
            -0.07538083164040375,
            -0.04173617789126213,
            -0.010502157138785375,
            -0.009390292248691515
          ],
          [
            0.16477302875733965,
            0.01733637162228088,
            0.13007929941189617,
            -0.0045630840869978805,
            0.07744174044455009,
            0.08554231447810805,
            0.05335810308793586,
            0.12338822753492983,
            0.007688432334407577,
            -0.04253579012632878,
            0.11089815818974473,
            -0.11053091649278343,
            0.030086864866126373,
            0.07486025618835414,
            -0.024268506650033224,
            -0.06599642187091631,
            0.09687645487222571,
            0.040226440379839364,
            -0.035450309372246344,
            0.04542778942687726,
            -0.11758908418297273,
            0.015908921240113193,
            -0.054697036514924476,
            -0.06811432556344496,
            0.12146822669358368,
            0.02998682511270366,
            -0.017544374484068183,
            0.13068308592807532,
            -0.08574670236778623,
            -0.030494986552667504,
            0.14658933637501462,
            0.04240662605490679,
            -0.051679308021038095,
            -0.07431405835150706,
            0.09189794491519179,
            -0.03010071114348809,
            0.14971061272056294,
            -0.04965584817875429,
            -0.0183907551106105,
            -0.02311786849892908,
            0.023945581832948294,
            0.11321971424552871,
            -0.1247693567302711,
            0.08528248734050446,
            -0.03292932344905611,
            -0.14538042457269437,
            0.026727575696237692,
            0.00407394317280606,
            -0.059914527684313795,
            -0.21120253291327473,
            0.04543130744119694,
            -0.06063378596198891,
            0.058150530036615716,
            0.05078322994633355,
            0.13602127028630914,
            -0.063202714469081,
            0.0767366010074185,
            0.13171963251228447,
            0.09495374374855717,
            -0.0845200315770467,
            0.037370983204778496,
            0.04330976028499248,
            0.011308089691599492,
            -0.056527437865543324,
            -0.03224417014395889,
            -0.014661415489074712,
            -0.01898999661258324,
            0.09537386665556785,
            0.2370618307756458,
            0.08684574450137776,
            0.005298527878458556,
            -0.07381746938642818,
            -0.03057188948012832,
            0.05430752963883924,
            0.06614728320490099,
            0.03486446193099663,
            -0.10642290686330313,
            0.1485657200885418,
            0.025954421449398017,
            -0.01175241364404614,
            -0.18966508585128633,
            -0.0284344411089765,
            0.12706507246388715,
            0.04999464509396373,
            0.1959340460044488,
            -0.10151561483721917,
            0.03128668430093728,
            0.14021326927483205,
            0.1599401825109265,
            0.06886405349897505,
            0.009576920760303137,
            -0.09298229971647988,
            0.11506986597183431,
            0.013041988550457073,
            0.06359996840904322,
            0.013530909992479705,
            -0.10253885336704312,
            -0.042784731824949,
            0.03315907000585136,
            0.08591870301339156,
            -0.058496260910900336,
            -0.10940747128111114,
            -0.0749459872156924,
            0.12888202153951245,
            0.01213521239091074,
            0.02829392147241845,
            0.017896308066760985,
            -0.013556752882016207,
            0.007040815417095965,
            0.08073458021963925,
            -0.04679483238488622,
            -0.15217353738733683,
            0.08497242903041956,
            0.03470786154959101,
            0.0624404704032061,
            -0.0031231356754693198,
            -0.04617608782073447,
            -0.09340402121006686,
            -0.02833524006893634,
            0.1089718219044785,
            0.07610940479373626,
            0.0296964964413328,
            -0.1466843616325094,
            -0.21911909525666468,
            0.019412616887196067,
            -0.11127109304255811,
            -0.04907085232609679,
            0.17391748163909232
          ],
          [
            -0.026417668060427193,
            -0.18544438995786622,
            -0.05898420271997258,
            -0.012511353066360401,
            -0.02686169313600071,
            -0.05776974879541865,
            -0.01919470111231411,
            0.021575109760930078,
            -0.06993399515448244,
            0.0028445647029305796,
            0.03947519477577792,
            0.0016716498912742,
            0.009524101626576725,
            0.11628324090092568,
            -0.1001955203447671,
            -0.1182814705702762,
            -0.0337443456153772,
            0.1385994511965259,
            -0.08718351273745195,
            0.11890573801601789,
            0.05983256334037268,
            0.047632861420291946,
            -0.09328308195523162,
            0.028938441893155184,
            -0.08399051473451641,
            0.012622226361624736,
            -0.0752679893148148,
            -0.05009557283201106,
            0.02821672929716227,
            0.09452174985337877,
            -0.0882308073069962,
            -0.013604200396293087,
            -0.08663318620299526,
            0.058862680233752275,
            -0.061157767758529595,
            0.040374555985239244,
            -0.10264597924196839,
            -0.10485637478578821,
            0.05255177912164979,
            -0.08853662888682672,
            -0.08458305449103153,
            -0.15235303965097882,
            0.04924890687547454,
            0.03421995976687095,
            0.05711622162284923,
            0.06408897358823204,
            -0.06725102949307107,
            -0.0325395673862932,
            0.08973657357259845,
            -0.042050758122514534,
            0.07826901814444205,
            -0.006223977610814982,
            0.21422792527271328,
            0.02136775221714473,
            -0.05081044378718398,
            0.004677584062672924,
            0.005584892979537319,
            -0.03598905676798611,
            0.007121370895302047,
            -0.11576441741391785,
            0.1221808680636723,
            0.031199740990114928,
            0.06728871016418514,
            -0.02867191433119212,
            -0.1334895047557756,
            0.015345660779791999,
            0.059105880598877295,
            -0.07109056449002045,
            -0.05251423117369127,
            0.09001770570076445,
            0.08481194381883451,
            0.024695862962969682,
            0.034606662580349015,
            -0.09133025518809584,
            0.048884801616365575,
            0.10002133386043918,
            0.0901363411806051,
            -0.04787029943174109,
            0.11346329609145471,
            0.05132129007425696,
            -0.031247337410217735,
            0.028174340180745504,
            -0.14653832467345554,
            -0.06556812353204129,
            0.007984477151306117,
            0.10331180821329011,
            -0.016979230648341267,
            0.14871898833794164,
            -0.015331582725461836,
            -0.006112966689439839,
            -0.1379571061297388,
            0.05938155581803341,
            -0.01958746741399864,
            -0.02815556928894765,
            0.08605753460559451,
            -0.05612682906606691,
            -0.0255501790965065,
            -0.019117526308113586,
            -0.07828328872700316,
            0.14994683134947154,
            -0.11787752472231768,
            0.06501180674597036,
            -0.09616919335891821,
            -0.03911719554181483,
            -0.029953393868839513,
            -0.031154490866974013,
            0.059338565022673505,
            0.10940731084288166,
            -0.030011313542293458,
            -0.0613984809479288,
            0.0011008279441764898,
            0.0002291321938436345,
            0.1256968180976998,
            0.051567847813021477,
            -0.03818642832567305,
            0.024134638139147815,
            0.0788048469202086,
            0.07065388956692831,
            0.11290679344581969,
            -0.08920780368548402,
            -0.04330507600906204,
            -0.05641061634832196,
            0.012442510824872193,
            0.03304920055237579,
            -0.09287540156054745,
            0.18405734234971882,
            0.05110877911044255,
            0.025572787528843448
          ],
          [
            0.001980914733130986,
            0.002627374659165395,
            0.010873360508541265,
            -0.18951758114480322,
            0.09987763106016893,
            -0.021674321859068018,
            0.01037389298961382,
            0.14980542115904213,
            -0.05271850252793353,
            -0.12410680316637038,
            0.1055862584314953,
            0.2239094130004941,
            -0.019419448973180597,
            0.05377113009409556,
            0.02949241836647078,
            0.14441788387614413,
            -0.05448165723273569,
            -0.07445426935273936,
            0.020845998422261206,
            -0.010490960605081995,
            -0.1685251035802473,
            0.05183012183668005,
            0.11996825454420598,
            0.07410541089929691,
            0.02105758893429946,
            -0.008058299101342878,
            -0.017404540992092852,
            -0.006757377061783022,
            -0.09723994924433188,
            -0.08709163088617063,
            -0.021317292536170273,
            0.04484990100123114,
            0.012403022931103153,
            0.05809138233903597,
            0.06472515315191318,
            0.017362464002302107,
            0.06733904666922498,
            -0.13553421807489682,
            -0.02489522020481454,
            0.10855020340232015,
            0.04277714743808155,
            0.02353314861826542,
            -0.0622471557050225,
            0.03794002093966009,
            -0.0944998024151092,
            -0.009784846695571659,
            -0.048977648393503666,
            -0.075895059155513,
            0.1258342261946104,
            0.13417135966930133,
            0.03722002647284028,
            -0.11360764457161504,
            -0.01025062582026696,
            -0.16157302403378748,
            -0.13135290570116903,
            -0.05137945243526947,
            0.24878926204547924,
            0.0295327217446946,
            -0.005979309305248494,
            0.0015165117294864993,
            -0.15394530250052613,
            -0.016961726317285517,
            0.16419258175423287,
            -0.055705199932204186,
            -0.007501707945881189,
            -0.1740863158055277,
            0.124741310731206,
            -0.06896086138805714,
            -0.0166409016697325,
            -0.02201788415078508,
            0.11603952168438054,
            0.01893063445427413,
            0.04621702050433398,
            0.05129308158033916,
            -0.056506597068148395,
            -0.010091921438730092,
            -0.04354693182668999,
            0.005681008168767942,
            0.010561089926656178,
            -0.04681949997161548,
            0.10276189741547993,
            0.0566879242348162,
            -0.001944420764820999,
            0.06800699061232274,
            0.057825150468967024,
            -0.13138587075291977,
            -0.014643733749343163,
            -0.014933301104344283,
            -0.06997707564153847,
            -0.07831559592979903,
            0.00761624921831007,
            0.006902969145436283,
            -0.0180263195891483,
            0.07705170954364296,
            -0.006175545302313085,
            0.012078534416080896,
            0.003700134772909539,
            -0.0794499547866717,
            0.023709017535824155,
            0.05938361358480565,
            -0.03175852688081085,
            -0.04684762145200532,
            -0.20286604812195536,
            0.03417480026172291,
            -0.01548909588739833,
            -0.032858785739022664,
            -0.037657179191256,
            -0.15199335125387523,
            0.03926108030712274,
            0.047484249987408786,
            0.035543100051646556,
            0.04999567050822929,
            0.14035902605069037,
            0.11085198873768852,
            0.09846216181474225,
            -0.024528468772555632,
            -0.008067543802973776,
            0.15010755509765084,
            -0.1344082517990919,
            0.08563033981941877,
            -0.10936386664117327,
            0.28520759412802626,
            0.003966873321021867,
            0.08725479656552765,
            0.007274735552435657,
            -0.048253003510753574,
            0.05675592601721454,
            -0.12001646942959983
          ],
          [
            -0.06903828109936459,
            -0.045203273758193156,
            0.011416995188408071,
            -0.01304209722204486,
            0.09967357264188087,
            -0.04094784624815085,
            -0.14850524444028895,
            -0.009111424411558435,
            0.049537455965347435,
            -0.1566575114973194,
            -0.06507156616239897,
            0.05970803339162071,
            0.08759740441988688,
            0.0462277228608871,
            -0.01741806441479295,
            0.006005670870060984,
            -0.044344790009445335,
            -0.05979080264765355,
            0.005122880906106887,
            -0.023396567905982737,
            0.09746192915066557,
            -0.07736125881106586,
            -0.10328934716836363,
            -0.0988074480307054,
            -0.014750193421256278,
            -0.06042167047247886,
            -0.10506752823054125,
            0.07976667082271853,
            0.06624387407227172,
            0.1043759253136855,
            0.020416697215475333,
            0.007477321082541004,
            -0.014336078478591087,
            -0.0543001129437904,
            -0.08880518708395614,
            0.10704685113195286,
            -0.08454935049026377,
            0.081709303931972,
            0.013316652185438245,
            -0.0025359516036569376,
            0.10064877800522139,
            0.029946784279522347,
            -0.011131790872936507,
            0.02793377565261515,
            -0.12252387742242028,
            -0.030049398182551142,
            0.01014487086306293,
            0.18554425927702603,
            0.11403553349164497,
            -0.02455554071981068,
            -0.04117375476723131,
            -0.02912354269826565,
            0.018146998413968232,
            0.10705551626449031,
            0.10522214892024513,
            -0.15252692020298836,
            -0.03196264699439986,
            0.1087668993833808,
            -0.03607520039168677,
            -0.006000705438606674,
            -0.04856253321375411,
            -0.0900885007715399,
            0.04773358259185052,
            -0.02467864343018025,
            -0.017078710798736046,
            0.13633457089470402,
            -0.18853340870586846,
            -0.0613361530651131,
            -0.12088359850615968,
            -0.03433609893461296,
            -0.03261116257623214,
            0.09944412368602142,
            0.019719859814241382,
            0.10540787593628352,
            -0.08090276619994793,
            -0.046959877142014286,
            0.04606859953035937,
            0.05699642952381114,
            0.14144352236667737,
            -0.05916554688180928,
            -0.0644272562903257,
            -0.08024348562428661,
            -0.04180022086597223,
            0.028422931360821534,
            0.016311196354881867,
            -0.06539690812079836,
            0.012547864245348284,
            -0.06886577086934635,
            -0.018960931380765232,
            0.002787852759036265,
            -0.04639993225744612,
            0.024643054467898443,
            -0.0798859725404365,
            0.18631027745466291,
            0.03513790102434257,
            -0.012913350725346934,
            -0.19603691386574199,
            0.11370673443864492,
            -0.029984208534289403,
            0.03201691941797316,
            -0.01523865354586103,
            -0.1802170087990833,
            0.02458101759747729,
            0.0051137678941890604,
            -0.15687600458509757,
            -0.13684597313533772,
            -0.09282792462433226,
            0.053188044890125824,
            0.09812036455430402,
            0.01509545263871582,
            -0.1551205610748785,
            -0.028218121262344936,
            -0.32607356200061766,
            -0.05681920830717345,
            -0.01614879055392597,
            -0.051600705978828855,
            -0.025499554647280074,
            0.033971209469444257,
            0.05816607203821854,
            -0.202835293907239,
            0.0638761939466707,
            -0.09731444587288207,
            0.0218771235252173,
            -0.03003136241682808,
            0.059326910717162416,
            0.005054724097276088,
            0.15459982488807208,
            -0.14174105020882058
          ],
          [
            -0.12763547175421344,
            0.08520497959382697,
            0.09297900388173556,
            -0.06277698232547235,
            0.03293588451807902,
            0.08926634935918595,
            -0.004936166700087771,
            0.08691848561550515,
            -0.012023217087846335,
            -0.059892156974498616,
            -0.07271528947738858,
            -0.06290344670459966,
            0.02201763322471821,
            0.008521185665745919,
            -0.10456651422690579,
            -0.013312047942415195,
            -0.09798841660757517,
            -0.05838296009590175,
            0.05692092075383,
            0.10494528741282902,
            -0.2056585028824225,
            -0.059425583886674516,
            0.06529102344509079,
            0.033718348849156914,
            -0.11798347177978433,
            -0.03624656983008442,
            0.08707337185235954,
            -0.04327300449322343,
            -0.09865634756308157,
            0.06628895528002998,
            0.004233499587550549,
            0.013790857948540009,
            -0.1526505500503477,
            0.03864054274107467,
            -0.0035201145883559143,
            0.07726041448880304,
            -0.008952344102990012,
            0.023685809142019065,
            0.013420775105151004,
            -0.1175943418877582,
            0.028200034977773732,
            -0.04728623976495723,
            0.018717000665821187,
            0.044047875879586564,
            0.11085483683506792,
            -0.009221659581992543,
            -1.8198564804114158e-05,
            0.05333530188665822,
            0.1984032997473194,
            -0.048549659161676965,
            0.10190567114091938,
            -0.17577507950705135,
            -0.1505492150290533,
            0.12594015149561918,
            0.11879663330312674,
            0.08191796177071924,
            0.11578483983986708,
            -0.09406236285749953,
            0.025179147068253208,
            0.0059445281836781015,
            -0.0018166142955947748,
            0.044687247111370565,
            -0.13832975304901743,
            -0.07402653248286843,
            -0.05940042849886614,
            0.022510997073544682,
            -0.04841104691998143,
            0.0028904062491774815,
            0.1336402818546293,
            -0.013475198547838543,
            -0.07422241460336296,
            -0.04911240554039238,
            -0.09879133679540913,
            0.1853001932256455,
            0.03432289754570478,
            0.05376341797267627,
            0.002024868579139282,
            0.10896226051619247,
            0.024743632210653916,
            0.03796226022297938,
            -0.10216518222794961,
            0.028959427503142315,
            -0.14480832662850154,
            -0.10177936354599612,
            -0.0654062707303133,
            0.09498977123351578,
            -0.13342190572889054,
            0.022909670219838942,
            -0.1811391871486509,
            0.08380301267835007,
            0.18230735854687435,
            0.03722934675126009,
            0.0882127735892245,
            0.0762581894719213,
            0.1702388788205695,
            -0.04751281066732259,
            -0.15373119679136898,
            0.16608477771805757,
            0.23745834634459298,
            -0.09006002227040757,
            0.05192216221121065,
            0.033128189365653406,
            0.0052315401476595415,
            -0.05432280772861859,
            0.05126614084028142,
            0.16154836789017593,
            0.14810362572977148,
            0.26716953368727553,
            -0.05919713926270487,
            0.01240587524329856,
            -0.1914576547660662,
            -0.04248453908855372,
            0.0028930031633158664,
            -0.07320968771617781,
            -0.00792525162758008,
            0.04544285675542785,
            0.1706943030536273,
            0.03677761019587249,
            -0.03949152436901393,
            0.0015444592454987845,
            0.11816636379290027,
            0.029131875591263474,
            -0.05244300419336021,
            -0.11044519226199544,
            -0.026426418302752188,
            0.06150911572619422,
            -0.03507357791367145,
            -0.055235487992649795
          ],
          [
            0.04214409707405834,
            -0.0278499542279911,
            0.0647965027343438,
            -0.08301629453409916,
            -0.04478789693480849,
            0.07521280108815478,
            0.15352207811389615,
            0.051199723156318024,
            -0.17914770144859843,
            0.017401807687127034,
            0.06425495005291808,
            0.04128160467909744,
            -0.0577921652759042,
            -0.18316182005000828,
            -0.10341060427496347,
            0.12391233672245495,
            -0.004155686963444058,
            -0.03774016779623009,
            -0.2003566021946865,
            -0.037531861133476924,
            -0.11833899726387753,
            -0.18393230426579213,
            0.0885915245170745,
            0.07864948328179136,
            0.020491094078824518,
            0.030557587255170247,
            0.10975679234177878,
            -0.17811080624083522,
            -0.002176102028502111,
            -0.05389758077201163,
            -0.022454354111368414,
            -0.015357303195159176,
            0.026258609803302767,
            -0.003395642625318541,
            -0.09134222715027493,
            0.03671246250183948,
            -0.06362969096822078,
            -0.10451233104065415,
            0.026849932088523744,
            -0.07275017776886405,
            0.04856331695301216,
            0.23796102001751707,
            -0.14841712798738785,
            -0.10462128169551846,
            0.022682845100191168,
            -0.008228309318639312,
            0.08531825053035888,
            -0.06041638353451318,
            -0.004977900506402864,
            -0.1410147938609814,
            -0.043617731465057784,
            0.1241256448239165,
            0.010770098595038377,
            -0.05555889107724361,
            -0.055302593560036147,
            -0.0545917950838477,
            -0.09857193871508665,
            0.11146350318307177,
            0.07338604525406989,
            0.18981755152286103,
            -0.06510557259024959,
            0.20148751279293084,
            0.1118454980338516,
            0.0910642659873989,
            0.08958361867968667,
            -0.00487651826988492,
            -0.06285316816820001,
            0.025654852965220666,
            0.06695830757967995,
            -0.05939170732276785,
            -0.13971485420748428,
            0.09291118493118723,
            -0.04421015610256466,
            -0.0751012493733628,
            0.1433166558475465,
            0.11608441813718161,
            -0.04044109389624662,
            -0.1464118910627137,
            -0.011036427151277606,
            -0.020604150421292027,
            0.08795783619212134,
            0.13456686585429506,
            -0.05776983241996444,
            0.06815942705856759,
            0.05287701868829453,
            0.050048755467325345,
            -0.07925163582630629,
            0.0859607357273428,
            0.12806149014772758,
            -0.06957560531721062,
            0.1176563191276563,
            -0.10921708379729804,
            0.005291776800484898,
            -0.008129954656659572,
            -0.0486142282690659,
            -0.07687542518063352,
            -0.005099410336321828,
            0.05318732486255806,
            -0.10197034019018202,
            0.07698327860145045,
            -0.010720740317011763,
            -0.048318933509333015,
            0.12332986892252994,
            -0.09045883029500011,
            -0.004532883214719363,
            -0.07831293321416817,
            0.03322664457891835,
            -0.01581886152456869,
            -0.016450078771467348,
            0.14857275666191724,
            0.008370053870616454,
            -0.06282218764409914,
            0.10076221062425764,
            0.11146522805743474,
            -0.04067392666250143,
            0.07746647369256962,
            -0.07475541044978785,
            0.07219929883688846,
            -0.0066072452641608385,
            0.07114992308246879,
            0.10660015293774788,
            -0.1038365789962972,
            -0.1445205760444018,
            0.07707630042050607,
            -0.02038172062236735,
            0.14663898467771946,
            -0.1367432929054762,
            0.14846199873601992
          ],
          [
            0.0015492984980640975,
            0.12317805903669385,
            -0.03949273331743601,
            0.115166813024277,
            -0.05207131073571958,
            0.031730227616628935,
            0.01820742453663364,
            0.2098807218962084,
            -0.06313648424153215,
            0.025646615077488853,
            0.037562779404198374,
            -0.016589009787185305,
            -0.1299244382663739,
            -0.12513481309491614,
            0.025919414229342786,
            0.12455655022676307,
            0.0903173954868658,
            0.08006918143076722,
            -0.07119112886002925,
            0.03935093480337097,
            0.17413422773360063,
            -0.2172559984170052,
            0.10078744126554179,
            -0.07313927309775127,
            0.016660250136980012,
            0.14848614649630013,
            0.1504708707081964,
            0.13849917126936837,
            -0.08742393175803397,
            -0.05515639509129886,
            0.03801406342407892,
            -0.09229011756468845,
            -0.07120699718260519,
            0.0766664012887734,
            -0.2466209093740259,
            0.09736032031291629,
            0.09820400092948652,
            0.04546697871474795,
            -0.09546194966227345,
            0.012993792088255421,
            0.03466234165885257,
            -0.0245406783870073,
            -0.14528440950247795,
            0.043505683115692,
            -0.20688481779483314,
            -0.0030981850916807913,
            0.2396709943888649,
            -0.10114075473757551,
            0.002283158719707269,
            -0.09998651673922873,
            -0.1720135993756154,
            -0.0555548831930576,
            0.1828841549320127,
            0.153460953960579,
            0.09348492385846488,
            -0.07858242420963031,
            0.14929792863583974,
            -0.06172299550394313,
            0.08573154778289994,
            -0.1049835269610658,
            0.10322068387345175,
            -0.13887251392526953,
            0.06328878639458659,
            0.068759617942492,
            -0.00036838366799440725,
            -0.10310909830186149,
            0.021287268720643227,
            0.08967078220781663,
            0.046427503897317826,
            0.06158067338650861,
            0.009603445222592318,
            0.07232551534595637,
            0.14170321200757027,
            -0.060804235496307105,
            -0.03781185245027508,
            0.01638417840651258,
            0.08772930594586834,
            -0.10711690802013663,
            0.06911961070633796,
            -0.09943759982095965,
            -0.11321281972654529,
            -0.042276059936787375,
            0.04723964820943318,
            -0.19412643058720733,
            0.03924532909862298,
            -0.2351480944903873,
            0.020456570272267393,
            0.02997212443584175,
            -0.009055949999874675,
            -0.12642069784998014,
            -0.11222172883386787,
            0.03914509231400801,
            0.023684534322086566,
            0.030383216639665145,
            -0.03676846327687582,
            0.16141757370031756,
            -0.18042541351043725,
            0.009746726562735338,
            -0.08600108325028416,
            -0.07853218354839785,
            -0.08209819867343728,
            -0.012425282422874375,
            0.06753302473639657,
            0.027789402083109753,
            -0.03646668414211037,
            -0.03659475255674577,
            -0.07936241028996588,
            -0.03681901555694175,
            -0.03867787065313898,
            -0.02117736261367575,
            -0.11166017854915787,
            0.09740014699463646,
            -0.009192414819092718,
            -0.05220407721708955,
            -0.10649845693158935,
            -0.13518041359508307,
            -0.05284320492268603,
            0.0009769642225283684,
            -0.10332001838677309,
            -0.04569463589521577,
            0.06226284923548047,
            -0.11443247002830463,
            0.0003780220432753137,
            0.06015643668701671,
            0.12005088379698219,
            -0.05336804986928583,
            -0.01086901441179233,
            -0.13576739877327965
          ],
          [
            -0.004051361888504505,
            0.06556141196959708,
            0.015420193763094905,
            -0.09960201867084365,
            -0.016550746011255363,
            0.1469615070166715,
            -0.06554119893204512,
            0.12089945409132127,
            0.04603183433933882,
            0.09432643716494335,
            -0.1677689008635336,
            -0.033291209845117645,
            0.019583856822319765,
            0.019375955019858452,
            0.09903358048692161,
            0.2248359540281998,
            -0.08627437555034645,
            0.059109926778090266,
            0.006468660628871647,
            0.07386736161440605,
            0.017970960737635946,
            0.19271836810083884,
            -0.035459450046485756,
            -0.06543460478593734,
            -0.020400596156401316,
            -0.11888965021376188,
            -0.1054670621142755,
            -0.13925744355707473,
            0.07342623686274255,
            -0.0682030814509439,
            0.11494691384361841,
            -0.01649516902736339,
            -0.054069563860479466,
            0.07412399861228566,
            0.012490885527244843,
            0.06809149996933234,
            -0.01804726205785621,
            0.08764247567140339,
            0.0939298480477616,
            -0.1300249717995991,
            -0.007039131885998765,
            0.28323370334576653,
            0.004460008269047988,
            -0.03795529665415227,
            0.08013748680840453,
            0.04771659963822448,
            0.07138587699362053,
            0.2125981252678324,
            0.031074047512981175,
            -0.05492296685570509,
            0.03563476784179587,
            0.12063584482184059,
            0.0013720371257331895,
            0.022956273232726348,
            0.014975222329387238,
            -0.17748404646383986,
            -0.04560178459542586,
            -0.06856166320063915,
            -0.09931782257912572,
            0.025612044979873048,
            0.10558572430644911,
            -0.2636120212154026,
            0.05512881672552076,
            0.0494963299157948,
            0.08818326417298586,
            -0.0053716875520180805,
            0.13467829038280069,
            -0.051464327297379035,
            0.025930267613001125,
            -0.03797138822452268,
            -0.09026587249414172,
            -0.11279795163115593,
            0.10909553278529723,
            -0.08635723179031249,
            0.10391337511774851,
            -0.01583323518160578,
            0.06556988677487938,
            0.11047858192032382,
            -0.07491627084498503,
            -0.07798647967391906,
            0.07636773975764058,
            0.13064531453772643,
            -0.024847119095830122,
            -0.011436035815177012,
            -0.053817337041967,
            0.010290415273409362,
            -0.2090557838672433,
            -0.11223841784158932,
            0.0454354498847049,
            -0.07720950082480303,
            -0.21499312225335332,
            -0.0823300306711185,
            -0.05506694259385077,
            0.11696135055922442,
            -0.032708458696076255,
            0.008762983042608497,
            0.02888814154488017,
            0.04456371513374176,
            0.06941625875957859,
            -0.11976163607137391,
            -0.08860442188163122,
            -0.05775595109256434,
            -0.04276669827564152,
            -0.09225840757758123,
            -0.059036363984219374,
            0.12052018345160202,
            0.09237037975734896,
            0.09043050735612831,
            -0.07214680416247225,
            0.02021068779014228,
            -0.02971411374767495,
            -0.04045597072276624,
            -0.08376183507384524,
            -0.03480297839496643,
            -0.013123446550494716,
            0.04571184914938945,
            -0.09324288963465968,
            -0.09352568075612706,
            0.0734743569893003,
            0.10050961713606452,
            -0.10175740735147654,
            0.03895308174825894,
            -0.11972284343250629,
            -0.05889958043003829,
            0.22112849772397433,
            0.009567089929051741,
            -0.07935690640503511,
            0.15525436285960204
          ],
          [
            -0.050598840269238325,
            -0.007946396870393517,
            0.15542850466919145,
            0.010274745285533156,
            0.037042492897406035,
            -0.025092702561685498,
            -0.10046223936749771,
            -0.09904027362995124,
            -0.04094737734333493,
            0.07263918170093932,
            -0.02394508154807334,
            -0.13639506456215855,
            0.1863112230217315,
            -0.10533992184772634,
            -0.042485240763635225,
            0.17872823351587366,
            0.013255293188937249,
            0.08639485383601438,
            -0.013645898924565107,
            -0.08219437551107779,
            -0.032318877145714645,
            -0.07257667968651087,
            0.08927020832504597,
            -0.1584681204715088,
            -0.08204386781509299,
            -0.20509319616687052,
            -0.09055062288807281,
            0.12569280487384668,
            -0.0176772100619677,
            0.03897191614973385,
            0.024666765511160742,
            0.12094481896861557,
            -0.0609313768684434,
            0.13105056329360906,
            -0.17820224980418017,
            -0.24739334851625427,
            -0.027430136768371454,
            -0.06974248001476924,
            0.05295548549616213,
            -0.04433301017963128,
            0.035898051881799856,
            0.08889357549502488,
            0.009285470160229205,
            -0.026145295541448607,
            -0.08065758865486523,
            0.041929717651180344,
            -0.030645602233947012,
            0.09626841330036918,
            -0.011402420599864172,
            0.18998605562723453,
            0.09063112935315659,
            0.18643231500859977,
            -0.08002534986435013,
            0.15119926885886137,
            0.029670201802601236,
            -0.1854984376939398,
            0.038695451523617905,
            0.1362594957688766,
            -0.0628550145959591,
            -0.022504692529853047,
            0.04345161338385236,
            -0.03653565563868633,
            0.008951300374463584,
            -0.004705357437970384,
            0.034703754040659666,
            -0.09412551935453095,
            0.12871010141827702,
            0.0015887102932480395,
            0.0018964933922786438,
            0.15279067916539624,
            0.021638345297583485,
            -0.09744671180045045,
            0.14440929449075496,
            0.05020236301525005,
            0.08224262923343684,
            -0.2696177253290347,
            0.12828188853368683,
            -0.13236358521505898,
            0.007559751864274222,
            0.04211014656555602,
            -0.10907778551799033,
            0.17278693147001958,
            0.002560818411242323,
            -0.07756653597936006,
            0.024331088135435323,
            -0.006131374079133423,
            -0.0829809316316136,
            0.22486323077360623,
            -0.0278554282479337,
            -0.012793544605403462,
            0.05761232751298081,
            -0.10599280397020147,
            -0.048494914444780025,
            -0.05851684075040792,
            0.06472334963561156,
            -0.020431269156853116,
            -0.07672663267913574,
            0.143077624141835,
            -0.03346765690332941,
            0.202273582872973,
            -0.03468527190158601,
            -0.04405385807179763,
            0.034386667797602945,
            -0.021478242357050637,
            0.10924020970730697,
            0.011554083711125386,
            -0.17865292433575372,
            -0.0519141390967805,
            -0.016618636507632553,
            0.05576140452509493,
            -0.24414881087115928,
            -0.14426890851809107,
            -0.13458602397156996,
            0.09319107728161065,
            0.060124072408948286,
            -0.04622363316217454,
            0.003018771635197974,
            0.07112352428137296,
            0.01882918355462479,
            0.1280246120346175,
            0.0444672631409982,
            0.2026316055652628,
            0.14761052604986546,
            -0.03984083857732111,
            0.10500370989063745,
            0.015062044224547388,
            0.046577461526335504,
            -0.05028463443131588
          ],
          [
            0.005595692430429874,
            0.14526513380705433,
            0.05713278013203194,
            -0.14089366509045773,
            0.026771242684027117,
            -0.10473902509052856,
            0.09687428949922093,
            0.14799941967748861,
            0.004861483403266758,
            0.05196136078872388,
            0.049994637885055156,
            0.08313563295185557,
            0.18885563383211135,
            -0.06772780653737663,
            0.02954102994600024,
            -0.004239557584680684,
            0.04397896315093882,
            -0.022814617174067523,
            -0.001156883222435341,
            -0.169587928177971,
            -0.08068788209259188,
            -0.03750133059945025,
            -0.004977710646260499,
            0.005307853747164392,
            -0.007998239793054225,
            0.10966550622997606,
            -0.06917278869406175,
            -0.1150598166351484,
            -0.026186589191661027,
            0.21006919437932847,
            -0.024068590832803237,
            -0.09886751572205073,
            0.01236401700484418,
            0.08291406591766505,
            -0.09781988018596925,
            0.058265704242554575,
            0.036142858320938685,
            -0.045814042062966756,
            -0.12185872484228925,
            -0.06179150418368042,
            -0.14721526580586522,
            0.1105825897957473,
            0.08271526462102848,
            0.03366801645066309,
            0.09081347060524438,
            0.027541963640850712,
            0.045243588898638144,
            0.13016891978774187,
            0.0815821998723236,
            -0.031500788317271766,
            0.045926543265880485,
            -0.0054530734477386145,
            0.01999423314887889,
            -0.03522554785510087,
            -0.03400269134619652,
            0.06641064001988423,
            0.01886934744615741,
            0.05816724080578184,
            -0.044518729024973044,
            0.07298307869359978,
            0.08854748379346518,
            -0.14864336204162673,
            -0.027305245787981387,
            0.08930986620109238,
            -0.05705885065464453,
            -0.04644716695814775,
            -0.053180671227748944,
            -0.03355645098812139,
            0.0769199331229948,
            -0.08790908740184805,
            -0.024831773001697297,
            -0.06449639802910215,
            -0.02594036183257579,
            0.2086036784062069,
            0.10031201962811334,
            -0.03686712676744479,
            -0.019455920116588976,
            0.07601082551873041,
            0.030937826947635572,
            -0.12163221104194681,
            -0.02074353611166136,
            -0.051013653525548014,
            -0.18175177349755242,
            0.0579489697444022,
            -0.015978303271597806,
            0.03135333581695417,
            -0.12288058523687777,
            0.07135002276993348,
            0.1152713188609843,
            0.020856853911427675,
            0.13692919240306828,
            0.0404711959184409,
            0.11230401038725576,
            -0.053920402286308615,
            0.05717882830120862,
            0.045607169859041646,
            -0.09577122744207014,
            -0.16499938020435045,
            -0.1337465078045557,
            -0.07236701137728094,
            -0.1079905533693468,
            0.045233063704497964,
            0.03913655066894664,
            0.03144597537467824,
            -0.14232477461494494,
            0.18294179556157372,
            -0.032742095233842,
            0.002062439033113479,
            -0.11113196638000622,
            0.09592294304474455,
            -0.04443357170233608,
            0.15019408783603522,
            0.20711114466094932,
            0.07076315049229877,
            0.20641795637416818,
            0.04146822589701491,
            0.07692125288907758,
            -0.11816819621294922,
            0.03019141941528685,
            -0.08560402707738794,
            -0.05736904698988152,
            0.07229170130847595,
            0.05207170240457271,
            0.03425491861135271,
            -0.1446074869904328,
            -0.03345739429564001,
            0.03143488342690571,
            -0.07610808047580231
          ],
          [
            0.08843349795917645,
            -0.006879694521485736,
            -0.018499489079314476,
            0.044793398621355666,
            -0.10148550115398616,
            -0.11465880563728408,
            -0.1286675019661198,
            0.11489930300674268,
            -0.0543672651353217,
            -0.17401278622421018,
            0.1393283094505636,
            -0.0029921459737923825,
            0.08256761740140135,
            -0.052449391507785395,
            0.12515548145074712,
            0.056828266712545206,
            -0.09320710848717007,
            0.029706898992879816,
            0.05459641762434956,
            -0.13367352027667612,
            -0.02478598020170577,
            0.06477529301516129,
            0.021980039619615675,
            0.0739209543756867,
            -0.02277768993030377,
            0.06758068580749632,
            -0.0018881302018249773,
            -0.05713514942056343,
            -0.02856086453055338,
            -0.054855564283646435,
            -0.02403934037924148,
            0.018974371318492,
            -0.1000628702335446,
            -0.05525408633936402,
            0.0885981262750104,
            0.08749925404583707,
            -0.07397647803059487,
            -0.024090942762126526,
            -0.31847941831004606,
            0.03141369673332562,
            -0.1286146887814801,
            0.05483700935559976,
            0.07724859195878082,
            0.036481313519388506,
            0.10532911400109654,
            -0.027192160584021997,
            0.06261922065253733,
            0.040119692133747914,
            0.07140159030474803,
            -0.11630961523518625,
            -0.06726899064063749,
            -0.0010284520196232729,
            -0.12196667117935026,
            0.035662931419643155,
            -0.020317860913363336,
            0.005958270241298842,
            0.06555318848898084,
            0.13182068742394581,
            -0.17141789154983555,
            -0.006089841888689772,
            0.04205396122140559,
            -0.1161401545090954,
            0.19367053550901864,
            -0.042505281696580965,
            -0.016344135743883277,
            0.17157235131962886,
            0.06528127511784282,
            -0.04194674816464507,
            -0.04320131525904318,
            -0.09379906081765668,
            -0.07001736615394277,
            -0.01971986996543335,
            0.07399381005386668,
            0.0850772177683757,
            -0.14493547364409443,
            -0.00039170527959789974,
            0.16354254368829949,
            0.08187141863739412,
            0.05922985226001344,
            0.0735581562124906,
            0.12227678198980474,
            -0.03230229889990339,
            0.026030621111777855,
            0.01940255116646864,
            0.1484375652441015,
            0.021728200290479765,
            0.10018097762657328,
            0.08121373480613374,
            0.07655024240050609,
            0.01617797067901559,
            -0.003149847429380069,
            -0.006218806640095721,
            -0.05335161035449849,
            -0.04506287801783372,
            -0.05343697515862462,
            -0.07431818767716077,
            0.055990525205567784,
            -0.03210876524110002,
            0.010408834851204017,
            -0.015395381771713955,
            -0.039470579168659,
            -0.10285497927107505,
            0.22173857756587528,
            0.013974495914807816,
            -0.14284817744223008,
            -0.02768077879445873,
            -0.07516388629081841,
            0.038206995074650994,
            -0.31001256412307576,
            0.017746271474089494,
            0.09071090284456024,
            -0.037758548686777346,
            0.03857538931321516,
            0.04658995200753215,
            0.006730679531345187,
            -0.01392770951384629,
            -0.10931267638150663,
            0.1047860518379482,
            -0.01571990646954532,
            -0.07145347242089294,
            -0.031714055839694694,
            0.0012987485762596396,
            0.02687012221380706,
            -0.190965059413484,
            -0.003892318675799429,
            0.14962279172419743,
            0.17863579164215287,
            0.15760087918096896
          ],
          [
            0.0962231416587441,
            -0.027643874495959928,
            -0.1132360142940231,
            0.1176079415951063,
            0.1033823770303223,
            -0.06751388701973203,
            -0.07375829666060367,
            -0.1099646544566613,
            0.21899421719684603,
            0.10529591501347708,
            -0.03568080598421252,
            0.16987338396998108,
            -0.1137006163728426,
            0.0651780437392992,
            0.07899773246452169,
            -0.09664474506676506,
            -0.12597215611306112,
            -0.029702154210153663,
            0.025617185503535072,
            0.057091121446380295,
            -0.054760837994379676,
            0.04853692413688352,
            0.007538291366019374,
            0.000358705781935249,
            -0.11969381307454581,
            0.04758727207443217,
            -0.10298219005440343,
            0.0995226599031636,
            -0.0028909955079590766,
            -0.08261091379321926,
            -0.017293562739904452,
            0.0629817807644889,
            -0.2652209872871773,
            -0.07459672390324634,
            0.06518194411464842,
            0.11640389707745022,
            0.17193943183723626,
            0.06252870677472595,
            0.07035425940631242,
            -0.023036824786187588,
            0.07848506728543292,
            -0.11833665820412127,
            0.06977652331534001,
            0.050824308806564425,
            0.06719050109879714,
            -0.051643944802739636,
            0.04070114932351726,
            -0.04923018666286062,
            -0.12040735522112783,
            -0.15985963384657256,
            -0.06356047918554811,
            0.09401663899631774,
            0.08853970381895361,
            0.10219072244196535,
            0.10156685251372373,
            -0.05383484380575424,
            -0.10929262311489342,
            0.13343320012750454,
            0.10246114723463538,
            -0.07827703891278324,
            0.13978753888593784,
            -0.2585503790007269,
            -0.12192637748497641,
            -0.05065868627574578,
            0.018116500444731506,
            -0.04791579560348279,
            -0.0059734477006542636,
            -0.03235843067644201,
            0.17748436218188496,
            -0.11975041836674931,
            -0.04295914059036963,
            -0.029225936877054017,
            0.09038541152031856,
            -0.1636013954924229,
            -0.0912372832587778,
            -0.006477182610007383,
            -0.08373261684532303,
            0.08784596479056689,
            -0.08203842926763859,
            -0.14141752969659793,
            -0.07894062393611057,
            -0.07416681730383969,
            -0.15559048276688753,
            0.014289066321358618,
            0.08918118166782484,
            0.12077275051950408,
            0.13054809786446006,
            -0.06307822133138948,
            -0.022069804931178456,
            -0.0012511767122574979,
            -0.07992313504770422,
            0.03712776089475323,
            0.06786338223321962,
            0.12329871291080081,
            0.07192740308855011,
            -0.1932161244503998,
            -0.021031877022421642,
            0.0805265317752947,
            -0.02615786761384187,
            -0.0005711159863920111,
            -0.1401722025309545,
            -0.08754621315582746,
            0.07401492128720266,
            -0.04251904284974482,
            0.14949591675635518,
            0.07279648785422384,
            0.09397110658079064,
            0.03509123779675223,
            -0.018330208158255798,
            -0.16619435006672462,
            0.06820550538117903,
            -0.15608493764810863,
            -0.01774403120804439,
            -0.1415971409958415,
            -0.0927154133516656,
            0.08163935590874621,
            0.039824749226392286,
            -0.05911836212795023,
            -0.02949590486234217,
            -0.0059067653401665594,
            0.06956324539840052,
            -0.06439555150150127,
            0.08135341695618042,
            0.28057069389230016,
            -0.03470383092291248,
            -0.039206994209339194,
            -0.03932389352229941,
            -0.011550877717478003
          ],
          [
            -0.18443292106972073,
            0.08696022778378648,
            0.053058581920237866,
            -0.010451241617857113,
            -0.2017585844821476,
            0.04119143076211091,
            0.15750479372765916,
            -0.01704377044108852,
            0.018730532710839187,
            0.002833484051447055,
            0.027532262339349904,
            -0.06051168883619992,
            0.0035791680533281147,
            -0.011307825846158323,
            0.011265293847394168,
            0.04581399423953688,
            -0.08716322870905255,
            -0.018144241688422814,
            -0.10761798059740135,
            -0.04061115684174887,
            -0.11853225816830427,
            -0.028888200153246214,
            -0.11897805305840446,
            -0.08472759536788124,
            -0.08216957893983319,
            -0.09022720642953036,
            -0.09343007011872141,
            -0.0920047582790803,
            -0.12062550157126442,
            0.06890757286330144,
            -0.04179305257297096,
            0.06666257455999944,
            -0.0262591287933254,
            -0.04182336147369455,
            -0.029249588647727018,
            -0.2182693677048859,
            0.12994262274442087,
            -0.2065396338618676,
            -0.16847540212499443,
            -0.05591498242257682,
            -0.14029335267250384,
            0.004310062362910523,
            0.19698888069495032,
            -0.059247114624549076,
            -0.04686204613120702,
            0.1426654313178484,
            -0.0014345742523316101,
            -0.023316650141693387,
            0.23368416442887843,
            0.1417157982291386,
            0.02092956331507784,
            -0.05254654819781153,
            0.07722516969009914,
            0.017401433032458728,
            0.035080009101335054,
            0.0623382738063213,
            -0.10392034747646545,
            0.18686372874942525,
            -0.006575912424429756,
            0.026354317525110315,
            -0.03614412893560148,
            0.09775288299240895,
            0.10303193445115703,
            -0.17644235234617928,
            -0.045715203300396454,
            -0.0003790201351716171,
            -0.06591501556200036,
            -0.08935669371329479,
            0.028658185283907726,
            -0.05199204851993377,
            -0.18213010398206583,
            -0.1396980886141664,
            -0.02803313227490495,
            -0.05306379454391564,
            0.043334869206500586,
            0.04320314220674815,
            -0.23092494408910774,
            0.08004571958439047,
            -0.02314097221069624,
            0.09373073356196204,
            0.04131260421596643,
            0.023278106901566144,
            0.0837675464234604,
            0.008051233982132498,
            -0.012601464560383158,
            -0.01767115156500902,
            0.05318059042658162,
            0.09202186376758649,
            0.12369336729938228,
            0.08618411362993057,
            0.06624093715252773,
            -0.2052986595700024,
            0.23870813432483115,
            0.0062538705457346145,
            0.14787949220326538,
            -0.0025709918561765623,
            0.04616444311718805,
            0.091184079561236,
            -0.009240406777619843,
            0.0581451964079836,
            0.03601129062470803,
            0.13536022053089816,
            0.18737702566366812,
            0.09208154947646804,
            -0.10411074040319514,
            0.050030966841817355,
            -0.0880741171792002,
            -0.009478835900348913,
            0.12080470690060602,
            -0.14275539169524343,
            0.06087611607594003,
            0.012178787343865374,
            0.05006489875751057,
            -0.041237099044543764,
            -0.08653897526594907,
            0.005738823068898054,
            0.057530822170785104,
            0.035043882851336444,
            0.21189008068916698,
            0.05000874359476676,
            -0.1424330842752541,
            -0.0824158436588207,
            -0.056811001547703195,
            -0.00975163375790782,
            -0.011982248536731232,
            0.021033353635435317,
            0.10871030483102222,
            -0.056353755689660244
          ],
          [
            -0.049024424741858655,
            0.0806024247114078,
            -0.028061843126792278,
            0.1642162915857401,
            -0.09687747285312008,
            0.00040412820869540613,
            0.1508837295627229,
            -0.03730342533307266,
            0.03099735345992502,
            0.01595079493266948,
            -0.11459988739587912,
            -0.008039021003727892,
            -0.08749604770018739,
            0.1407967821719131,
            0.0025846415775896397,
            -0.033654597012149984,
            0.0002788140507156339,
            -0.05604302048827207,
            0.04835663680148197,
            -0.0016587165586953985,
            -0.04593186113133861,
            -0.06895230918922308,
            -0.006049125583439486,
            -0.12349244759389397,
            0.027780184378839185,
            -0.05878500409974548,
            -0.14479188133531917,
            0.23431838594000406,
            0.017071839324516336,
            1.530723149105248e-05,
            0.05121427212751259,
            -0.08870406039487559,
            0.13663858345503016,
            -0.05427594099577817,
            -0.05234307101288464,
            0.07675813897842738,
            -0.11611532009589678,
            0.0592890810515891,
            -0.022179900132192863,
            -0.175460796854472,
            0.009572360377606387,
            0.0346051400581888,
            -0.03389733590248808,
            -0.026097918909086838,
            -0.010735221901191134,
            0.022183996810180313,
            -0.046427848398659516,
            0.01587232338139007,
            -0.0920977389349383,
            -0.061656680264722555,
            -0.019065117695558333,
            0.013430778297706912,
            -0.0822131168617369,
            -0.028336285796420727,
            -0.12230074876508108,
            0.022931388765465625,
            0.0812397525499363,
            0.1011740409199743,
            -0.06259236011617979,
            0.17100651403832728,
            0.10218789516502197,
            -0.04270568619780748,
            0.01702681690323034,
            0.05534899493300877,
            0.16910640526301263,
            0.181433629231291,
            0.04119956854619031,
            -0.02534603400055505,
            -0.0018388986319434605,
            -0.01800441491461176,
            0.02573490739945561,
            0.10100928617505817,
            -0.11287857116287763,
            0.07585044649335541,
            -0.04720279325421572,
            -0.21033409701158828,
            0.07563780532465195,
            -0.12058757214597782,
            -0.07256272419472051,
            0.06263730336125314,
            0.14568517792125715,
            0.04047265063365887,
            0.12123793599361016,
            -0.006398923468541573,
            -0.0957877044978632,
            -0.03207849826429603,
            -0.017000030133084425,
            0.14937752926203324,
            0.04334471664699125,
            -0.16681022021230113,
            -0.011595646113615726,
            0.03843128189196821,
            -0.05153650224494142,
            -0.11714630533844,
            0.0066655974841639655,
            -0.012348607231965264,
            -0.21515952589484602,
            -0.05007627056910623,
            0.043858269359596164,
            -0.1487139317546895,
            -0.08905633741200304,
            -0.15128365195193294,
            0.031171134592175895,
            -0.05402506731786073,
            0.041761295570535546,
            -0.06870581738328127,
            0.047774765910370304,
            -0.12794898115642409,
            0.0647678883772086,
            -0.13791262744417088,
            0.08039825809593926,
            0.005364666205841924,
            -0.20100746042389755,
            -0.002627562838719313,
            0.2732145474242,
            -0.08344697503080481,
            -0.08200783963053411,
            -0.09465211590942865,
            -0.05201731960885755,
            0.07141223426146542,
            0.01293823524460706,
            0.024585449991896772,
            0.08550063976209882,
            0.12956655604174605,
            -0.056780782742463766,
            -0.06960743117017498,
            0.059130304276811284,
            -0.090825431919633
          ],
          [
            -0.028216651906401952,
            0.008369751367001889,
            -0.12969649924019275,
            0.01869536938397305,
            -0.04012784396949043,
            -0.26637663368419406,
            -0.009264203173640123,
            -0.2104204829880037,
            0.0916322182156033,
            0.09137869059146993,
            0.027221917027708226,
            -0.0362532953223467,
            0.057722181941947885,
            0.05519417879440246,
            -0.03807036349109789,
            0.15030599236805064,
            0.11080682952532492,
            0.08674774573654696,
            -0.2382705434386356,
            0.08222151096494719,
            -0.06462824530444322,
            -0.04192537910035451,
            0.08540907526377842,
            -0.20968204651467257,
            -0.03296983862641267,
            0.18555939373412314,
            -0.004326405967367453,
            -0.12733210064753298,
            -0.0377172269350183,
            0.0400947952850347,
            0.09572190447434177,
            -0.18628627176335555,
            0.05260303031898627,
            -0.07673245886200479,
            -0.022956649571707656,
            0.08962622132046925,
            0.03868481851827929,
            -0.035980408160787736,
            -0.09541402328020442,
            0.004227487907523041,
            -0.02833852659646772,
            0.07605846161479736,
            0.08844798995274566,
            -0.042375622717457546,
            -0.08032305717026891,
            -0.06063134275659049,
            0.0030196158479649606,
            0.2121221064519407,
            0.004424242630478447,
            0.07149907241791735,
            0.01824269014815912,
            -0.1509049394523897,
            -0.1661616376736749,
            -0.01928944026130387,
            0.05719249068970151,
            0.056239775170321804,
            -0.042125252452823614,
            -0.0314158380268079,
            0.12477127012332193,
            -0.1884757583371055,
            0.030721424401155002,
            -0.01032730504521668,
            0.04113402181578176,
            0.1358741246638044,
            0.06961428070326797,
            0.18047724300629686,
            -0.12191176186806255,
            -0.057749682932886674,
            -0.0034105969084999924,
            -0.12646885932233706,
            -0.02946556636942012,
            0.12386301467834117,
            -0.04389361564138601,
            -0.13547124271697444,
            -0.11388483481486862,
            -0.05042735358831765,
            0.09379658493063597,
            0.0438410240215056,
            -0.044812579245037745,
            -0.06118771023867565,
            0.1634397152051873,
            0.00831610533372085,
            -0.1729088074692965,
            -0.1189718645441888,
            -0.0870933092394534,
            0.05004964152427207,
            -0.07954401906672941,
            -0.012403458796182706,
            0.13813332600659983,
            -0.022013403664276676,
            0.1674654430100006,
            -0.19413643782786133,
            -0.10856361919829219,
            0.04438856717744126,
            0.09299909136192187,
            0.059335605059760044,
            0.07709114572676092,
            0.13324380353959842,
            0.122897954720011,
            0.0106201584890432,
            0.09256615971205027,
            -0.12954100954652836,
            0.0005531730126288627,
            0.012881686372945633,
            -0.11701603027317697,
            0.18712920134846503,
            0.21573441342677221,
            0.0018029572690985137,
            0.14581925669033932,
            0.09933566162572992,
            0.06695831635025729,
            0.2708099449719763,
            -0.10544316408966045,
            0.00612918587523706,
            0.14280053347313676,
            -0.08860399814510864,
            -0.036903183053403274,
            -0.006372080022536347,
            0.01272294064640504,
            0.15845730655657234,
            0.08112451766278507,
            -0.00733793194537065,
            0.20227285214310672,
            0.016630468976471503,
            0.02841592083236198,
            0.16900544874032955,
            -0.09117397018096672,
            -0.002296288399214972
