{
  "state_dim": 37,
  "hidden_sizes": [
    128,
    64
  ],
  "gamma": 0.99,
  "milestone_bonus": 0.1,
  "shaping_weight": 0.5,
  "policy": {
    "state_dim": 37,
    "action_dim": 8,
    "hidden_sizes": [
      128,
      64
    ],
    "actor": {
      "layer_sizes": [
        37,
        128,
        64,
        8
      ],
      "weights": [
        [
          [
            0.021846383088559854,
            -0.042224720323009626,
            0.025187189259528946,
            0.018250553684461,
            0.19392516239058186,
            0.15047801799550037,
            -0.06530384935442567,
            -0.21715507565608844,
            0.1885210207925119,
            0.05494273284864943,
            0.19585522470847444,
            0.009831650843466523,
            -0.06746889266013842,
            0.09067749904449111,
            0.014012100573942147,
            0.09173335423724267,
            -0.08138858024830203,
            -0.1040517181088878,
            -0.056443327386047376,
            -0.19227718195600127,
            0.05689119552098996,
            -0.08978353878182652,
            0.004157536852945042,
            0.06699493051831093,
            -0.09685331045985826,
            -0.026088357929102798,
            0.0014216961414516955,
            0.06578358314399048,
            0.05953965672533118,
            0.030822645048340425,
            -0.1379021914320334,
            -0.025388053268514905,
            0.152402466971109,
            -0.14115191035187344,
            -0.15346561571763995,
            -0.004882207873155371,
            -0.02653619195604509,
            -0.03352088914977671,
            -0.09096346232342682,
            0.11937607086045703,
            -0.19727066023594103,
            0.2130845480530386,
            -0.016942170406581337,
            -0.07859867066351156,
            -0.06363364775231672,
            -0.08888515158119144,
            0.085202550049634,
            0.2858241264148576,
            -0.07745007814277498,
            -0.013562230694982006,
            0.029997393018539306,
            -0.08206782215407432,
            0.021048006491456207,
            -0.012691766366401612,
            -0.053385879064466304,
            0.07732639817679506,
            0.18410636811361794,
            0.136407295628769,
            0.16084490626907122,
            -0.06470564968098663,
            0.0817702414882216,
            0.3200116842306234,
            0.053645781010728685,
            -0.20864283843726192,
            0.06540497198017521,
            -0.09669794009084193,
            0.10880261542157194,
            -0.04086465106609036,
            -0.015665897066545562,
            0.06294357036893895,
            -0.13855347443121652,
            -0.14716790029964644,
            -0.22535788199401072,
            0.06699187413169011,
            -0.05513267867678591,
            -0.03045354436554926,
            -0.0814631310869286,
            -0.15305207584952057,
            -0.06040873548757996,
            0.03254712651858888,
            -0.03379238716966641,
            -0.0020511495422590002,
            0.12130803681031187,
            0.06981806878395862,
            0.04057122145946293,
            0.0771793597372733,
            0.024350814219150474,
            -0.1599010717145559,
            -0.09839234349837464,
            0.14451521259092495,
            -0.11164243722295948,
            -0.07457824716388049,
            -0.02663233980448676,
            -0.03134630375937575,
            0.07571937894266588,
            -0.19567650410978116,
            -0.036297935833000616,
            -0.07520282948785632,
            -0.03460874388586635,
            -0.23515743863955405,
            -0.17242265694109005,
            -0.012629647250635987,
            0.09707889477170895,
            -0.010853796114683336,
            0.1413203242738474,
            -0.12341256876527879,
            -0.008180344411300673,
            0.03100181184765218,
            -0.059798437351496564,
            0.029330880639478446,
            -0.10282201871956165,
            -0.08118283008758512,
            -0.003712389827070257,
            -0.027202211691617018,
            -0.17064138410743243,
            -0.06376235221712233,
            0.02616932088316345,
            -0.1841029489560083,
            -0.00184696801857244,
            0.16685743049448468,
            0.13094325325009437,
            0.14031424817989616,
            0.017150479538096872,
            -0.09042479510926817,
            -0.021643282089777977,
            -0.028214311664758213,
            -0.013018314665261595,
            -0.24791615137489625
          ],
          [
            0.053780602672589994,
            0.0017666190408546186,
            -0.03352145580846007,
            -0.14195519275098134,
            0.08012367015391418,
            -0.07553093603572333,
            0.07239475861218675,
            -0.05249872671712714,
            0.16246633389491555,
            0.1094970921971859,
            0.1709438033704526,
            0.05344912741455851,
            -0.019535964243596705,
            0.046056692459894896,
            -0.049107945400489586,
            0.07233751647883642,
            -0.13270489626204945,
            0.055430495486551726,
            -0.14107487592426013,
            -0.020712344990606136,
            -0.05202393532837336,
            -0.06847786782796812,
            -0.006932254517928063,
            0.18839159262420233,
            0.025508523651758812,
            -0.1785523505813238,
            0.082514216916794,
            0.11377723124088851,
            -0.017183281636762953,
            -0.11376695768115085,
            0.07530083047839525,
            -0.07565228905819446,
            -0.1762766252416926,
            -0.01811132503826254,
            -0.020116581952555553,
            0.0005388324814228123,
            0.164547144608831,
            0.027673147155466614,
            -0.07813372617471077,
            -0.1624068544356523,
            0.11987775072851024,
            0.07268107178984944,
            -0.054082682667682576,
            -0.10219359562140964,
            -0.10443548101988244,
            -0.04528758937360441,
            0.006376975163773594,
            0.07610888824713324,
            -0.008963535126466766,
            0.1311107174277569,
            0.007320919010528254,
            0.1376240770859965,
            -0.09417560643747307,
            -0.02175255212136488,
            0.09236390335003174,
            0.05418555216461729,
            0.12330961584613692,
            0.1842990486972823,
            0.1067916895485657,
            -0.04711484821267113,
            -0.07185419122899898,
            0.023137360519987223,
            0.10778024337784517,
            -0.05745944196922775,
            0.049391316360863066,
            -0.17522648124191906,
            0.121780442450922,
            -0.0847873913927304,
            -0.021389748283952556,
            0.015177085892581994,
            0.06954665413478357,
            0.005450040462142247,
            -0.09153673738290001,
            0.05874621967100278,
            -0.030621699570455064,
            -0.08848454358338043,
            0.01824679820508675,
            0.04376734989335662,
            0.0942405868460037,
            0.08280649951361851,
            -0.2007648515899885,
            -0.08227436789682158,
            -0.00029400770612862675,
            -0.020366031170361443,
            0.08203442499783396,
            0.07465394678768264,
            -0.06605469152496354,
            0.07578639477204775,
            -0.05766938322032542,
            0.06935049320975303,
            0.2912918626915561,
            -0.005998113407815776,
            -0.11712909385414803,
            0.03796478649484159,
            -0.09231256350386428,
            0.06946344615453516,
            0.22911686037048526,
            0.07604452883534149,
            0.16178141427198883,
            0.11143891543703908,
            -0.03197231480160142,
            -0.05815519014866364,
            -0.14904038497233998,
            0.26915891786402435,
            0.15069661931815412,
            0.010804721004563814,
            0.029789768132733343,
            0.3043838711218043,
            0.06767965043949513,
            0.0794155572569871,
            0.09872261670201549,
            -0.003211779466157218,
            -0.0805387287995113,
            -0.16948813465484647,
            -0.02506404507085239,
            0.23694208722273022,
            -0.06198983200939496,
            -0.0018497791637778992,
            0.12475190125242784,
            -0.12937960375736388,
            -0.1429277913122009,
            0.10350891704617837,
            0.002307348312049382,
            -0.0993952420725183,
            -0.02919288606289125,
            -0.005067844506435667,
            -0.14193791300966535,
            0.058991285534070716
          ],
          [
            -0.15446670212344524,
            0.0386835013288181,
            -0.13074723494315715,
            0.13759503731062706,
            -0.00656551436193808,
            0.07937969445707188,
            0.1269899041120606,
            0.1658834372735871,
            0.07664197943481484,
            0.06982647144587827,
            0.12523977799196787,
            -0.05889362070138085,
            -0.09337020836621526,
            -0.010767651295427994,
            0.08033604778899787,
            -0.05866816806772808,
            -0.05640501122016816,
            -0.04711265061524,
            0.0006828911244611168,
            -0.12276355000867299,
            0.015865507763286858,
            0.11972219016729214,
            -0.029885469276740302,
            0.0516510308889272,
            -0.028228306022920813,
            -0.1353816637469467,
            0.040530462158686276,
            -0.09755036033503661,
            -0.06046901862455342,
            -0.09465243792957008,
            -0.1235885191810262,
            -0.1667458708815826,
            0.13622788576719105,
            -0.13569639299996952,
            0.029648706154997942,
            -0.17480961605105785,
            -0.0842292865616546,
            -0.11968922894051978,
            0.11042892920783522,
            0.044235039980962725,
            0.24476207137754913,
            0.0983087699116287,
            -0.15340953300763233,
            0.13488867701684717,
            0.001440520509319655,
            0.03934598867401087,
            -0.03857421653857243,
            0.021571907683191865,
            -0.16459718054555714,
            0.13079740145809268,
            0.15263858967674612,
            0.03852937682559344,
            0.17227548152716762,
            0.16764417067636955,
            -0.048571962902572346,
            -0.09589775058168826,
            0.07808347780397401,
            -0.024256661692209757,
            0.018961383770930044,
            0.08661878339793253,
            -0.03391949079784172,
            -0.07938661049417511,
            -0.06533904367414635,
            -0.01699084630252992,
            -0.10284497590128926,
            -0.08020455371111153,
            -0.1617642371203616,
            0.08073731385705486,
            0.18672803555362244,
            0.040821706099848386,
            -0.08412066273915661,
            -0.0855798279293793,
            -0.13434347296166432,
            -0.04042891368563866,
            -0.02965002736994687,
            -0.18969254986467962,
            -0.28092048114285156,
            0.10271132660830297,
            -0.020643765566787466,
            -0.09734121431316195,
            -0.05434834894974642,
            -0.09265939603189859,
            -0.1427102401523864,
            0.015641996471528436,
            -0.07545353092638624,
            -0.11652432475327364,
            -0.068647067193017,
            0.044296489116345907,
            -0.0641757386467436,
            -0.19787919883989102,
            -0.044171789542702476,
            -0.05446110714981282,
            0.0560161941891934,
            -0.05657592862080945,
            0.08336721231118699,
            0.006932995323769547,
            0.09677265954429863,
            -0.09050844381254472,
            -0.05998250832672556,
            -0.16585314815547864,
            0.0348765909115683,
            0.1577374677264602,
            0.10988211262246765,
            -0.04180365360440131,
            0.056419591409025416,
            -0.05523381424724847,
            0.0778594394569209,
            0.1427837046640209,
            0.037224176829791254,
            -0.03616209752232509,
            -0.07384765270642549,
            -0.10019360579117952,
            -0.12867037669323778,
            -0.027118935334731944,
            0.10841069025631399,
            0.11721837722771901,
            0.02971739841341727,
            0.09418471629179544,
            -0.04972943343512069,
            0.08447914722022588,
            -0.0859860933347834,
            0.06100141170736748,
            -0.10794962969603601,
            0.1128483267693366,
            0.01796884415974127,
            0.11929437025718,
            -0.12823159895388778,
            0.07861195332027548
          ],
          [
            0.06369876615126399,
            0.0011493309230667646,
            -0.0698636618232359,
            0.0907064802237985,
            -0.024751585549793488,
            -0.05785417150821993,
            -0.0031463426113097245,
            0.07356694558165142,
            -0.07041365432914767,
            0.041838457645450786,
            0.0126886915272011,
            0.03348685652966418,
            -0.07026373864938289,
            0.01065718326028088,
            -0.12445252684504425,
            -0.07290444647244732,
            -0.15502274173705244,
            -0.08580876129840406,
            -0.04404144090532888,
            -0.026962955781731766,
            -0.14031327760646617,
            -0.10730818734180134,
            -0.2662034688487057,
            -0.0040344999574741325,
            -0.09767701693311535,
            -0.05664192728213182,
            0.27781304218015357,
            0.04489814898771713,
            -0.015843114011908264,
            0.03887680374286452,
            0.07197625105985801,
            -0.005904483352852,
            -0.16594242814414986,
            0.02264772394788442,
            0.14992288912922005,
            -0.08952936593618814,
            -0.05774452566125037,
            0.004923470862097182,
            -0.0356405029097301,
            -0.19737405069445635,
            0.21928666245597653,
            -0.20601727992055585,
            0.14980268022054835,
            -0.039269963953202786,
            -0.1510162958594554,
            -0.19268036600695565,
            -0.1033220386436871,
            0.03230408733578666,
            -0.15719630789883474,
            -0.10961365004678242,
            -0.24911973177184382,
            0.13442963233014305,
            -0.09838020579844257,
            -0.17457203269059796,
            -0.01654181005831186,
            0.011586597311600623,
            0.10639421889197974,
            0.14151285404407868,
            -0.08556401168213718,
            0.08813179534549195,
            0.0012324671736308784,
            0.035137735244966405,
            -0.033877087079806315,
            0.14742656695036968,
            0.08706069839604201,
            0.10455674605994351,
            0.11603175644034434,
            -0.11591052390154447,
            -0.10276936578859709,
            0.27666278620942064,
            0.10817333552135106,
            0.0247834008509579,
            -0.08532707015818672,
            0.012617664835109831,
            -0.10957828712280807,
            -0.24587716606899182,
            -0.10593135653549954,
            0.16578145155639354,
            0.08329400877400824,
            0.06482082159822761,
            0.03761300553490999,
            0.032853903828676166,
            0.08288658101835457,
            -0.007248999226906382,
            -0.12153165992600133,
            0.13953456369672673,
            -0.08985848029964638,
            0.1653412236701603,
            -0.13531616686652795,
            0.016925915925643038,
            0.13126370502972817,
            -0.018010884686727676,
            -0.07380037090212208,
            0.18101670984311458,
            -0.05456883258392447,
            0.0859974030426022,
            0.027857440768018472,
            -0.09591812603153095,
            -0.031215184479652075,
            -0.04631206502328372,
            0.08219420293050839,
            0.0731708778744113,
            0.06392732571877104,
            0.14316068468893053,
            0.04700004561319265,
            0.015017952014455636,
            0.11504600395237828,
            0.04518887348743848,
            0.024096991110346463,
            0.0012068975155749525,
            0.003485832306669659,
            -0.09958245798228055,
            0.030729203825455503,
            -0.07153271159459672,
            0.011370356612109604,
            0.03698430116248104,
            -0.06943590972923755,
            0.1452751701587877,
            0.08332702317369212,
            0.022326493246847892,
            -0.004273135787821708,
            0.05213516732107723,
            -0.11114275028220504,
            0.12648341590546464,
            -0.07873818766445156,
            -0.0921649226813503,
            -0.16370199701757054,
            0.06972799332657553
          ],
          [
            0.10898397968447833,
            -0.073852389861691,
            0.12840011886146085,
            0.004851052788779202,
            0.07652800535393903,
            0.0987539009666407,
            0.09347462832236285,
            0.023426499950406444,
            0.05447640220108024,
            0.034208899824468966,
            0.1436567011176141,
            0.05247121005778717,
            0.06312572466142224,
            0.09352669070434995,
            0.020499445349366503,
            0.22238090137174774,
            -0.07065283627775133,
            -0.07134190381805426,
            0.08725631268283446,
            0.055273049348072985,
            0.0849143099907336,
            -0.0863687667908704,
            -0.10583146118011179,
            -0.002681695443071599,
            0.1132356330981849,
            0.17772407143586194,
            0.03427501867674367,
            -0.023745887180441183,
            -0.17770612617530532,
            0.06293720033685876,
            -0.031753949307460644,
            -0.09972832603583145,
            -0.2813190537965621,
            0.10379760593914812,
            0.06659146412584675,
            0.047816777008273914,
            0.022988736731607222,
            0.05696229317268257,
            -0.0982901197792453,
            0.018841075138777526,
            -0.1268647669468447,
            -0.25373945364118106,
            -0.07062041330525382,
            -0.2959127952253286,
            0.004762837371880047,
            -0.15717215933477005,
            -0.10029617787215259,
            -0.12309725352542393,
            -0.13410017430024565,
            -0.09243270038626286,
            0.08024050538235845,
            0.06147861639575798,
            0.0011754995087384678,
            0.10943158399763851,
            -0.14053280447060484,
            -0.050284795542813815,
            -0.10091714133127513,
            -0.2226668603859447,
            0.0048200348839188166,
            -0.026801015102064014,
            0.07654622609361787,
            -0.11066905690950017,
            -0.1516986428290883,
            0.08955462756192872,
            0.09595932223015739,
            0.11810982328056385,
            -0.1181965969598751,
            -0.0011369795896386797,
            -0.03902750422786428,
            0.06662591420163794,
            0.01703754549508074,
            -0.02629831319866767,
            0.06306206765924166,
            -0.1393276133015155,
            -0.07226074412534107,
            0.026827520194805988,
            0.013308510023294714,
            -0.1112898544991841,
            -0.1300827899820281,
            -0.02094280208603858,
            0.0015964343155810523,
            -0.18047307064779478,
            -0.005667856086089777,
            -0.09356839670556943,
            0.3639828272705293,
            0.09267004153479519,
            -0.031749145242064826,
            0.23283398632418673,
            -0.21603940742916103,
            -0.11172071004273906,
            0.021325537064648226,
            0.06418197685227621,
            0.013521184629486765,
            0.0392167872628701,
            -0.039670933125640476,
            -0.06967240665180185,
            -0.10133996635549766,
            0.05081973338896786,
            -0.07126421190499371,
            0.1043085123376007,
            0.02348831872298532,
            -0.16492644708761783,
            0.11923724544553893,
            0.05177565685839375,
            0.03651308763850195,
            -0.22873926629794739,
            -0.003270534907775745,
            0.08358479246441061,
            -0.07137923571849931,
            0.0026630981294532997,
            0.033209384467422484,
            0.029725001376782665,
            -0.13747415940826083,
            -0.038145707888442286,
            -0.07632173278785696,
            -0.03983620156921443,
            -0.020925175000689317,
            -0.2461179478817281,
            -0.03675185149226413,
            -0.055583041810238945,
            0.09900369916242144,
            0.06761506724846417,
            -0.08971063356576359,
            0.06000798924995463,
            -0.14397456472822,
            -0.12452137363929022,
            -0.005053776464710164,
            0.04182625871085886
          ],
          [
            -0.16254178068219774,
            -0.12951672957157837,
            -0.10866031957200521,
            0.021961571378192147,
            0.053927558272367726,
            -0.14744219908042785,
            0.0532045062631616,
            -0.005634138038919283,
            0.057111337986379844,
            0.12491383633784028,
            -0.15422673006448465,
            -0.0046569134419836775,
            -0.09507783033918271,
            0.01692085760210196,
            -0.14474239280618445,
            -0.0513278768020427,
            0.04440832502006918,
            -0.013036754612984387,
            -0.03299414128008234,
            0.06293733478118597,
            0.17825710786955665,
            -0.24698881109054746,
            0.08363530235154461,
            0.09371371571088047,
            -0.04235136116991638,
            -0.049601483772464115,
            0.03779049222382672,
            -0.06764985281084042,
            0.06408166118731601,
            0.05893811427840863,
            0.10433145221140877,
            0.07331306704658094,
            -0.13840184582391182,
            -0.06931421570812615,
            -0.13816100170111756,
            0.10112434992140401,
            -0.03316700799857119,
            0.04288492530483158,
            -0.10601620026003193,
            0.08782001608437473,
            0.04610046291067636,
            0.12003269808494889,
            -0.27918032246557306,
            -0.10531878029124352,
            0.0036997448351231074,
            0.013952562715982105,
            -0.10977643739117858,
            -0.20506687219081499,
            -0.03933321494888892,
            0.09826104812270056,
            0.00254669092755957,
            0.1191389597338871,
            -0.025447129653608413,
            -0.02459107882870694,
            0.0010173563228928102,
            -0.004525374581268394,
            -0.023512200503948047,
            -0.0598535705635904,
            0.20590110988093552,
            -0.24142274943240033,
            -0.11084662467380706,
            -0.10098466049072025,
            -0.1324124421383316,
            -0.06090246615273389,
            0.13840310423656696,
            0.09351214001273829,
            -0.12929120037826436,
            -0.15885782238238064,
            0.168920596201703,
            -0.1295263348887091,
            -0.001020868086135301,
            0.036703527121589634,
            -0.08300293388338492,
            0.07130483948651258,
            -0.29178147863060994,
            0.10693541748927289,
            0.10562217432184072,
            -0.10217257413492478,
            -0.16071688024042413,
            -0.1497407950190636,
            -0.0912816395988376,
            0.10657211096730462,
            0.08024342709616399,
            -0.1067490571450439,
            -0.028060846148393104,
            -0.14624673638850827,
            -0.15717076095239868,
            0.008362236634067986,
            0.010334715806232507,
            -0.19098717548040933,
            0.021498284642191615,
            -0.05042077758428544,
            -0.06664202862473997,
            0.06546867467842704,
            -0.10808174732208166,
            -0.11006775574057752,
            -0.062441568294467606,
            -0.07025360052966734,
            -0.21440226531982368,
            -0.12349238230503697,
            0.10681603216899022,
            0.10439489848224297,
            -0.09894900662811677,
            -0.10650521030453058,
            -0.04260749881396995,
            0.012087936819500822,
            -0.14446907417214463,
            0.1862120263892424,
            -0.062226223419210434,
            0.1556007257205896,
            -0.04286482118249003,
            -0.05407404038269081,
            -0.10928600290199063,
            0.21843297051373514,
            -0.011813097136726219,
            -0.23671009927114897,
            0.13344902881138943,
            -0.11983593247849875,
            -0.058106404181968295,
            0.08791486195540572,
            0.03251448893710626,
            0.037086808340124074,
            0.15462071790820575,
            0.0557051692726313,
            0.1086051205683541,
            -0.09288543084736144,
            0.09432294711731315,
            -0.08711327846501074
          ],
          [
            -0.056879143614877344,
            0.03205248940558553,
            0.013295644324987001,
            -0.055430142775781496,
            -0.1200797994533601,
            -0.007521895297611103,
            -0.1636858725894134,
            -0.06985059424679746,
            -0.13400382628595822,
            -0.21804462171078456,
            -0.13390732915912587,
            0.02859341523591307,
            0.20356315604213296,
            0.025629270786533438,
            0.06473082972804146,
            0.08282008930089449,
            -0.07199850526438469,
            0.2788901783695639,
            0.06754416740989293,
            -0.1517775903197871,
            -0.05219665337654217,
            -0.05996475504401585,
            0.08274640372425865,
            0.01414896765089495,
            -0.16135523401065868,
            0.07458625342731653,
            0.13669033305904651,
            -0.1308288569183276,
            0.005132246795607431,
            0.11690921438163238,
            -0.2027859915905289,
            -0.018822583513822683,
            0.10725077982135324,
            -0.05146749997614674,
            -0.010585510852791689,
            -0.01268111186659085,
            -0.13605009804782053,
            0.18182748705823104,
            0.03580371086488144,
            0.10306272657559727,
            0.10769372164652989,
            0.04221973357384307,
            -0.010356202344136808,
            -0.08425246566036854,
            0.03262724691176312,
            -0.0582890762895738,
            -0.16007462049559418,
            0.1275865116809295,
            -0.07084934985576279,
            0.13255892142515258,
            0.1107517246192068,
            0.06773347164110287,
            0.03663217231264104,
            -0.15864655863433783,
            0.05754160267507667,
            0.023712190371653646,
            0.0720989825988118,
            -0.25492495546450855,
            0.07496750436142002,
            0.13519662798903204,
            -0.10883667904467939,
            0.1169876604805746,
            0.04618029768251482,
            -0.0030742188629558393,
            -0.02671631415574388,
            -0.0003728589212186379,
            -0.022122748133661625,
            0.18881067005861185,
            -0.023174886879750275,
            0.011052796633569466,
            -0.06542920960985264,
            -0.13469730492941992,
            0.11222925902324801,
            0.23122962424325114,
            0.19968427590266274,
            0.11446338275773277,
            -0.011588847729945456,
            0.014682175583968055,
            -0.07358528718697718,
            0.11176997779426284,
            -0.012421462719214345,
            0.04428826937465278,
            0.045518177792404316,
            0.10100553173508076,
            -0.0888227193804906,
            -0.08267275143946451,
            -0.02441255441534725,
            0.16337276328002515,
            -0.12340102606385468,
            0.29214914750142684,
            -0.2326114606477299,
            0.11715343955031679,
            -0.15500529151621983,
            -0.19210745654552228,
            0.08428440125745133,
            0.024132749862342408,
            0.02781923493726349,
            -0.04150643835048988,
            -0.20850935684229818,
            0.1255892616324677,
            0.1487966422269483,
            0.0019329793361369278,
            -0.004311468250019895,
            0.02413400218057974,
            0.03141783702870462,
            0.058123442947722516,
            -0.17183150451571902,
            -0.018429618966731082,
            0.01560687005103663,
            0.16222122110807535,
            -0.0697916764443108,
            0.03582881826579973,
            -0.00980194602158982,
            -0.183686956958679,
            -0.1980750503006344,
            0.03115416557701596,
            -0.07132115571929606,
            0.20794365296836972,
            0.022111671211505965,
            -0.09231604987577623,
            -0.04146893395921734,
            -0.11703756895343836,
            0.16841920186865644,
            -0.10050020047232992,
            -0.202450565348899,
            -0.0458167109871904,
            0.0964566397968401,
            0.06329924263263911
          ],
          [
            0.03938440420682634,
            -0.05725858946105107,
            0.3116582978929598,
            0.13698304362969882,
            -0.04038836409956821,
            0.0032527776430209035,
            -0.167713442232804,
            -0.03706579153921203,
            -0.14582173083503283,
            -0.05494520807176519,
            0.08531146168841103,
            -0.011705771336340137,
            -0.12473543756334761,
            -0.08128604701546736,
            0.00156017562139419,
            0.0762462203296323,
            0.03177271399716773,
            -0.0033383842559156214,
            0.0371389556344024,
            0.030398399319258224,
            -0.06705621846498822,
            0.037646661202957725,
            0.17670994193551054,
            0.06915990444330163,
            -0.1247803925257326,
            0.00685294327822996,
            0.08844047741531656,
            0.021053501510085722,
            0.20858784118692972,
            -0.11296825841813406,
            -0.035394988862113785,
            0.2034732029263329,
            -0.012590458545045997,
            -0.08270492418001492,
            0.10262193089306446,
            -0.15380863281722662,
            -0.002262221745518015,
            -0.12197241795431822,
            0.055952692211765624,
            -0.08890821596652992,
            -0.0673540191395941,
            -0.18968441354177698,
            -0.11442413368711117,
            -0.08486631877317316,
            -0.12068446866315459,
            -0.03674589245662018,
            -0.3111347537518718,
            -0.05558402133296837,
            -0.14453715706543513,
            0.03485642605323761,
            -0.10734038273311175,
            0.002189558409225781,
            0.11531320273478972,
            0.035817967780231864,
            -0.0930532243334673,
            0.07923013267593583,
            -0.07380633022147673,
            -0.021979260986311696,
            -0.25163899435970716,
            0.1596792640214223,
            -0.03344192626422648,
            0.012331748713067518,
            0.14414704341613813,
            -0.058062434109030156,
            0.07597462349432807,
            0.17408794410052225,
            -0.059890267700017506,
            -0.014097321531497594,
            0.11885277554022293,
            -0.15805629092215343,
            -0.0411757834903104,
            -0.06557219908636139,
            -0.07306544639111903,
            0.02719018695784508,
            0.031540430775621395,
            0.035189696219915745,
            -0.00968010643630719,
            0.12004245257131262,
            0.09708323429079951,
            -0.10174789853061389,
            -0.08379278094925471,
            -0.12421204161099751,
            0.09138244543221255,
            0.050376385853250834,
            0.0006852994612212114,
            -0.11298901530619557,
            0.06306599738779498,
            -0.026246039919051167,
            -0.15177512626225942,
            -0.19697389179481023,
            -0.018306226300747564,
            0.0018944146328505672,
            0.08638300987218264,
            -0.04275510858203106,
            0.12208560738913171,
            -0.006342137334987745,
            0.04807372080580205,
            -0.04371101478303665,
            0.06092567071703553,
            0.04692034041132671,
            -0.05933187260550313,
            0.012460768595395785,
            0.18596816976099353,
            -0.07201926190882398,
            -0.09473331938633679,
            0.06203127858972018,
            -0.11544690058326666,
            -0.0674133143965357,
            0.09212344186436128,
            -0.03558945998936815,
            -0.08460381089334419,
            -0.14508346882703166,
            -0.06827961025691534,
            -0.029251422589693193,
            -0.17818907292207287,
            0.06312767601998437,
            -0.12936640285593604,
            -0.10048158783750631,
            -0.08747301235992333,
            -0.042057180120398975,
            -0.11270208291290894,
            0.02768400281455493,
            -0.00147113346061411,
            -0.01379031064077544,
            0.05645379913783812,
            -0.09852315478221998,
            -0.05869260521311709,
            -0.049308508061159995
          ],
          [
            0.08051840437341383,
            -0.09664224538987641,
            0.02765648308820953,
            0.060748367313943175,
            0.04315367054195257,
            0.03980683293410809,
            0.06569141434448199,
            -0.13243265737706805,
            -0.06262042232391853,
            0.0304659383114222,
            -0.06814112359813185,
            -0.042238899040296915,
            -0.1260674078429981,
            -0.08108935118267753,
            0.037153417392460815,
            0.09851809308243645,
            0.0022055272638293313,
            0.22299476645318653,
            0.19992284818284178,
            0.07772652244376523,
            -0.13848579135631303,
            0.10914412383115088,
            -0.14105153431585957,
            0.11711970415014578,
            0.13322997234226014,
            -0.11392272082228717,
            0.09364991551014867,
            -0.16496728059538948,
            0.0007430936072821958,
            0.027422254227558198,
            -0.0067632099038032805,
            0.11903955025642872,
            0.2140677028617955,
            -0.0061532263214064565,
            -0.06309104346167545,
            0.014330760245763626,
            0.07461179025414749,
            0.0022974712703339143,
            -0.15831371582323595,
            0.060642498302542217,
            0.07429656587577955,
            0.09162420501914283,
            0.01780039884262636,
            0.03530379915073751,
            -0.132434584438107,
            0.11325825865541649,
            0.07603109080011274,
            -0.02545199533199765,
            -0.0023316744235416407,
            0.1551948027351029,
            -0.019176960237251232,
            0.040315303038771316,
            0.00459372552670723,
            0.05249608050124101,
            -0.1163856128674484,
            -0.012793468275827058,
            -0.01552958685029424,
            0.051608629285716204,
            0.047859158829604356,
            0.23423716437425096,
            0.11318185208052427,
            0.004537409258220372,
            -0.2673294793848648,
            -0.09437336728076018,
            0.11611542537782313,
            -0.19351302132558942,
            -0.03344467702380623,
            0.13549037231135455,
            -0.016958076238869416,
            -0.024650118821011802,
            0.06169353037978242,
            0.055712344722062365,
            0.0890917573007577,
            0.10661472347386107,
            0.11338322588883161,
            -0.13090919693048778,
            -0.09854901372011668,
            0.034599660540572966,
            -0.32667822069387514,
            0.1878092570046801,
            -0.0562871219181472,
            0.07398895941390965,
            0.1478291727668258,
            -0.13353461221694524,
            0.1623504159358398,
            0.1072101435288346,
            0.09806421949662242,
            0.000857170645422432,
            -0.07420673861585546,
            -0.09044846120376289,
            -0.05840704188344591,
            -0.08927710348541391,
            0.11621309928019004,
            0.010613103504704412,
            -0.017765759513653834,
            0.15600865900071434,
            -0.04851730936563255,
            0.059004531858064924,
            0.010270935648168833,
            0.18120805832729384,
            -0.11973039611867951,
            -0.05934019188153863,
            0.05115960249641517,
            0.02730880141431908,
            -0.06407874249010893,
            -0.020251026745572765,
            -0.05388040668193936,
            -0.035394854184778675,
            -0.17523947436742418,
            0.08406017031041801,
            -0.06621701671466486,
            0.07819496720752242,
            -0.0737457020945923,
            -0.2387584303459014,
            -0.028523688232628994,
            0.0024005662912412232,
            -0.05506563672962445,
            -0.06411198636932039,
            0.09179812843067975,
            -0.022331075413398373,
            0.002982917747150796,
            0.2800512770604215,
            -0.03300450433074724,
            -0.20065558516280468,
            0.04550136544523918,
            0.16151765791146996,
            -0.11969771265847588,
            0.19745265520133118
          ],
          [
            -0.006666930721737532,
            -0.13764658611873617,
            0.10564689535555034,
            0.0941620167575626,
            0.04306474017311819,
            -0.2229646695704876,
            -0.016169719771322845,
            0.018114153034363003,
            -0.08844018945402393,
            0.054564986818771095,
            0.04981096470153167,
            -0.07137750788968453,
            0.013579895233219418,
            -0.07548645910148101,
            -0.09302311089740625,
            -0.051593334664123275,
            0.1545269400462631,
            -0.04319307901100068,
            0.2559912737956324,
            0.02252633786599565,
            -0.17074638721844007,
            -0.1451407964772043,
            -0.08449098443098836,
            0.0689885561611625,
            0.06954485368524636,
            0.1690537961021721,
            0.03932365981699816,
            0.19312864854722908,
            -0.08072911712888999,
            -0.028521823730963312,
            0.12588307058082954,
            -0.061717985318461795,
            0.03648333357240432,
            -0.1553432890726143,
            0.1720448444539395,
            0.12068215874516743,
            0.18016421036070235,
            -0.01347260532926424,
            -0.05977424709737655,
            0.07527176548918506,
            0.0015021959869187262,
            -0.02745852692247717,
            -0.18369190737138086,
            0.0620865909795383,
            0.07363365130904241,
            0.06636481009734968,
            -0.01814980815496901,
            -0.1672701760501188,
            0.18697178192932445,
            0.12342430733762562,
            0.32298294531266786,
            0.027655487757433084,
            0.21152006683954966,
            -0.08489262616432716,
            -0.0881049424811309,
            -0.1240225219442872,
            -0.051983438946130785,
            0.10562819076415855,
            0.2604960737060852,
            0.0808381030797259,
            -0.04897736009618011,
            -0.015288983153623866,
            0.30292038193467563,
            -0.19768123602762466,
            0.06607524633813186,
            0.08553334469033033,
            0.10038350269048694,
            0.15750049700322608,
            0.021245451232615443,
            0.15776911708993635,
            0.17179553918039484,
            0.13458250219113252,
            -0.02813699819491664,
            0.23333617976999904,
            0.2170409793475184,
            0.020238266005613594,
            -0.04542735203825617,
            0.09227019574074136,
            0.05252427361158499,
            -0.20252015588089095,
            0.06067885478463581,
            -0.04178345860493984,
            0.10330149879607943,
            0.11597415512244376,
            0.045329500187711425,
            -0.06638857647928235,
            0.16618342147190823,
            -0.00417590373258112,
            -0.03094377544090949,
            -0.039922234489752864,
            -0.020723844616956023,
            -0.12749278885174256,
            0.1594782115875066,
            -0.019935410026192982,
            0.03655908018599664,
            -0.10832258910517431,
            -0.06332869556863939,
            -0.2196021038496462,
            -0.013965227502829476,
            0.04312099363975148,
            0.03229145271151365,
            0.06937735887133124,
            0.17492891622632972,
            -0.07520628684090572,
            0.09785273454322554,
            0.11542392577622525,
            0.028217624700368624,
            0.1524632468220992,
            0.10121487307059349,
            0.020820814774052114,
            0.11740475197920769,
            0.02482236472756243,
            0.027798402898950424,
            -0.058188552717517196,
            0.16475040414294018,
            -0.13567017367148437,
            0.05302987821622123,
            -0.0454140487370786,
            0.20980552539507252,
            -0.127577626000873,
            -0.21061185273349098,
            -0.05697964989525658,
            -0.13095454149701805,
            -0.0667667610136644,
            0.1621242548417588,
            0.03167055438493568,
            -0.1529623450068817,
            0.13711613266451128
          ],
          [
            0.16113684884997884,
            -0.015665709117099313,
            0.09262893549364068,
            0.03691729650040412,
            -0.08865300418366337,
            0.16060241399298403,
            0.0412379911952292,
            -0.15804307910103985,
            -0.10799513886394785,
            -0.13544265768848887,
            -0.13148509664741892,
            0.0017384213938050886,
            -0.022277882486281476,
            0.08423152740438242,
            -0.12111545928675707,
            -0.04407738986687309,
            0.09109236005932897,
            -0.07758386203393634,
            0.24649639276752855,
            0.02587756118260696,
            -0.06940402615289576,
            -0.011648983561734681,
            -0.22448056354927168,
            -0.004795903329907337,
            0.09765614026602593,
            0.04473101044575178,
            -0.11675002581027243,
            0.09261873091180454,
            -0.05479547168099227,
            -0.09517648299800524,
            0.026213304335603496,
            0.1953605230281278,
            -0.03997499715758752,
            -0.15247663381435003,
            0.19995520149422696,
            0.20704908322659757,
            -0.11506723052734517,
            -0.08918711840067778,
            0.01521679268031198,
            -0.034022396346063674,
            0.1868834140931861,
            0.045982433171764286,
            0.0820103002600191,
            -0.25726689313290146,
            0.18062576666467142,
            -0.20892023835168927,
            0.0816216611956285,
            0.006974291827155387,
            -0.033101398669658604,
            -0.0849754528362387,
            -0.08236076483524185,
            -0.03021230192114979,
            -0.0526446243227038,
            -0.06252553779796166,
            0.07196317972808274,
            -0.003513202289341995,
            0.09815922265408668,
            -0.1538641657038025,
            0.08183982783400406,
            0.00976018507515387,
            0.0006297533214756582,
            -0.18355820555449573,
            -0.1287369006091919,
            -0.03419488748295606,
            -0.14479894786290298,
            -0.15534030014317451,
            -0.19411293329711743,
            -0.03779613252698167,
            -0.050402712156290344,
            -0.058395963728334624,
            -0.16415190288677092,
            -0.006985405660236095,
            0.024192508583528203,
            -0.09929555870869906,
            -0.05203853407047827,
            0.05405263294712457,
            0.11903608736501457,
            -0.19359015052716694,
            -0.017928310315315447,
            -0.014365984507947188,
            -0.016638601931659933,
            -0.11589539533132363,
            0.06601514113319808,
            0.044040740755834126,
            -0.06873585575891682,
            -0.034898102414692676,
            -0.0809579570408633,
            -0.1518652262289268,
            0.1177855704205836,
            0.06769498375317422,
            -0.25851734388441067,
            -0.03530586847973022,
            -0.14072296009721538,
            -0.049608361553850885,
            -0.030649544098209025,
            -0.04103496083550932,
            -0.06664509034372999,
            0.10550380331775633,
            -0.06552732229969775,
            0.04142701968834648,
            0.01773200282873671,
            -0.07235679976694764,
            -0.08563844453834502,
            -0.15598881000371073,
            -0.1972466660934177,
            -0.090635865543615,
            0.04794439366699428,
            -0.00750558117854814,
            0.01952351652446701,
            0.06202868778644334,
            -0.16665610585450966,
            0.03901923749036149,
            0.1870822604728547,
            -0.06941104748147159,
            0.0028294795763468728,
            -0.0017478837683995371,
            -0.046838866164581786,
            -0.10017184358846543,
            -0.16141477657823386,
            -0.1617401708547154,
            0.0424912477216882,
            -0.25437680109291194,
            -0.020910495225392595,
            -0.10728754346245914,
            0.08720708792931307,
            -0.12646226874853383,
            -0.060320340097296414,
            -0.05957845498851915
          ],
          [
            0.06638849516657248,
            -0.021869147117304373,
            -0.14380849426014283,
            -0.1346807675579195,
            0.09450117817694174,
            0.1625957780581929,
            -0.03416194480059093,
            0.1366510402064066,
            -0.15317764361809585,
            -0.061587039984358445,
            0.0023361196700327747,
            -0.24885381966089629,
            -0.025509735154108086,
            0.038166278111629835,
            0.029439203866843247,
            0.11351908313390491,
            -0.0770573921532788,
            0.015386483409603096,
            -0.04711237244008213,
            -0.16226471312020904,
            0.09502460395841336,
            0.09167092070582919,
            0.06656788335641493,
            0.16648637945959233,
            0.11055644048582237,
            -0.07221337739464598,
            0.03479190629300804,
            -0.05708064834858561,
            -0.18295229934452156,
            -0.012498093511612969,
            0.1503928011425029,
            0.12437799742982159,
            0.04529070243043638,
            -0.005445002325216851,
            0.11137088708181249,
            0.16864974952004752,
            0.07759594566848381,
            0.17271133121370957,
            0.14958190534253346,
            -0.07849950374717807,
            0.0037321828514883157,
            -0.0524662508586525,
            -0.21263057473516653,
            -0.107161515164082,
            -0.003398527687167447,
            0.03402460979952535,
            -0.06469632659427257,
            -0.0333896233820873,
            -0.11858591889953522,
            -0.2046200092546471,
            0.15588779453601537,
            -0.006396032848469927,
            -0.07307376570542393,
            0.07430063495448379,
            -0.10690367209096402,
            -0.1474192185290831,
            0.0618462429218884,
            0.07038241713374459,
            0.06306240674790796,
            -0.03700700603985947,
            -0.18222473454769111,
            -0.013462938589358767,
            -0.003465505471333176,
            0.014414230742941578,
            0.054512203526908824,
            0.11215804243821581,
            -0.10124243620799225,
            0.027681156827815155,
            0.052228491131898286,
            0.06385393124338147,
            0.053868903504740315,
            0.15757713752345298,
            -0.03283281451160051,
            -0.18387546125620016,
            -0.025678996410693527,
            0.042078088619230576,
            0.16435044044421532,
            -0.11646772804167103,
            0.1399775242278732,
            -0.09754832426776189,
            -0.016375920869886346,
            0.035510016541556465,
            0.20651214119304326,
            -0.2507543110601125,
            -0.1709365597749658,
            -0.020074694306735138,
            0.07914244495603442,
            -0.167368818091083,
            -0.06504383663031996,
            -0.14152655276383058,
            0.03652181876641857,
            0.10447061504853519,
            -0.01454135705132548,
            0.13065537796514629,
            0.08342963780649572,
            0.19446520678480825,
            0.1344711807942861,
            -0.07583413110985597,
            0.1402300116271678,
            -0.0417385783950921,
            -0.13084298917391565,
            0.17472901627162538,
            0.16231318316943089,
            -0.04607464503325862,
            -0.02956135189008507,
            0.09229456983726454,
            0.07479275911971135,
            -0.058376036263721856,
            -0.2110784390600226,
            0.05379672456777718,
            -0.09108794823999024,
            0.0009859533900749254,
            0.05332542999421808,
            0.08470698688575579,
            -0.10932573102502838,
            -0.022509327654619174,
            -0.18420659817393734,
            -0.05366994344971563,
            0.05574529078635128,
            -0.07407098527331944,
            -0.09002134569906503,
            0.009603542486684212,
            0.015133181387313092,
            0.09633524385199009,
            0.05510222064379814,
            -0.019658831113995842,
            -0.00557857830156481,
            -0.05994094612322455
          ],
          [
            -0.15365968947430594,
            -0.11771672462568913,
            0.002710612396760233,
            0.15582804180255125,
            -0.09570568364533462,
            0.12119815075942435,
            -0.07152842354376972,
            0.028769106114416534,
            -0.017997089133414537,
            -0.05251335134950432,
            0.011880647566908884,
            -0.1725720895084059,
            -0.050386110502746224,
            0.011703924665462112,
            -0.0013593822190502913,
            0.18442828463139582,
            -0.15293494815319092,
            -0.05789377735726836,
            -0.0662550586138711,
            0.077378671662878,
            0.07424310414942403,
            0.04641089577620505,
            -0.08215482088818835,
            0.1953169306830065,
            -0.1273365151138429,
            -0.1060305573463911,
            0.16826844145657122,
            0.04654986453242963,
            -0.04182763650612535,
            0.24986789523718475,
            -0.013125256018296344,
            0.04666523313674871,
            0.0431857994052439,
            -0.05841870157742525,
            -0.004714347753235205,
            -0.17787345829480114,
            -0.13532505534379877,
            0.13183768490856365,
            0.03913926036706525,
            -0.07160866124796235,
            0.061099334367393586,
            -0.16610278471696507,
            -0.09744214488472465,
            -0.08011154262657075,
            -0.13721415313243765,
            -0.052522614470394045,
            0.05543646284384443,
            0.13027079445037484,
            0.16086213974692568,
            -0.041032940910568846,
            -0.044641578088658394,
            -0.03252002152951453,
            -0.2692339717202356,
            -0.12059235959135324,
            -0.15562100525241873,
            0.21944600340193254,
            -0.07915307797546844,
            -0.020645214398937288,
            -0.18103169853722045,
            -0.031613594303343526,
            -0.050836893021439254,
            0.10613169289391992,
            -0.20190174473785724,
            0.17995514746495586,
            -0.08858684231414164,
            -0.14797733221791473,
            0.10715673384459962,
            0.06716053405967816,
            0.15591116129625457,
            0.05150061447121558,
            0.008248823633346922,
            0.09716328656744186,
            0.05228556257389557,
            0.1675310856192364,
            0.04083107947246708,
            0.06698585888442858,
            -0.06339321222221429,
            0.07445565073083568,
            -0.17818453051266428,
            -0.05329403632643068,
            0.05110864532154326,
            -0.034663432757506454,
            -0.25944272653140715,
            -0.023121088096419704,
            -0.18532173744674635,
            0.08350141531199595,
            -0.029831482184888413,
            0.11706023918999803,
            0.11905043089372881,
            -0.0903922502478252,
            -0.03414753604194606,
            0.06085607634532298,
            -0.148499112755706,
            0.06581484827619637,
            -0.060228688150956465,
            0.009698474917268498,
            -0.172657849648684,
            -0.007709892346733092,
            0.014442840673184904,
            -0.03464020193605692,
            0.02336763786072722,
            0.003541339353243418,
            0.09513809046359656,
            0.18617392756393164,
            0.07779809382133833,
            0.019450577614222024,
            -0.0676485162752405,
            -0.043524572786225124,
            -0.0060716142000774905,
            0.027758006590942852,
            0.014635531760107753,
            0.13731477319448557,
            0.057260511673524396,
            -0.008791643291406035,
            -0.0036549845951746388,
            0.014094411226992702,
            -0.17017005078245592,
            0.22541445803026847,
            -0.152201239154138,
            0.2711067707279065,
            0.015076065234381162,
            -0.18801951843219267,
            -0.1257483948846373,
            0.014754839602857745,
            0.15576958317819797,
            -0.04031750882564624,
            -0.18766818173895167,
            -0.015812188673195744
          ],
          [
            0.11782721336262252,
            -0.08164123509951902,
            0.1291012111595935,
            -0.058956664965340654,
            -0.055701607916237475,
            -0.003444750913180415,
            -0.04054747152442385,
            -0.025411714199495155,
            -0.11989493807734761,
            0.1425867072009281,
            0.0914808804580568,
            0.04195918026997632,
            0.0979089858146518,
            -0.09154058909246351,
            0.035486571810033084,
            -0.2510494648017051,
            -0.11078847193702158,
            0.07277535340630745,
            0.11388986885193204,
            0.033526645959727826,
            -0.05676726532058434,
            0.07878316240085075,
            0.02459199303213319,
            -0.0007063445505093524,
            0.058934685098709805,
            -0.14922522946021144,
            0.12018424580150201,
            0.042105026161075344,
            0.11945409654588209,
            0.09289297301974277,
            0.028088154984412538,
            -0.07150760602983977,
            0.15790802138641932,
            0.06303756699842121,
            -0.04703188885377672,
            0.11208022122503054,
            -0.0938303642848948,
            -0.016593689710643265,
            -0.05930920023626384,
            -0.13484299610792594,
            -0.05378325628008386,
            -0.19267612577815196,
            0.022379227547982543,
            -0.021474330745952157,
            -0.24349165316956203,
            0.018535478801800297,
            -0.1866831798880793,
            0.0002987188094554991,
            -0.07242217620487894,
            0.07691120166964968,
            0.0031519940428778805,
            0.04834102285804183,
            -0.07892694828023612,
            -0.27732685296388865,
            -0.05707931233106016,
            -0.02580362185433451,
            0.19634053119121692,
            0.1140580341229901,
            -0.08064931558542537,
            0.16063216036473713,
            0.036109263058070835,
            0.1517729627643587,
            0.026335552853803835,
            -0.1466497660817267,
            0.12973756102854167,
            -0.18408363902629538,
            -0.00787415149259352,
            0.03875988952452617,
            0.06881363686292052,
            0.012272819424013124,
            0.23882885603287196,
            0.10018306091445152,
            -0.12220803629190044,
            -0.044721331855599684,
            0.006002735672190423,
            -0.014395278715664536,
            -0.09674521758092691,
            -0.11615062395974567,
            0.021729942602212265,
            0.07863548335000758,
            -0.04541918174224048,
            -0.05286989305614457,
            0.08311513489201978,
            0.01977211116188628,
            -0.059546171144542526,
            -0.057101977108967826,
            -0.04931071737795747,
            -0.06718465098895947,
            -0.0554165629302131,
            -0.10373337645802105,
            0.11408611895350429,
            0.02283623232170316,
            0.22739709247774742,
            0.04060032979579893,
            -0.07282539773763601,
            0.04298298367722439,
            0.1892994824632303,
            -0.17787637940914577,
            0.1806391393289669,
            -0.13092753238850463,
            -0.019975366593617632,
            0.00281987255107845,
            -0.014427347430470172,
            0.10410258130992205,
            -0.0283715135328934,
            0.16175934862953217,
            -0.017971239156712112,
            0.05459638791342544,
            -0.0644440744628471,
            0.06219776662410249,
            -0.01924239438364702,
            -0.10343186261608282,
            -0.1521030833915827,
            -0.06983109147658911,
            0.18666745796531004,
            0.024887434454013174,
            0.03792099808607903,
            0.05499582187034244,
            0.03005030122384459,
            0.06532033231111958,
            0.07573169510316556,
            0.034943594306778375,
            -0.12796585295538038,
            -0.024241208644257394,
            -0.15626094888673372,
            -0.11507285785642235,
            -0.022607022020892306,
            -0.19509694887165852
          ],
          [
            0.19114227042533624,
            -0.04566137940817065,
            -0.15914529165907726,
            0.1937556613925059,
            0.017125208100505534,
            -0.05025265219816244,
            -0.08941353316933831,
            0.039208042405899486,
            -0.13874156741659938,
            0.1481108357626002,
            0.18824931733823533,
            0.16277341431232198,
            0.10926904357128708,
            -0.13276061764605265,
            -0.23185679131135747,
            -0.026944548211548926,
            0.09732938619422621,
            0.026858018783872846,
            0.04621080200265115,
            -0.01912517760279483,
            0.0948307803373925,
            0.03915977025584615,
            0.06677708904859511,
            -0.02574806947199695,
            -0.05981564172735101,
            0.06101218675103599,
            -0.17010316503708123,
            0.12871754652793732,
            -0.005706185755135048,
            -0.11373894698652115,
            -0.11557415903977603,
            0.07272366607208838,
            0.0990761676977274,
            -0.21718039150579746,
            -0.07045134514326426,
            0.1339246296037132,
            0.00543370018047084,
            -0.027726815889534035,
            -0.19548951588662927,
            -0.17838783260948973,
            -0.005167696051142339,
            -0.05229407113314726,
            -0.2415977856897427,
            0.09246677064546757,
            0.0807438785921585,
            0.052949547148268404,
            0.12787154633712816,
            0.08347247475625932,
            0.1501106616090505,
            -0.1991487010643746,
            0.20347985221684642,
            -0.08989547394516355,
            0.016212235827632208,
            -0.010646161480421457,
            0.06704706623061339,
            0.038210905071379385,
            0.024465266343970418,
            -0.07530624925345134,
            -0.22077878159407255,
            0.16414417043687898,
            0.19507581334145616,
            0.1678100920938224,
            0.031041377121288405,
            -0.045686954961750105,
            0.05620119326866053,
            0.09356801843653688,
            0.07767738889559983,
            -0.0682652135349486,
            -0.008695805592773668,
            0.07552459957195498,
            0.18388675106918734,
            0.10254704105434909,
            0.136880695027625,
            -0.023334847928934088,
            0.10213158955189881,
            0.28529550342077176,
            0.19889141896190238,
            -0.0871196206403858,
            0.06964790827701083,
            0.034644180031428676,
            0.020662391132355594,
            -0.08187259138962935,
            0.02890534725338619,
            0.12429434464780925,
            -0.13040663404562183,
            0.01852685197839058,
            0.04729551463341685,
            -0.0751040705391438,
            0.03125062062682996,
            0.05403662085137725,
            -0.05628090992734012,
            -0.05046622204552969,
            -0.07547759853128125,
            -0.03162220018383249,
            0.23039942514496117,
            -0.026599502077985678,
            0.0012876436462863844,
            0.044344668320148536,
            0.14058303204736394,
            0.06639877123714219,
            0.029730811226314813,
            -0.05650161460749904,
            0.07280565286465747,
            0.07369415312430233,
            0.11990097703451642,
            -0.03089526359653044,
            -0.07529432970655649,
            -0.09408960758576042,
            -0.02954103462991707,
            0.008775487897935,
            0.15861624379368233,
            -0.03793131472780091,
            0.064919416141617,
            -0.10399722499949834,
            0.07336464554842209,
            -0.02613301174509018,
            -0.11529727203946052,
            0.0300608613498127,
            -0.05744840759748344,
            0.04351127050928592,
            -0.00657841249176523,
            -0.039011111343334126,
            0.24004971829485214,
            -0.10980728440109751,
            0.030696393598636143,
            -0.1267104639618241,
            -0.09838857996293626,
            -0.13322895020524944
          ],
          [
            -0.03235956898522621,
            -0.07957207942114877,
            -0.17422014398806687,
            -0.01608415274201641,
            0.1670440120901419,
            0.1213989388112083,
            0.042132284091001795,
            -0.03594552249783453,
            -0.19399546996313036,
            0.09322809451565202,
            -0.1421415483606805,
            -0.15383415520295252,
            -0.12237385445231745,
            0.001501065247812085,
            0.07735559706550109,
            0.06407567880223614,
            -0.048450266925141816,
            -0.0170342105244943,
            0.09682982424854895,
            0.05179352558297799,
            0.11075695785192939,
            0.19509156398519234,
            0.15159381020333443,
            0.06331565691741212,
            0.19899879684975316,
            -0.13958818162657505,
            -0.12446014093415358,
            0.1192455134355102,
            0.010691028116324471,
            0.02215184483118423,
            0.13284588043021675,
            -0.14634537630084504,
            -0.0721174974058173,
            0.3017623650415228,
            0.10734383866398173,
            -0.015001119018339339,
            0.050375622813014984,
            0.00413115478437987,
            0.04116033714678816,
            -0.19205588975927415,
            -0.017375569280722557,
            -0.07334571384681961,
            0.06245536591506041,
            0.13225843105746715,
            0.027904355776246444,
            -0.01765356922629359,
            0.05726979297320206,
            -0.15476258108931432,
            -0.14539820755403177,
            0.062070592146644114,
            0.09182588028701781,
            -0.05739961837137968,
            0.12745518220039317,
            -0.06852917991699142,
            -0.05414904966244536,
            0.034830301019208955,
            0.05927010890316128,
            0.05724493191839585,
            -0.21759047173107512,
            -0.05766418694820911,
            -0.0775231662722949,
            0.006829543348411581,
            -0.18954826755782728,
            0.004053562638595903,
            0.04563347921346099,
            0.07895239002927698,
            -0.022456471638588563,
            0.03417949347985732,
            -0.031006170438673063,
            0.03102849486669992,
            -0.09300539490102722,
            0.21393971857253508,
            -0.022045619088023813,
            -0.028055458463668977,
            0.10643590606566633,
            0.071378710266278,
            -0.082761138763659,
            -0.0158578945410672,
            -0.13509928307775085,
            0.014040878024546772,
            0.25331373268619645,
            0.27177060756174976,
            -0.15497205287109703,
            -0.034127846620132504,
            -0.021054091087953572,
            0.05994454357146005,
            0.17474074241992632,
            0.06274951308772576,
            0.1362062797419813,
            -0.001972147180273397,
            0.018273058899199224,
            -0.05373245807167255,
            -0.20350504572862438,
            -0.09217447684563754,
            0.13505059151848114,
            -0.04337708595714627,
            -0.11267316489233531,
            0.10415183029868559,
            -0.03468860807479032,
            0.04394467197538857,
            -0.11848761325981376,
            -0.12073566949351217,
            0.15621225901937277,
            0.04138686384686351,
            -0.01912147571425885,
            0.07864162257064398,
            -0.12536400009917234,
            -0.1586754175467448,
            0.03174841992496495,
            0.10287702633497653,
            -0.13255130348064717,
            0.00028499783125100737,
            -0.1473641893560921,
            -0.04244077371434513,
            0.1183994939232488,
            0.09649625496220175,
            0.10794386990649776,
            0.05803049296319,
            0.02306827914358537,
            0.04201140454492692,
            0.017600895116135513,
            -0.04736025950777981,
            0.1295572490393094,
            0.09988846885946238,
            0.04652392794706314,
            -0.03257091801746601,
            -0.06763239424246337,
            -0.19526417226934586
          ],
          [
            0.05854772103529487,
            0.0850138047161591,
            0.10240781348201704,
            -0.04033485480602913,
            0.02616669974857118,
            -0.06829942468012147,
            -0.10252565642696167,
            -0.16065287553917396,
            0.1414232176289335,
            -0.13522693627903729,
            -0.08981649994175159,
            0.030723619188739216,
            0.19580856656472226,
            0.09876184214627542,
            0.05683147911745158,
            0.06085267292242358,
            0.025092192554463662,
            0.06510130022187935,
            -0.02967936893436814,
            0.11698567266928696,
            -0.0817485035448755,
            -0.018021072590614806,
            0.09018515909300043,
            -0.02714845824355988,
            0.08494611722391303,
            0.12062557773025451,
            -0.13101987459556136,
            -0.11767506387761112,
            -0.09017269285520928,
            0.04713993636967244,
            0.30783153044116723,
            0.11754374785828385,
            -0.014684043558289953,
            0.01545400341371402,
            0.06221708891351398,
            -0.11723966633112907,
            -0.1577630634917532,
            0.0007881031669512815,
            -0.0939200780880095,
            0.19023792303338766,
            -0.09269404826276167,
            -0.029925216253111477,
            -0.18125885917239065,
            0.15482545899969638,
            -0.09016924994657059,
            0.025880498801740377,
            0.08429176970949931,
            -0.10839301027826928,
            0.1832326275939835,
            -0.1001149575230728,
            -0.08748255053674754,
            -0.03894890179670139,
            0.002159347065507761,
            -0.010119131551933678,
            0.040769593933579,
            -0.2611254012182935,
            0.100555245217855,
            0.060871164190786614,
            0.04971333117725622,
            0.0815425170801563,
            -0.03389879462777539,
            0.025807759004987652,
            -0.026599271577633636,
            -0.12241269218948655,
            0.05882302139142744,
            -0.008067543700029711,
            0.1083963123799262,
            0.12625110160523398,
            -0.04986958326125565,
            -0.1204231473035758,
            0.08118350535983601,
            0.19252873295476378,
            -0.029399206778321998,
            -0.029119346267576347,
            0.017369847360527057,
            0.04441770404559842,
            -0.08749439004397522,
            -0.10147685397073077,
            -0.17613779417447423,
            0.1996793147942335,
            0.001724287489090533,
            0.12869100651480436,
            0.04070307772783109,
            -0.1479156330187523,
            -0.17188544534579178,
            0.14967171887741754,
            0.004086980170942895,
            -0.00579067755665717,
            0.09821606999277299,
            0.1035086748814851,
            -0.017346345951983325,
            0.01890262099643973,
            0.034379034493282515,
            -0.16548365277262023,
            -0.07851953222349625,
            0.0984686502077701,
            -0.09454881834261555,
            -0.270805155253764,
            -0.10506884587222973,
            -0.028793014433958777,
            -0.12130397046031889,
            -0.11971650497833393,
            0.15268890017907297,
            -0.2801994990739409,
            -0.08512967146993751,
            -0.17092081576055887,
            0.04673893257599595,
            -0.022016702115393805,
            0.011904742862680768,
            0.09462573134201177,
            -0.08008290412084135,
            -0.05862352623124528,
            -0.030273228316424376,
            -0.16282796147314418,
            0.20755379362669563,
            -0.11437401019846381,
            -0.04377842522728878,
            0.08375407867914607,
            -0.030376353400189616,
            0.004020566074256563,
            0.03693162208505207,
            0.10606901716274604,
            -0.05397694166511786,
            0.2100048692890184,
            -0.08108523265517774,
            -0.02388549025787584,
            -0.0691743788471214,
            0.1811918679348465
          ],
          [
            -0.022100416896457652,
            -0.013987325026981271,
            0.033689890083014346,
            -0.005193260208122003,
            0.003247719356985658,
            -0.047519617312796414,
            -0.10668958821146912,
            -0.19711947172185235,
            0.2693383994869983,
            0.003175683367898295,
            -0.12020289852140584,
            0.06609899735742877,
            -0.09282476759211429,
            -0.14378425872395711,
            -0.0315075938638713,
            -0.1758876166553263,
            -0.1935654741377946,
            -0.07527514947153141,
            0.03139257280163847,
            0.19433814212744252,
            -0.035713161023606145,
            0.28830594587861963,
            -0.2110555495717285,
            0.1023532442795314,
            0.13940053085911933,
            0.09197714498807866,
            0.06409646193926814,
            0.05432234367993622,
            0.14412781776549724,
            -0.03221122470896294,
            -0.12157252704002769,
            0.02929057960276985,
            0.04602487303273418,
            0.12538716425948013,
            0.028758691860511356,
            -0.06930178783928805,
            0.07517649862490464,
            0.03017008097841857,
            -0.03835651468700811,
            -0.015872323411138072,
            -0.045495155830763606,
            -0.04322816530078205,
            -0.12497393389120186,
            0.021284887399723774,
            0.08686310998961733,
            -0.09395289230014044,
            0.049118344347047205,
            0.023278219842044073,
            -0.12857519210287294,
            0.04081192448350452,
            0.26767177013160853,
            -0.027409276697793118,
            -0.09449544987620537,
            -0.10206672969923296,
            0.0326282024400499,
            0.02120031865009687,
            0.04448020861447994,
            -0.1110874952317664,
            0.02502398828971469,
            0.14184065545049238,
            0.0029837860137035058,
            -0.0012906864892254395,
            -0.2535210080058275,
            -0.08412236209215736,
            -0.058259709522159385,
            -0.076454794481791,
            -0.058335182780002534,
            0.15560698532875644,
            -0.10688710998735036,
            0.2006635960168484,
            0.09012902156064204,
            -0.14274503308247036,
            0.11756651927097354,
            0.12663737873423145,
            0.03956386687168395,
            -0.21781641203663987,
            0.029019330451961967,
            0.11233652132052757,
            -0.11488359109334316,
            0.12630128756096293,
            3.5782678947996834e-05,
            0.11450681536310313,
            0.03650365285362532,
            -0.09600082971639642,
            -0.09245983062119476,
            0.16050032677953238,
            -0.03620147464482601,
            0.07744595809898,
            -0.14557049746999606,
            0.07560209350334522,
            -0.1639448107877712,
            -0.07287882417714113,
            0.056124793846696684,
            -0.02899510728157382,
            -0.00858502885762751,
            -0.09870543313866995,
            -0.04588776826915147,
            0.08646154460689129,
            -0.12167705261125732,
            0.003615806381488436,
            0.01794061252632201,
            -0.19097940829146687,
            -0.010664924675118946,
            0.0754796972800729,
            0.034709560614095386,
            -0.19802002912458844,
            0.15098455713074876,
            -0.01872056835110844,
            0.1760373054261141,
            -0.1646010235938016,
            -0.03192620544943714,
            -0.06228479419787449,
            0.1338325984584672,
            -0.19770235078252912,
            0.15365019357952003,
            0.09199385751015864,
            0.03285098371417291,
            0.07105913497240102,
            -0.017915401595910936,
            0.1212918489027748,
            -0.06159017735038143,
            0.04672971557301338,
            -0.04835661809464244,
            0.032441052935046774,
            0.09286142323886318,
            0.09194094858454203,
            -0.11930709670659931,
            0.15352674566620642
          ],
          [
            -0.030452913205297628,
            -0.07709967547019861,
            0.041054669363795405,
            0.09642946203299947,
            -0.04223889690108967,
            -0.10692972213160162,
            0.18391074595872486,
            0.08717435317689576,
            0.03748495181315702,
            -0.022895886696727808,
            0.14398876323336288,
            0.20131194133983327,
            0.052451329357748086,
            0.025824263974113765,
            -0.16713711751618132,
            0.12084973619600997,
            0.02669221737826114,
            0.05749233591546064,
            0.15807438824190118,
            0.025892280672107026,
            0.13815516543040834,
            0.04601858449995707,
            -0.09996722535806486,
            0.09412389579856908,
            0.04114536451653324,
            -0.007730382936504225,
            0.13916951699977753,
            0.06592325416784964,
            0.01428176716062151,
            0.0367035066523008,
            -0.04378522164715922,
            -0.007469312173196429,
            0.05480880188531939,
            -0.09277635669260828,
            0.041551263795797676,
            -0.004830647777713083,
            -0.058692045345337236,
            -0.046235146377873744,
            0.042187457443167944,
            -0.027421195541961586,
            0.0433074088259007,
            -0.10899486965884575,
            -0.0017027621016706903,
            0.10820177147157696,
            -0.050720639930543245,
            -0.009753894025264283,
            0.11295256683811863,
            -0.06561783419378106,
            -0.038387182491610515,
            0.1242312976556172,
            0.11020323590775549,
            -0.051567420036674125,
            0.062033016160808425,
            -0.07944811977331709,
            -0.0760630553190888,
            -0.02853752849199652,
            -0.036775691260092946,
            -0.06631571411796909,
            0.07989510218530814,
            -0.1291111636613158,
            -0.009914413020427974,
            -0.0750210606451259,
            -0.06584066790558854,
            0.05812900045174927,
            0.003279593292001261,
            -0.06363976333657854,
            -0.057838702678398676,
            0.00023260613101116663,
            0.26072455269662964,
            -0.010615429099791738,
            -0.019642421858153822,
            0.011901480690407766,
            0.10821442241154705,
            0.023705414916752127,
            -0.026501168809479007,
            0.020898915299466872,
            -0.016463960165941306,
            -0.2197544759420563,
            0.09713426723760835,
            -0.06254031412672424,
            0.06209778372646651,
            0.0033314154105563093,
            0.01797615732607161,
            -0.12002355887206544,
            -0.12346734993791891,
            0.019331734289468175,
            -0.15148251585643746,
            -0.003975368239823959,
            0.17569863643384648,
            -0.08904296339561509,
            0.0893315710706567,
            0.013838171880154094,
            -0.07457073020126471,
            -0.11608805170404767,
            -0.05232778815587364,
            0.05717593243876573,
            -0.03696683865920149,
            0.08899505861506771,
            -0.07585608454041826,
            -0.018719762977368142,
            -0.14966611579110206,
            0.16185610739020573,
            -0.04396815570823041,
            -0.010056569037210257,
            0.0371270885356451,
            0.04541184648609908,
            -0.10637443356132836,
            0.11460527239376324,
            -0.01955591821660774,
            -0.004434488122591858,
            -0.25827542114692786,
            0.04441401182601954,
            -0.24118238554227953,
            -0.16137728247615657,
            0.153563564440215,
            -0.14164299610493516,
            0.1621542117139613,
            0.27900559488383453,
            -0.11049728548319411,
            0.11816978898960576,
            0.050543502125847614,
            0.02865904505565632,
            0.030912482786894676,
            0.008681536492310498,
            0.20166141264979112,
            0.051734675756694,
            0.11036055221652842,
            0.04400191597381444
          ],
          [
            -0.17205160960105076,
            -0.06672936740398014,
            0.11302261943761208,
            -0.2364527170674483,
            -0.04963328963486497,
            0.08540837930665786,
            0.179881179856197,
            -0.1315645481370999,
            0.09082270208913369,
            0.055860352862338224,
            -0.06357467701416562,
            0.052856667899798114,
            -0.05259034371225072,
            -0.14221812009376597,
            -0.13065459200408058,
            -0.041706560285645795,
            0.21100569555821302,
            0.0726125309685736,
            0.11547970455192243,
            0.17892337754993315,
            0.28036780345010975,
            -0.17721981490853544,
            -0.0018126979895556573,
            -0.048299123039611605,
            0.010790353666943439,
            0.01467822177134771,
            0.08040847252053814,
            -0.02854063430003272,
            -0.10768710100686414,
            -0.02213875029991386,
            -0.17814107279522162,
            0.04617659865706081,
            -0.06627552610349756,
            0.20160622922795543,
            0.015373355884045934,
            -0.1258304098771415,
            0.035001129557960205,
            -0.137817304581951,
            -0.11756598456471627,
            0.14634203928950767,
            -0.15909981120905364,
            -0.0032874075198988328,
            -0.061696587660968465,
            0.07233144728083414,
            -0.03756752765402524,
            -0.04716309984857853,
            0.006561681597957378,
            -0.033465456806653776,
            -0.10875379697306053,
            0.05929463331953124,
            0.0604146861226128,
            0.01662517098733476,
            -0.1410423941967617,
            -0.1568031486675889,
            0.1381327023249992,
            0.09669159055319243,
            -0.04087178016942792,
            0.021731149138865737,
            0.024188208623252452,
            -0.021706508607646044,
            0.007838169851899095,
            -0.12669038484548836,
            0.05528439642253797,
            -0.0742717471308379,
            0.03252183188382268,
            -0.08944750528446871,
            0.028965797544836223,
            0.2889758702606092,
            -0.261934563104686,
            -0.06972789267801772,
            0.17904629322534665,
            -0.1710540161210871,
            0.0432637040855779,
            -0.12275795449946768,
            0.06542717104076481,
            -0.12963503424718978,
            0.06795564070208927,
            0.12548204213878675,
            0.07781096777044985,
            -0.02858852059654625,
            0.033956900061507284,
            -0.14545796889942741,
            -0.06058164462739003,
            0.024521127816016113,
            0.14069996160713458,
            -0.1269678177745719,
            0.032481501511826834,
            -0.015882159726535977,
            -0.006694057102763873,
            -0.12053756924338402,
            0.14684794919205116,
            0.028308411836482358,
            -0.10008663977688848,
            0.0003334633585187456,
            0.09709909361974085,
            0.06326933842742284,
            -0.08244300840636833,
            -0.026158570920916967,
            -0.005999278538623549,
            0.07325474615596907,
            -0.09310345084196608,
            0.08746691460955472,
            0.134771902838354,
            0.010384655694429347,
            -0.1233806118794434,
            -0.08139248739307994,
            -0.16835417865857416,
            0.010715217298691989,
            0.15904597138356447,
            -0.01037019747789421,
            -0.043279745296067075,
            -0.14040896791452911,
            0.04884001358996032,
            -0.008417028369373332,
            -0.0389890981882003,
            -0.028300372134767455,
            -0.12242239292281709,
            0.1287314164003352,
            -0.04533812706180645,
            0.05533780428744814,
            -0.018897006797759124,
            -0.10743877094716607,
            0.08175673907600321,
            0.02617747675511464,
            -0.14925745017432626,
            0.01841893071481636,
            -0.24540126139799714,
            0.15666965379122505
          ],
          [
            0.14933269487971815,
            -0.10380686000318516,
            -0.03953147392765346,
            -0.03855208441126272,
            -0.15420367336417837,
            -0.055416236114758016,
            0.09354922570727853,
            -0.13391533078514462,
            -0.023011292275019343,
            0.0593058347773123,
            -0.13254550375110719,
            0.03447994734055768,
            -0.03472386774576929,
            -0.05086565088224425,
            -0.08581679814640403,
            -0.10705388302904759,
            -0.02447280965757853,
            0.11929499473434806,
            0.14745023665816384,
            0.07343411150122453,
            -0.0020386242691667915,
            -0.09497967267181996,
            0.0624301743633562,
            -0.0037329087438323755,
            0.028709175795682863,
            -0.25663350070381846,
            0.0026000398868653665,
            -0.16193337672451757,
            -0.07586715434815129,
            -0.03715386119417879,
            0.06721621909531571,
            -0.1850335220412887,
            0.12253861897903555,
            -0.14264646260915553,
            -0.017916452735837595,
            0.16329091780089905,
            -0.056817272272732734,
            0.06238328287187863,
            0.08785199979452929,
            0.0066387470006428985,
            -0.045561097512607264,
            0.12084739410256623,
            0.10934115304899064,
            0.039442613148859086,
            -0.12117428233284852,
            -0.09984062051331692,
            -0.06592030390277931,
            -0.1728223439011979,
            0.09465049477380431,
            0.08030020480662904,
            -0.22462478857925533,
            -0.09065482101974318,
            0.02112058949129104,
            0.0015716217124250855,
            -0.09914177481640532,
            0.09571139895316723,
            0.19456887152007862,
            -0.12072242457267023,
            0.09279378554954557,
            0.08290400741521135,
            -0.08674937597138363,
            0.0037128826109849005,
            -0.06987064060641934,
            0.16805278517285854,
            0.02464038153173362,
            0.17180244846602394,
            0.12692244879697098,
            0.04056928842556197,
            0.19083275506486744,
            -0.03176654391777624,
            -0.10332581671115015,
            0.14920935565103088,
            0.0014875320364287426,
            -0.12596723146168368,
            -0.05811640048895198,
            -0.02328404542407364,
            -0.02983570463643226,
            0.05943004476033204,
            0.01055852154758403,
            0.06059250545609051,
            -0.04150725210170859,
            0.3190200521348741,
            -0.056610139195939733,
            -0.06073885756028335,
            -0.02492081816606206,
            -0.012679022698460218,
            -0.11372558513451118,
            -0.09512995114752038,
            0.09991595730903045,
            0.12367304669569483,
            0.011994600443393929,
            0.01024414877942622,
            0.11474557128368572,
            0.07062528616501204,
            0.012170325612662678,
            0.03805257205414379,
            -0.16252747487745453,
            0.07604341079129548,
            0.004088142264418383,
            0.15544016594734544,
            -0.1337947463139391,
            0.03662881300989705,
            -0.099170530210512,
            -0.17702785756581207,
            -0.24076534768032623,
            0.18922762226359002,
            0.050426919796054744,
            -0.12005621821442088,
            -0.03200704219194155,
            -0.012116390252075082,
            -0.02266588596796488,
            0.11945194339424153,
            -0.10654943507088586,
            -0.11739618849438238,
            -0.06541941564412482,
            0.19712334635601964,
            0.08393394624487352,
            -0.09595249356118049,
            0.05152944330142646,
            0.1820394029276406,
            -0.001766669649614823,
            -0.09385062544614539,
            -0.08595791724911911,
            -0.07423092044187944,
            -0.0662952828557914,
            0.09598848836289127,
            -0.14925956906388657,
            -0.02015751508985698
          ],
          [
            0.0754943616486457,
            0.07247978569602712,
            -0.12914115901541165,
            0.07565959958128765,
            -0.008610502517530283,
            0.02214924922844272,
            -0.06532735493156272,
            -0.03327585202771989,
            -0.14550135047632676,
            -0.1716856602612283,
            0.12188629761593762,
            -0.21181948452616345,
            0.024655823094831733,
            0.07133802741473816,
            -0.26540691118329224,
            0.08908445058660079,
            -0.12336519227934951,
            0.1704371989313627,
            0.2153363070691874,
            0.09870025330268127,
            0.06909147445475665,
            -0.17452015860729042,
            -0.07654276383199848,
            -0.07908595402645016,
            -0.004635045163975625,
            0.0871043606551871,
            -0.044428739524712206,
            -0.08990950081051234,
            -0.04730964661903284,
            -0.1114191915521423,
            -0.040648756206429666,
            0.022008738165155643,
            -0.04662361596393818,
            0.12691760606844527,
            -0.18020090466719638,
            0.012783433077313349,
            0.05326773323765039,
            -0.036327682175156126,
            -0.1423113578900053,
            0.11262602401759608,
            -0.13026967781375368,
            0.06353265620013031,
            0.058704775290536526,
            -0.068840361731756,
            -0.13024037638698258,
            -0.06526334846945243,
            -0.01714795697766496,
            0.13997984313005957,
            0.1973030563783762,
            0.051312987737745154,
            0.09037317969030147,
            -0.09223278970772723,
            -0.1436143471672468,
            0.054679207871200106,
            -0.015609980968576635,
            -0.21205342212170528,
            0.008353507701963792,
            0.10028730405911061,
            0.1090322833021215,
            0.060469200731830895,
            0.12666274630837557,
            0.16538194674908008,
            -0.02890157688171498,
            -0.07920231322593156,
            0.16310873941154067,
            0.04606283439122119,
            0.12851178491759987,
            0.2158146034853875,
            0.04952345892951529,
            0.10696253854928559,
            0.0694422029358887,
            -0.005233227399921395,
            -0.003871440330895689,
            0.05268849246434524,
            0.032864004318630166,
            0.12747112433725377,
            -0.15158386433670828,
            -0.09926355317612656,
            0.076006248218159,
            0.04353612424619601,
            -0.12429911026521241,
            -0.013143210597553306,
            0.2580273833076401,
            0.03015412520250051,
            0.00874979234323386,
            -0.01919906981839758,
            -0.059874492123687575,
            0.0637998829927605,
            -0.03702816048014355,
            -0.09697529192598459,
            0.0015163105629097504,
            0.030546116214590028,
            -0.11505040440189718,
            -0.028633444812795627,
            -0.00405094191188724,
            0.17084311192922683,
            -0.019571641878890086,
            0.016039975029250645,
            -0.060479264779921466,
            -0.009469912258075846,
            -0.08424275569509274,
            0.09718985199749774,
            0.09421226473669066,
            -0.2412757390492697,
            -0.14960789419329318,
            -0.27193950092359975,
            0.1385287603228096,
            -0.247878330648457,
            -0.055045949992534315,
            -0.04404636631310281,
            -0.09627659057763689,
            0.22354394563308888,
            0.09485708439414345,
            0.26729915363181167,
            -0.2238352405311845,
            0.07305712888958692,
            -0.046512875288628526,
            0.06756984756650936,
            -0.1584928745486749,
            0.050138917346779416,
            -0.0456678690439061,
            -0.042959463784944925,
            0.21958054826744072,
            -0.06617210830089962,
            -0.013561213328492453,
            -0.02257578147692174,
            -0.05129333796460739,
            0.01868949334325322
          ],
          [
            -0.15196221414859729,
            -0.06847266136724453,
            0.09626979000702778,
            -0.010830544931803803,
            -0.02521815932914859,
            0.05663216989274049,
            0.1924741684370927,
            -0.06633566883613436,
            -0.011141613838935782,
            -0.015396839171433871,
            -0.15614271615512773,
            0.13142045321364482,
            -0.10725134657784575,
            -0.03002295735793961,
            0.06794881188521881,
            -0.20000179209654007,
            0.02590035942142264,
            -0.10217714861266267,
            0.003620216023386016,
            -0.016260307601822187,
            0.1308250558715658,
            -0.03513388348846957,
            -0.10087025661030838,
            0.10765990177229477,
            0.04209367616875908,
            -0.06624737015318671,
            -0.05209525113868622,
            0.02027942277761241,
            0.016389018637859652,
            -0.0656494947094725,
            0.17174917681456087,
            0.10657920465603943,
            0.17213653035328547,
            0.05220840666303559,
            0.019873914977640645,
            0.0362712483264389,
            -0.12097116044916281,
            0.10549307075178055,
            -0.06397597620964823,
            -0.09469591148189833,
            0.048738659730919995,
            0.013863453495867852,
            0.1125919756503906,
            0.03413940241448151,
            0.03101135211628761,
            -0.004629429186621373,
            0.16927554974888753,
            -0.12084849134161876,
            -0.09021213042570016,
            -0.10257834400501563,
            0.012773734351810827,
            -0.14761474078275388,
            -0.09231782429607815,
            -0.08685504747369929,
            -0.0006873563932371953,
            0.090818255336716,
            -0.0690404650093792,
            0.03486954756112191,
            -0.08294685082760575,
            -0.006346417873652423,
            0.11616528574110725,
            0.13121969251968416,
            -0.014288927890921831,
            0.028109974217820678,
            0.08790078028723879,
            -0.09536871155498805,
            -0.14300332405734933,
            -0.041398832460186,
            0.1389452626515316,
            0.21860813703795803,
            -0.05597428128737413,
            -0.10356844616521312,
            -0.06100547413408455,
            0.06610372461685465,
            -0.12567547877632998,
            -0.028266953955816104,
            0.0828194240188194,
            0.020244084961193898,
            0.002276602920371197,
            0.1992614963820777,
            0.17962149119263446,
            -0.10258003293475143,
            -0.1311144774477919,
            0.16882432541694958,
            -0.04830198002122278,
            0.13437976029386997,
            -0.06964162430668998,
            -0.12208562715813656,
            -0.008871184116127829,
            0.018104924453303632,
            0.14882368629622997,
            -0.029391411623727028,
            0.07195608730938646,
            0.0035315437412816912,
            0.012938803264296288,
            -0.09200207846077757,
            0.0828611270366782,
            0.025894613365834134,
            0.006539825204274578,
            0.028535297674319532,
            -0.09232356737098761,
            -0.040380219319205796,
            -0.1083278727898604,
            0.024256558873560517,
            -0.09067270533005972,
            -0.0678506263506176,
            -0.11950906298506984,
            0.04840539498671708,
            -0.06472683791686486,
            -0.06806929340699498,
            -0.035414956071426404,
            -0.25853314229012436,
            -0.003520338563180454,
            -0.14604424456772191,
            -0.03476766835131516,
            -0.26694581493819225,
            -0.007308927810584876,
            -0.10510997086441481,
            -0.172338717473991,
            -0.1552051368321371,
            0.002181909000307731,
            0.1273688609282355,
            -0.07600708940727637,
            0.05933954715421739,
            -0.0804556615054661,
            -0.0965017121721236,
            0.1698695867755825,
            -0.20264383135834366
          ],
          [
            0.11322363561326994,
            0.058497441057014696,
            0.023361177865798107,
            -0.1376007734177638,
